{
  "type": "LSTM",
  "options": {
    "inputSize": 63,
    "inputRange": 63,
    "hiddenLayers": [
      20,
      20
    ],
    "outputSize": 63,
    "decayRate": 0.999,
    "smoothEps": 1e-8,
    "regc": 0.000001,
    "clipval": 5,
    "maxPredictionLength": 100,
    "dataFormatter": {
      "values": [
        "to pauit ot okm k,y wkla, l lasl sal rdflas fldl .sgls.f glsdf gl.",
        "1",
        "ggggggggggggggggggggggggggggggsmkl",
        "hguyhpe",
        "jhpy",
        "hpyter",
        "awak;e kist jas a sdgkolp akl gogamikgjj mnchair she hchnane adedit twel",
        "keyboadf is in wrong plerson",
        "i ee DtISsue'sStrOKe For rseAR hpurpoeS",
        "welp i hurdd y ouy reasrc h purps o",
        "RTFDawegpjk",
        "gahcike",
        "gachikek",
        "gacheki",
        "@gahce",
        "each reporting each other not responding",
        "0",
        "I just want steam to close",
        "what the fuck is happening",
        "I think task manager just started not responding",
        "have you tried deleting system32",
        "i woke up at 5:45am to my leg cramping ",
        "notepad chan saved me again",
        "she just said she is going to get some",
        "my mother keeps forgetting to buy me new batteries",
        "the current stroke values in the code are pretty low",
        "Thats probably what happens if you survive a head crab attack",
        "Looks like something out of half life",
        "gahickekpau",
        "thn i canmakeit autod etectand ogtsrokes",
        "rptweab489y[j07-r;tzesgijmou 'fkrd;tvesimou r3tepyilmnosu4589rtvheybilmnosu458 d",
        "rawer x3 wuv you",
        "sr ddoyu mea nducknig",
        "i;'klkl jsut speak normally and when i have as torkme uj;klkl subismit it",
        "gafihpaui",
        "ghacvhio",
        "infinite loo :lgaiockhopau",
        "subjmtititjng sdtroke,s",
        "suhbujmnit",
        "every stennfcen i type is a storke <:notlikehyper:821353740707299338>",
        "w2jym osikl sayoikjgmf hlel os fu8jhn",
        "you shud jst akea channl i ttaks th estff frm, adn tssues oud juts wriet asotry i the or smothngik tt",
        "syncs aga in",
        "disjsjsjsjsjsjsjsjsjsjsjsjsjsjsjsjsjsjsjsjsjsjsjfpk",
        "whenever you add a new emote it restncsa sreyncs resyncs syncs aga in stinks again sink stn disjsjsjsjsjsjsjsjsjsjsjsjsjsjsjsjsjsjsjsjsjsjsjfpk",
        "mjotlikesid",
        "jujst gsubjmikt all odf my eses",
        "that is not very minors :hachyasope",
        "v",
        "ajmayumnesdgm sads trokes",
        "wudisamkdjcmesadiofjksa ;b/.tol egok,e hik,rw hole.r ;le/.",
        "wijdnwols ; notyhonb",
        "widnmwos n;lot",
        "losing a quest 1 and quqest 2 adtg esdgklrgmiorkljgmiksdlgjmrs djkgggggggggggggggggggggggmmmmmmm",
        "quqest 2 adtg esdgklrgmiorkljgmiksdlgjmrs",
        "do i zxtill havuy8ejih testgkhejnagjaem fsadjn gmusdjmn gjnsaed tolw tyghifsjkmgh ndsasgsu ijemsaf i8kse cvnewfmnermegbme tfuijkfi kdeltyeikd itk oerlk not",
        "that would make ieasrter er",
        "aaperhpasr #",
        "i nwws r o ler mt",
        "e;ldfk",
        "s;dlfki#",
        ":jhpy e:fhrph :hypert :hptye e;hpertyg :hpye r",
        "tyyesd yhre s yes uyes yes",
        ":klap l:ka ;ak, ;k :@la] lj",
        ".wakf /waif /waifgu /waf .wafer .waofi .wafiu .wafiu",
        ".wafiu .wafoi ./wafi# /.wfi .wafi .awfi .wafi .wafi .wafi",
        ".wafu .wafi .wafu .wafu .wfi .wafu .wafui .wafui .waif .wafiu .wife .waifui .wafi .wafiu .wafui",
        ":lkeke :@keke",
        ".submitstor .sbu .sub .sbu :lkeke :@keke .subsmtiroke :lkeke :@keke .submtistroke :lkeke :@keke .submitstroke :lkeke :@keke",
        "kghjklszghklzdjgkl;dasjg <character creaton <character creatioin <character creatioin",
        "helljdsif eveaeinyppne",
        "augpifdubhjnyahny",
        "auhdha jdai ai love",
        "ji kpe srt i foing",
        "if yosaued fmikol,.]##",
        "i wantb tobsesitve?xuux",
        "nporthern accents :pwep"
      ],
      "indexTable": {
        "0": 38,
        "1": 19,
        "2": 41,
        "3": 40,
        "4": 44,
        "5": 42,
        "7": 49,
        "8": 46,
        "9": 47,
        "t": 0,
        "o": 1,
        " ": 2,
        "p": 3,
        "a": 4,
        "u": 5,
        "i": 6,
        "k": 7,
        "m": 8,
        ",": 9,
        "y": 10,
        "w": 11,
        "l": 12,
        "s": 13,
        "r": 14,
        "d": 15,
        "f": 16,
        ".": 17,
        "g": 18,
        "h": 20,
        "e": 21,
        "j": 22,
        ";": 23,
        "n": 24,
        "c": 25,
        "b": 26,
        "D": 27,
        "I": 28,
        "S": 29,
        "'": 30,
        "O": 31,
        "K": 32,
        "F": 33,
        "A": 34,
        "R": 35,
        "T": 36,
        "@": 37,
        "v": 39,
        ":": 43,
        "L": 45,
        "[": 48,
        "-": 50,
        "z": 51,
        "x": 52,
        "<": 53,
        ">": 54,
        "/": 55,
        "q": 56,
        "#": 57,
        "]": 58,
        "?": 59,
        "stop-input": 60,
        "start-output": 61,
        "unrecognized": 62
      },
      "characterTable": {
        "0": "t",
        "1": "o",
        "2": " ",
        "3": "p",
        "4": "a",
        "5": "u",
        "6": "i",
        "7": "k",
        "8": "m",
        "9": ",",
        "10": "y",
        "11": "w",
        "12": "l",
        "13": "s",
        "14": "r",
        "15": "d",
        "16": "f",
        "17": ".",
        "18": "g",
        "19": "1",
        "20": "h",
        "21": "e",
        "22": "j",
        "23": ";",
        "24": "n",
        "25": "c",
        "26": "b",
        "27": "D",
        "28": "I",
        "29": "S",
        "30": "'",
        "31": "O",
        "32": "K",
        "33": "F",
        "34": "A",
        "35": "R",
        "36": "T",
        "37": "@",
        "38": "0",
        "39": "v",
        "40": "3",
        "41": "2",
        "42": "5",
        "43": ":",
        "44": "4",
        "45": "L",
        "46": "8",
        "47": "9",
        "48": "[",
        "49": "7",
        "50": "-",
        "51": "z",
        "52": "x",
        "53": "<",
        "54": ">",
        "55": "/",
        "56": "q",
        "57": "#",
        "58": "]",
        "59": "?",
        "60": null,
        "61": null,
        "62": null
      },
      "characters": [
        "t",
        "o",
        " ",
        "p",
        "a",
        "u",
        "i",
        "k",
        "m",
        ",",
        "y",
        "w",
        "l",
        "s",
        "r",
        "d",
        "f",
        ".",
        "g",
        "1",
        "h",
        "e",
        "j",
        ";",
        "n",
        "c",
        "b",
        "D",
        "I",
        "S",
        "'",
        "O",
        "K",
        "F",
        "A",
        "R",
        "T",
        "@",
        "0",
        "v",
        "3",
        "2",
        "5",
        ":",
        "4",
        "L",
        "8",
        "9",
        "[",
        "7",
        "-",
        "z",
        "x",
        "<",
        ">",
        "/",
        "q",
        "#",
        "]",
        "?",
        "stop-input",
        "start-output",
        "unrecognized"
      ],
      "specialIndexes": [
        60,
        61,
        62
      ]
    }
  },
  "input": {
    "rows": 64,
    "columns": 63,
    "weights": {
      "0": -0.7578727602958679,
      "1": -0.8165130615234375,
      "2": 0.2717937231063843,
      "3": -0.8086188435554504,
      "4": 0.7685571312904358,
      "5": 0.18552793562412262,
      "6": -1.757940649986267,
      "7": -0.2606232166290283,
      "8": 1.1871042251586914,
      "9": -0.08064308762550354,
      "10": 0.06592704355716705,
      "11": -0.8769665956497192,
      "12": 0.6721612215042114,
      "13": 1.3604644536972046,
      "14": -1.8104350566864014,
      "15": -0.5921407341957092,
      "16": -1.8079359531402588,
      "17": 0.45769792795181274,
      "18": -0.6631636023521423,
      "19": 0.142807736992836,
      "20": 1.8707565069198608,
      "21": 2.167914390563965,
      "22": -0.9721511602401733,
      "23": 0.9365784525871277,
      "24": -0.4458838105201721,
      "25": 0.7924165725708008,
      "26": -1.9154088497161865,
      "27": 1.6184086799621582,
      "28": -1.5585135221481323,
      "29": 0.16224411129951477,
      "30": -0.06872190535068512,
      "31": 0.6355690956115723,
      "32": 0.8966843485832214,
      "33": 1.3090975284576416,
      "34": 0.7040234208106995,
      "35": 0.16641393303871155,
      "36": -1.7308366298675537,
      "37": -0.4464186131954193,
      "38": 1.0973607301712036,
      "39": -0.7056335210800171,
      "40": 0.9038894772529602,
      "41": -0.17312955856323242,
      "42": -1.4309663772583008,
      "43": 0.35857006907463074,
      "44": 0.6791893839836121,
      "45": -0.4266977608203888,
      "46": -1.121868371963501,
      "47": -0.8205463886260986,
      "48": -0.2772534489631653,
      "49": -0.1134573370218277,
      "50": 1.5194387435913086,
      "51": 1.5606533288955688,
      "52": -0.2533922791481018,
      "53": 0.4270901679992676,
      "54": 0.9639699459075928,
      "55": 0.1458013355731964,
      "56": -1.1376898288726807,
      "57": -0.4365748465061188,
      "58": 1.069365382194519,
      "59": 0.9644026160240173,
      "60": -0.339465856552124,
      "61": 0.6179040670394897,
      "62": 0.6691591739654541,
      "63": 0.7572985887527466,
      "64": -1.6548967361450195,
      "65": -3.4664125442504883,
      "66": -1.588326334953308,
      "67": 2.6702518463134766,
      "68": 2.613968849182129,
      "69": -0.8589237928390503,
      "70": -0.8490266799926758,
      "71": -0.04653295502066612,
      "72": 3.2530412673950195,
      "73": -1.3067163228988647,
      "74": 1.1291241645812988,
      "75": -3.1811282634735107,
      "76": 2.5988669395446777,
      "77": -0.8502814769744873,
      "78": -3.196316957473755,
      "79": 1.8077373504638672,
      "80": 3.9992616176605225,
      "81": -0.5528250932693481,
      "82": 1.7821444272994995,
      "83": -0.9521885514259338,
      "84": 1.6780813932418823,
      "85": -3.4752016067504883,
      "86": -1.5812721252441406,
      "87": -1.0976755619049072,
      "88": 1.5542799234390259,
      "89": -1.1069676876068115,
      "90": -2.0177133083343506,
      "91": -1.6877087354660034,
      "92": -0.3264453709125519,
      "93": 0.8546755313873291,
      "94": 3.928330421447754,
      "95": 1.5542601346969604,
      "96": 2.161846876144409,
      "97": 0.5385762453079224,
      "98": -1.2591179609298706,
      "99": 4.028072357177734,
      "100": -0.13080213963985443,
      "101": -0.5866633653640747,
      "102": -0.7839494347572327,
      "103": 1.209185242652893,
      "104": -3.0486791133880615,
      "105": -1.899437665939331,
      "106": 1.1970736980438232,
      "107": -0.916254460811615,
      "108": -3.953704595565796,
      "109": -1.8566758632659912,
      "110": -4.954037666320801,
      "111": -0.6730852723121643,
      "112": 1.377366065979004,
      "113": 1.249290108680725,
      "114": 1.3343130350112915,
      "115": 2.402263879776001,
      "116": 1.8382319211959839,
      "117": -1.7625446319580078,
      "118": 2.5657427310943604,
      "119": -2.0243797302246094,
      "120": -2.095069169998169,
      "121": -3.140700101852417,
      "122": -0.7548953294754028,
      "123": -0.6837210655212402,
      "124": 2.225961208343506,
      "125": 1.5688153505325317,
      "126": 4.942336559295654,
      "127": -1.3471187353134155,
      "128": 1.9555174112319946,
      "129": -1.1669461727142334,
      "130": 0.6655978560447693,
      "131": -3.328709840774536,
      "132": 2.918246269226074,
      "133": 0.6003417372703552,
      "134": -1.529702067375183,
      "135": 0.2086430937051773,
      "136": -0.45470714569091797,
      "137": 1.5619322061538696,
      "138": -0.06168735399842262,
      "139": -0.382854163646698,
      "140": -1.0733566284179688,
      "141": 0.64566969871521,
      "142": 1.4037905931472778,
      "143": -3.0132346153259277,
      "144": -0.3031640946865082,
      "145": -2.0040173530578613,
      "146": -2.8443145751953125,
      "147": 0.7096849083900452,
      "148": 0.9551063776016235,
      "149": 3.2404892444610596,
      "150": 5.11497163772583,
      "151": 0.0636734589934349,
      "152": 0.21101680397987366,
      "153": 1.5354799032211304,
      "154": -0.8210955858230591,
      "155": 0.606529951095581,
      "156": -2.6649601459503174,
      "157": 0.5787831544876099,
      "158": -2.397569179534912,
      "159": 0.6600902676582336,
      "160": -1.0999380350112915,
      "161": -0.18692824244499207,
      "162": -4.906018257141113,
      "163": 0.48482754826545715,
      "164": -1.016274333000183,
      "165": 0.8284580111503601,
      "166": 3.259437322616577,
      "167": -0.6380161046981812,
      "168": 0.21543966233730316,
      "169": 2.3095030784606934,
      "170": -1.4640098810195923,
      "171": 3.504239797592163,
      "172": 2.9083871841430664,
      "173": -0.23029908537864685,
      "174": 0.0934290662407875,
      "175": 1.590206503868103,
      "176": 0.731403648853302,
      "177": 0.9691054224967957,
      "178": -1.1014856100082397,
      "179": -4.24959135055542,
      "180": 3.249329090118408,
      "181": -0.23694780468940735,
      "182": -1.1095057725906372,
      "183": 0.35683581233024597,
      "184": -0.895637571811676,
      "185": 2.087665557861328,
      "186": 3.613253116607666,
      "187": 1.4086637496948242,
      "188": -2.4359495639801025,
      "189": 0.4473029673099518,
      "190": -0.4893740117549896,
      "191": -0.2653077244758606,
      "192": 0.43346214294433594,
      "193": -2.0267069339752197,
      "194": 0.5982452630996704,
      "195": 4.553909778594971,
      "196": -2.0673179626464844,
      "197": -1.4867759943008423,
      "198": -1.1487812995910645,
      "199": 2.678056001663208,
      "200": -0.8203259706497192,
      "201": 1.8253859281539917,
      "202": -0.15706896781921387,
      "203": -2.299206256866455,
      "204": 0.16469736397266388,
      "205": 2.4325523376464844,
      "206": -0.04580381512641907,
      "207": 4.153449535369873,
      "208": -1.747956395149231,
      "209": 0.8519538640975952,
      "210": 4.847529411315918,
      "211": 1.3980343341827393,
      "212": -0.021939320489764214,
      "213": -2.0172464847564697,
      "214": -2.968139171600342,
      "215": -0.8518069386482239,
      "216": 2.927492618560791,
      "217": 0.4269992709159851,
      "218": -0.41141578555107117,
      "219": 2.1076431274414062,
      "220": -2.3099470138549805,
      "221": 1.9911973476409912,
      "222": -2.1470558643341064,
      "223": 0.13345114886760712,
      "224": 1.230437994003296,
      "225": -1.2514580488204956,
      "226": -0.9874125123023987,
      "227": 3.353804588317871,
      "228": 0.14761318266391754,
      "229": -1.61855947971344,
      "230": 0.15545086562633514,
      "231": -0.5390281677246094,
      "232": 0.2740529179573059,
      "233": 1.8651673793792725,
      "234": -0.34136897325515747,
      "235": 3.8168277740478516,
      "236": 3.651104211807251,
      "237": 1.8757909536361694,
      "238": 2.8948490619659424,
      "239": -1.0866326093673706,
      "240": -2.655672550201416,
      "241": -0.7001996040344238,
      "242": 2.5356972217559814,
      "243": 2.5787220001220703,
      "244": -1.1477911472320557,
      "245": 2.8961541652679443,
      "246": -2.6553702354431152,
      "247": 0.13515713810920715,
      "248": 0.6357349157333374,
      "249": -0.25044623017311096,
      "250": -1.3827946186065674,
      "251": 0.2537427544593811,
      "252": -1.1704652309417725,
      "253": -0.17598310112953186,
      "254": 2.1794209480285645,
      "255": 2.8369436264038086,
      "256": 0.3472602665424347,
      "257": -2.8634417057037354,
      "258": 4.345937728881836,
      "259": -3.23395037651062,
      "260": -2.0593857765197754,
      "261": 1.6660144329071045,
      "262": 0.5104629993438721,
      "263": 1.9124253988265991,
      "264": -0.5549224615097046,
      "265": -2.9727883338928223,
      "266": -2.893552780151367,
      "267": -0.33139151334762573,
      "268": 3.9351046085357666,
      "269": 1.407740592956543,
      "270": 0.4282960295677185,
      "271": -1.7648485898971558,
      "272": -2.3840909004211426,
      "273": 1.850501298904419,
      "274": -2.292323112487793,
      "275": -3.1046414375305176,
      "276": -0.6372024416923523,
      "277": -0.7238869667053223,
      "278": 4.564548492431641,
      "279": -0.7356969714164734,
      "280": 1.1105021238327026,
      "281": 3.540018320083618,
      "282": -0.6092324256896973,
      "283": -3.2476260662078857,
      "284": 3.566134214401245,
      "285": -4.377320766448975,
      "286": 2.505192995071411,
      "287": 1.5312179327011108,
      "288": -0.6520770192146301,
      "289": 0.009969784878194332,
      "290": -2.680849552154541,
      "291": 0.7597696781158447,
      "292": 0.9084552526473999,
      "293": -1.3339529037475586,
      "294": -1.0451303720474243,
      "295": 0.3419678807258606,
      "296": 8.79329776763916,
      "297": -4.038281440734863,
      "298": 0.9655095934867859,
      "299": 0.9211114048957825,
      "300": -1.041021704673767,
      "301": 0.27296605706214905,
      "302": -2.674046754837036,
      "303": 4.189117431640625,
      "304": 0.5753938555717468,
      "305": 1.23807954788208,
      "306": -3.0052742958068848,
      "307": -3.2563564777374268,
      "308": 3.1674671173095703,
      "309": -1.2276389598846436,
      "310": -0.05008210614323616,
      "311": 2.209341049194336,
      "312": -3.886831283569336,
      "313": -0.05843362957239151,
      "314": -0.44276055693626404,
      "315": 1.2405096292495728,
      "316": -1.4694758653640747,
      "317": 2.7471256256103516,
      "318": -0.031440552324056625,
      "319": 0.7013750672340393,
      "320": 0.12784680724143982,
      "321": 1.5825861692428589,
      "322": -1.4570780992507935,
      "323": -1.6563832759857178,
      "324": 1.5634174346923828,
      "325": 2.9185352325439453,
      "326": -1.2725290060043335,
      "327": -0.3175007700920105,
      "328": -0.19561968743801117,
      "329": -2.223646402359009,
      "330": 2.1844253540039062,
      "331": 0.5613319873809814,
      "332": -0.7412464618682861,
      "333": 0.5952008962631226,
      "334": 1.0225272178649902,
      "335": -3.382654905319214,
      "336": 0.01480114459991455,
      "337": 2.556373357772827,
      "338": -1.6013174057006836,
      "339": -2.4829864501953125,
      "340": -2.321378231048584,
      "341": 1.6142535209655762,
      "342": 0.4062487781047821,
      "343": 1.3772159814834595,
      "344": 1.348294734954834,
      "345": -3.092832565307617,
      "346": -4.3943657875061035,
      "347": -0.27139368653297424,
      "348": -1.2862647771835327,
      "349": 0.305814653635025,
      "350": -0.15420123934745789,
      "351": 1.5871385335922241,
      "352": 1.6606236696243286,
      "353": -0.3181961476802826,
      "354": -1.3048484325408936,
      "355": -1.7263524532318115,
      "356": 0.4807705283164978,
      "357": 3.215327501296997,
      "358": 0.09124462306499481,
      "359": 2.9077837467193604,
      "360": 4.890285968780518,
      "361": 1.3841795921325684,
      "362": 2.3357179164886475,
      "363": 0.38645100593566895,
      "364": 1.2853970527648926,
      "365": -2.0206141471862793,
      "366": 0.9339920282363892,
      "367": -0.7915095090866089,
      "368": 0.8175474405288696,
      "369": -0.8540410995483398,
      "370": -2.59344744682312,
      "371": 3.214914083480835,
      "372": -1.2308590412139893,
      "373": -1.0447795391082764,
      "374": 1.1042569875717163,
      "375": 0.3296582102775574,
      "376": -2.646045446395874,
      "377": 0.5154330730438232,
      "378": -5.216142654418945,
      "379": -1.0201818943023682,
      "380": -0.693119466304779,
      "381": 1.2986819744110107,
      "382": 2.0593955516815186,
      "383": 3.3051271438598633,
      "384": -4.0140838623046875,
      "385": 2.978797435760498,
      "386": -0.43139684200286865,
      "387": -1.0535223484039307,
      "388": 0.7960496544837952,
      "389": 0.2530485689640045,
      "390": 0.3850741982460022,
      "391": -0.3344760537147522,
      "392": -5.25715970993042,
      "393": -0.31418943405151367,
      "394": -2.0980615615844727,
      "395": 0.5106342434883118,
      "396": -0.31479090452194214,
      "397": -2.1181979179382324,
      "398": 4.2062835693359375,
      "399": 5.331737995147705,
      "400": -3.721143960952759,
      "401": 0.8904917240142822,
      "402": -1.9218734502792358,
      "403": 1.1238669157028198,
      "404": -1.3451229333877563,
      "405": 4.211996078491211,
      "406": -2.351306438446045,
      "407": 3.1448562145233154,
      "408": -1.2142595052719116,
      "409": 1.5986882448196411,
      "410": 3.8785059452056885,
      "411": 0.4890519380569458,
      "412": 3.018717050552368,
      "413": -1.0115435123443604,
      "414": -2.344186782836914,
      "415": -1.918623447418213,
      "416": 1.9071762561798096,
      "417": -0.691843569278717,
      "418": 1.215139627456665,
      "419": 1.4112613201141357,
      "420": -3.790104389190674,
      "421": 1.2359346151351929,
      "422": 1.9633700847625732,
      "423": -3.7593252658843994,
      "424": -1.6989613771438599,
      "425": -2.58065128326416,
      "426": -2.568718910217285,
      "427": -1.3808364868164062,
      "428": 5.101073741912842,
      "429": 1.7110981941223145,
      "430": 0.48060691356658936,
      "431": 3.939572811126709,
      "432": 0.25644099712371826,
      "433": -0.6155845522880554,
      "434": -1.557169795036316,
      "435": -0.6902791857719421,
      "436": 0.22341501712799072,
      "437": 1.5096341371536255,
      "438": -0.15646661818027496,
      "439": -0.10724151134490967,
      "440": -0.0007084510289132595,
      "441": 2.9614932537078857,
      "442": 1.8307141065597534,
      "443": -3.408392906188965,
      "444": -2.074444532394409,
      "445": -2.3702199459075928,
      "446": 0.48246490955352783,
      "447": -2.41534161567688,
      "448": -0.2486720085144043,
      "449": -3.274448871612549,
      "450": 0.6869224309921265,
      "451": 0.16779400408267975,
      "452": 1.2299838066101074,
      "453": -3.0679540634155273,
      "454": 1.5396562814712524,
      "455": 2.135131597518921,
      "456": -1.5186645984649658,
      "457": 0.8879610300064087,
      "458": -0.08569097518920898,
      "459": -2.7737581729888916,
      "460": 0.7270668148994446,
      "461": 1.6237235069274902,
      "462": 0.6164464354515076,
      "463": -0.15469379723072052,
      "464": 1.2200584411621094,
      "465": 2.6473677158355713,
      "466": 1.2787413597106934,
      "467": -0.2507847249507904,
      "468": -4.123368740081787,
      "469": -1.0085092782974243,
      "470": -0.44393646717071533,
      "471": 1.530401587486267,
      "472": 0.738826334476471,
      "473": -2.004516363143921,
      "474": 1.6940524578094482,
      "475": -1.6005312204360962,
      "476": 2.1864659786224365,
      "477": 0.06478773802518845,
      "478": 1.0062482357025146,
      "479": 3.253485679626465,
      "480": 2.579284906387329,
      "481": -3.443455457687378,
      "482": 1.8045146465301514,
      "483": -0.5863407254219055,
      "484": -0.6942487955093384,
      "485": -0.2432919293642044,
      "486": 1.8156312704086304,
      "487": 3.524296998977661,
      "488": -1.1146920919418335,
      "489": 0.42456158995628357,
      "490": -0.019217433407902718,
      "491": 1.7884137630462646,
      "492": -2.3962085247039795,
      "493": -1.3243027925491333,
      "494": -2.872248649597168,
      "495": -1.0677741765975952,
      "496": 0.8479890823364258,
      "497": -1.1636772155761719,
      "498": 0.979405403137207,
      "499": -0.0002832493628375232,
      "500": -1.846560001373291,
      "501": 0.7452929615974426,
      "502": 1.9589817523956299,
      "503": 0.26414501667022705,
      "504": 3.950840950012207,
      "505": -2.4695885181427,
      "506": -1.5669368505477905,
      "507": 2.841858386993408,
      "508": -1.676037311553955,
      "509": 0.24770322442054749,
      "510": 1.0946677923202515,
      "511": 2.6963002681732178,
      "512": -4.773949146270752,
      "513": 1.4717535972595215,
      "514": 3.1570112705230713,
      "515": 4.768499851226807,
      "516": 3.9157633781433105,
      "517": -1.5334711074829102,
      "518": 2.807957410812378,
      "519": -2.1030001640319824,
      "520": 0.18749850988388062,
      "521": -2.740946054458618,
      "522": -1.4566171169281006,
      "523": -1.9121383428573608,
      "524": -0.1317671537399292,
      "525": -3.449265718460083,
      "526": 1.6525431871414185,
      "527": 4.823050498962402,
      "528": 4.065130233764648,
      "529": -1.9258023500442505,
      "530": -0.2749858498573303,
      "531": 1.9378336668014526,
      "532": -0.79356849193573,
      "533": 4.760791301727295,
      "534": -2.7966721057891846,
      "535": -0.2834315896034241,
      "536": -1.628982663154602,
      "537": 1.460709810256958,
      "538": -2.1626837253570557,
      "539": -1.60137140750885,
      "540": -0.5535513758659363,
      "541": 1.2449218034744263,
      "542": -0.09200970083475113,
      "543": -1.7512043714523315,
      "544": 0.9690267443656921,
      "545": 0.8524407148361206,
      "546": 3.134207248687744,
      "547": -1.100691318511963,
      "548": 1.0290212631225586,
      "549": 2.218113660812378,
      "550": 1.2446238994598389,
      "551": 0.05478125438094139,
      "552": -0.30562546849250793,
      "553": -5.090302467346191,
      "554": -3.081526041030884,
      "555": -2.1297874450683594,
      "556": -3.915919780731201,
      "557": 2.181703567504883,
      "558": -2.1250979900360107,
      "559": -0.25372686982154846,
      "560": -0.13077369332313538,
      "561": 0.006817853543907404,
      "562": -0.465013325214386,
      "563": 1.7897676229476929,
      "564": 3.545473337173462,
      "565": -4.376367092132568,
      "566": -2.4013686180114746,
      "567": -1.3106141090393066,
      "568": 0.38507816195487976,
      "569": 3.573789358139038,
      "570": -3.7001004219055176,
      "571": 0.6175194382667542,
      "572": 1.9682732820510864,
      "573": 0.5735607743263245,
      "574": -2.3820111751556396,
      "575": 0.2080964595079422,
      "576": -2.0054264068603516,
      "577": -0.14289000630378723,
      "578": -1.4169116020202637,
      "579": 3.4581916332244873,
      "580": 1.602745771408081,
      "581": -8.669215202331543,
      "582": 5.367010593414307,
      "583": -3.7037465572357178,
      "584": -0.4643879532814026,
      "585": 2.888139247894287,
      "586": -1.1990902423858643,
      "587": 1.6629043817520142,
      "588": 6.842885971069336,
      "589": -1.1582804918289185,
      "590": -0.9468047618865967,
      "591": -5.251408576965332,
      "592": -1.4022730588912964,
      "593": -2.200988292694092,
      "594": 8.62518310546875,
      "595": -3.954282283782959,
      "596": -3.163998603820801,
      "597": -0.20604808628559113,
      "598": 3.3312273025512695,
      "599": 3.3775441646575928,
      "600": -1.2192797660827637,
      "601": 7.783412933349609,
      "602": -1.5397734642028809,
      "603": -2.239863872528076,
      "604": -5.337067127227783,
      "605": 3.1239161491394043,
      "606": -3.9134466648101807,
      "607": 0.4057213068008423,
      "608": 2.5728492736816406,
      "609": -0.7564833164215088,
      "610": -1.805633544921875,
      "611": -0.13306526839733124,
      "612": 3.9657201766967773,
      "613": -2.671738624572754,
      "614": 0.3398471474647522,
      "615": 0.6369094252586365,
      "616": 2.571420431137085,
      "617": 2.245150566101074,
      "618": 1.0118696689605713,
      "619": 5.738937854766846,
      "620": 1.3140965700149536,
      "621": 1.3710192441940308,
      "622": 0.46630173921585083,
      "623": -1.315688967704773,
      "624": -1.1156710386276245,
      "625": -1.374861478805542,
      "626": 6.050647735595703,
      "627": -2.2587645053863525,
      "628": -0.1439286321401596,
      "629": 0.6590257883071899,
      "630": 3.5965380668640137,
      "631": -0.33999404311180115,
      "632": 10.665218353271484,
      "633": -0.7127103209495544,
      "634": 3.241726875305176,
      "635": -5.545673370361328,
      "636": 4.75183629989624,
      "637": -1.820716142654419,
      "638": -2.4152991771698,
      "639": -5.634155750274658,
      "640": 6.713420391082764,
      "641": 0.5120882987976074,
      "642": 3.821523904800415,
      "643": -4.449043273925781,
      "644": -0.4587138295173645,
      "645": 1.9112884998321533,
      "646": -8.780591011047363,
      "647": -5.021289348602295,
      "648": 8.193418502807617,
      "649": -4.3530144691467285,
      "650": -1.6057801246643066,
      "651": 0.12728433310985565,
      "652": 2.5441956520080566,
      "653": -3.7254648208618164,
      "654": -7.539226055145264,
      "655": -3.389389991760254,
      "656": 11.210455894470215,
      "657": 7.30422306060791,
      "658": -9.128191947937012,
      "659": 12.084358215332031,
      "660": 3.4664785861968994,
      "661": -9.702384948730469,
      "662": 3.240049362182617,
      "663": -3.8719899654388428,
      "664": 2.999138116836548,
      "665": 0.8782568573951721,
      "666": -1.6185016632080078,
      "667": -5.233867168426514,
      "668": -4.002211093902588,
      "669": -5.205894470214844,
      "670": -0.38548415899276733,
      "671": 5.783455848693848,
      "672": 5.061636447906494,
      "673": -3.7171030044555664,
      "674": 7.537339687347412,
      "675": 6.636442184448242,
      "676": -2.1368167400360107,
      "677": 3.77699875831604,
      "678": 1.6549677848815918,
      "679": -1.2870603799819946,
      "680": -2.344045400619507,
      "681": -2.111898899078369,
      "682": 0.5994139313697815,
      "683": -0.5873989462852478,
      "684": 3.9760775566101074,
      "685": -12.226102828979492,
      "686": 9.864884376525879,
      "687": 1.5339250564575195,
      "688": -2.2793924808502197,
      "689": 4.457334995269775,
      "690": -1.1786211729049683,
      "691": 1.7702231407165527,
      "692": -7.181600093841553,
      "693": 1.0333107709884644,
      "694": -3.3587522506713867,
      "695": 0.8189159035682678,
      "696": -3.644242763519287,
      "697": -0.10976631194353104,
      "698": -0.11423727869987488,
      "699": 2.8248207569122314,
      "700": -3.092277765274048,
      "701": 6.682572364807129,
      "702": 4.861337184906006,
      "703": -1.617526888847351,
      "704": -4.723993301391602,
      "705": 1.2435868978500366,
      "706": 7.0605597496032715,
      "707": -3.189845561981201,
      "708": 2.6791329383850098,
      "709": -4.918820381164551,
      "710": -2.452854633331299,
      "711": -2.050359010696411,
      "712": 4.129680633544922,
      "713": -1.2200825214385986,
      "714": 1.600799560546875,
      "715": 0.3728569746017456,
      "716": 3.0477206707000732,
      "717": 1.442965030670166,
      "718": 0.3090812861919403,
      "719": 0.682034969329834,
      "720": -0.19652406871318817,
      "721": -3.6087517738342285,
      "722": -5.1017303466796875,
      "723": -2.9941084384918213,
      "724": -0.0433325357735157,
      "725": 0.2718144357204437,
      "726": 2.127173662185669,
      "727": 0.9657325744628906,
      "728": -0.13136930763721466,
      "729": -2.2637507915496826,
      "730": -3.576507329940796,
      "731": 3.7140777111053467,
      "732": -2.1517093181610107,
      "733": -1.0039654970169067,
      "734": 0.20843249559402466,
      "735": 1.8978983163833618,
      "736": 2.1756231784820557,
      "737": -1.8361032009124756,
      "738": 0.745753824710846,
      "739": 1.5553237199783325,
      "740": 1.2610732316970825,
      "741": 0.06260870397090912,
      "742": -0.09009092301130295,
      "743": 2.842344045639038,
      "744": 3.4620163440704346,
      "745": -2.3166894912719727,
      "746": 1.9063347578048706,
      "747": 2.6147232055664062,
      "748": -1.403302550315857,
      "749": -1.887595772743225,
      "750": -3.1460344791412354,
      "751": 1.793454647064209,
      "752": 1.1540907621383667,
      "753": 0.7891368269920349,
      "754": -0.9871848821640015,
      "755": 1.675347089767456,
      "756": -1.441738486289978,
      "757": -0.5523305535316467,
      "758": 0.9557341933250427,
      "759": 4.1326494216918945,
      "760": 1.4569541215896606,
      "761": -1.1209639310836792,
      "762": -4.778556823730469,
      "763": 3.872889518737793,
      "764": -1.7275911569595337,
      "765": -2.231377363204956,
      "766": 2.280970335006714,
      "767": 0.8536638617515564,
      "768": -1.042600393295288,
      "769": -2.12711238861084,
      "770": 2.9251506328582764,
      "771": 0.14777551591396332,
      "772": -1.622428059577942,
      "773": -1.0684640407562256,
      "774": -0.09734558314085007,
      "775": -2.3828558921813965,
      "776": 1.3274012804031372,
      "777": -0.9335221648216248,
      "778": 2.865363597869873,
      "779": -0.9067381620407104,
      "780": -1.0271825790405273,
      "781": 1.7790063619613647,
      "782": 1.1613050699234009,
      "783": -0.6076577305793762,
      "784": -1.3251457214355469,
      "785": 1.9149057865142822,
      "786": 2.152017593383789,
      "787": -1.5068165063858032,
      "788": -0.4930548667907715,
      "789": -1.1700928211212158,
      "790": -7.376253128051758,
      "791": 1.1071338653564453,
      "792": 1.0794610977172852,
      "793": 0.6005571484565735,
      "794": 0.1122489720582962,
      "795": 1.1776022911071777,
      "796": -1.6604832410812378,
      "797": 0.3089599311351776,
      "798": -3.987468719482422,
      "799": -2.6057679653167725,
      "800": 3.1470093727111816,
      "801": 1.5361478328704834,
      "802": 1.0129640102386475,
      "803": -7.927058696746826,
      "804": -1.330021619796753,
      "805": -4.193658351898193,
      "806": 1.548642635345459,
      "807": 0.3456759750843048,
      "808": -2.1837260723114014,
      "809": -1.1143875122070312,
      "810": 0.9664214253425598,
      "811": -3.999253273010254,
      "812": 2.4088380336761475,
      "813": 3.2449138164520264,
      "814": 0.7665719389915466,
      "815": 1.9779067039489746,
      "816": 0.6057907342910767,
      "817": 2.5343925952911377,
      "818": 0.5332286953926086,
      "819": -3.8747611045837402,
      "820": -0.3492640256881714,
      "821": 0.680033802986145,
      "822": -0.6375473737716675,
      "823": -2.8716514110565186,
      "824": 2.1388282775878906,
      "825": -0.9976125955581665,
      "826": 0.9283148050308228,
      "827": 2.1776888370513916,
      "828": -2.1276509761810303,
      "829": -3.666036605834961,
      "830": -0.39286401867866516,
      "831": 1.5704920291900635,
      "832": 2.677293062210083,
      "833": 2.656226396560669,
      "834": 2.8412363529205322,
      "835": -3.322225570678711,
      "836": 0.16626453399658203,
      "837": -0.6320443749427795,
      "838": 4.9860005378723145,
      "839": -2.030473470687866,
      "840": -4.31896448135376,
      "841": -1.5667356252670288,
      "842": 0.5039469003677368,
      "843": 1.4201276302337646,
      "844": 4.389593601226807,
      "845": -0.42240995168685913,
      "846": -2.286228656768799,
      "847": -2.1859612464904785,
      "848": -0.32992491126060486,
      "849": 0.9482647776603699,
      "850": -0.12375598400831223,
      "851": 3.210845708847046,
      "852": 3.5232415199279785,
      "853": -0.5880517959594727,
      "854": 1.0864965915679932,
      "855": 1.8310397863388062,
      "856": -1.699804663658142,
      "857": 0.43779468536376953,
      "858": 3.730196237564087,
      "859": 2.1507725715637207,
      "860": -2.2759029865264893,
      "861": -1.2362810373306274,
      "862": -0.027048083022236824,
      "863": 0.2737024426460266,
      "864": -3.03606915473938,
      "865": -3.3966405391693115,
      "866": -4.19913911819458,
      "867": -1.7961361408233643,
      "868": -2.856442451477051,
      "869": 1.5807660818099976,
      "870": -3.2318837642669678,
      "871": -1.4525271654129028,
      "872": 1.1966335773468018,
      "873": 1.9480427503585815,
      "874": 0.6009227633476257,
      "875": -1.7125722169876099,
      "876": 3.6289780139923096,
      "877": 0.007246564142405987,
      "878": -3.6726932525634766,
      "879": 0.3132803738117218,
      "880": 1.2743281126022339,
      "881": 0.4281153678894043,
      "882": 0.5462552309036255,
      "883": -0.34475573897361755,
      "884": -0.2976539134979248,
      "885": 4.082602500915527,
      "886": -2.556816816329956,
      "887": -6.899313926696777,
      "888": -0.3110393285751343,
      "889": -0.7027511596679688,
      "890": -1.1137627363204956,
      "891": 0.8842624425888062,
      "892": -6.208970069885254,
      "893": 1.891543984413147,
      "894": -2.135249614715576,
      "895": 0.046692587435245514,
      "896": 0.5146520733833313,
      "897": -2.383361339569092,
      "898": 4.817490577697754,
      "899": -5.38686466217041,
      "900": -0.6211810111999512,
      "901": 0.8050733208656311,
      "902": -2.80678653717041,
      "903": -3.6456665992736816,
      "904": -0.021801384165883064,
      "905": 3.8128559589385986,
      "906": 3.806471586227417,
      "907": -3.651021957397461,
      "908": 2.689201831817627,
      "909": -1.0707824230194092,
      "910": 2.5554354190826416,
      "911": 1.7275484800338745,
      "912": 1.0450209379196167,
      "913": -1.2397596836090088,
      "914": 0.2582435607910156,
      "915": -1.815954566001892,
      "916": 0.23358386754989624,
      "917": -1.2668699026107788,
      "918": -0.17916637659072876,
      "919": 4.769047260284424,
      "920": -5.155200481414795,
      "921": 1.329393744468689,
      "922": -1.3636093139648438,
      "923": 2.0457000732421875,
      "924": -0.6076157093048096,
      "925": -5.320438385009766,
      "926": 1.0269545316696167,
      "927": 1.4983711242675781,
      "928": -0.011821319349110126,
      "929": -0.7189260721206665,
      "930": -1.5407733917236328,
      "931": 1.2947921752929688,
      "932": -1.089015007019043,
      "933": 0.9906832575798035,
      "934": -0.7754466533660889,
      "935": -0.6407604217529297,
      "936": 1.2274504899978638,
      "937": -2.5112154483795166,
      "938": 0.4951930344104767,
      "939": 1.2913691997528076,
      "940": -2.7077765464782715,
      "941": 0.8076419234275818,
      "942": -0.0614611878991127,
      "943": -0.3847183585166931,
      "944": -5.883991241455078,
      "945": -1.475641131401062,
      "946": 0.5641934275627136,
      "947": -0.34429073333740234,
      "948": -1.1917248964309692,
      "949": -1.2351610660552979,
      "950": 0.770868718624115,
      "951": -2.9562249183654785,
      "952": 0.4702990651130676,
      "953": -0.1612386703491211,
      "954": -3.3855905532836914,
      "955": 4.797150135040283,
      "956": -3.033207416534424,
      "957": -0.3176027834415436,
      "958": 1.675124168395996,
      "959": 0.40860265493392944,
      "960": 0.7842040061950684,
      "961": -2.9294052124023438,
      "962": 0.9016973972320557,
      "963": 0.11876173317432404,
      "964": 0.6617079973220825,
      "965": -0.8575841188430786,
      "966": 1.052882432937622,
      "967": -2.49227237701416,
      "968": -0.37697750329971313,
      "969": -3.1958370208740234,
      "970": 2.9329514503479004,
      "971": -2.2009081840515137,
      "972": -1.5074877738952637,
      "973": -2.084299087524414,
      "974": 0.1941060721874237,
      "975": 2.960736036300659,
      "976": 1.9880077838897705,
      "977": -2.8169443607330322,
      "978": -1.0031102895736694,
      "979": -2.939330577850342,
      "980": 4.448861598968506,
      "981": 0.23269672691822052,
      "982": -1.1218652725219727,
      "983": 0.5766190886497498,
      "984": 3.7162845134735107,
      "985": -2.7908520698547363,
      "986": 3.661853551864624,
      "987": -3.2706398963928223,
      "988": -0.7182889580726624,
      "989": 0.2211245596408844,
      "990": 1.2701654434204102,
      "991": -0.1801469326019287,
      "992": -0.9105405211448669,
      "993": -0.07665561139583588,
      "994": -2.4671788215637207,
      "995": 1.947793960571289,
      "996": -0.797714114189148,
      "997": -1.720431923866272,
      "998": 2.1759021282196045,
      "999": 0.31930357217788696,
      "1000": -2.508310079574585,
      "1001": -1.0057063102722168,
      "1002": 2.553353786468506,
      "1003": -0.14815546572208405,
      "1004": -4.297221660614014,
      "1005": -4.047791481018066,
      "1006": 1.2454326152801514,
      "1007": 2.5215401649475098,
      "1008": -0.9028663039207458,
      "1009": 3.205829620361328,
      "1010": 1.0821104049682617,
      "1011": -0.2458411455154419,
      "1012": -0.033288002014160156,
      "1013": 2.5308849811553955,
      "1014": -1.7832295894622803,
      "1015": -1.1013578176498413,
      "1016": -2.4089438915252686,
      "1017": 3.0389325618743896,
      "1018": 5.471156120300293,
      "1019": 3.4503698348999023,
      "1020": -0.9380224943161011,
      "1021": 0.6518771648406982,
      "1022": 0.26083070039749146,
      "1023": 0.10994227230548859,
      "1024": -0.04045278578996658,
      "1025": 3.5102760791778564,
      "1026": 1.2107131481170654,
      "1027": -1.325823187828064,
      "1028": -4.81539249420166,
      "1029": 0.921189546585083,
      "1030": 0.20866014063358307,
      "1031": -2.0699708461761475,
      "1032": -6.833194732666016,
      "1033": -3.2782983779907227,
      "1034": 2.2181639671325684,
      "1035": 1.5134220123291016,
      "1036": 0.049886759370565414,
      "1037": -0.8449252247810364,
      "1038": 2.7334952354431152,
      "1039": -0.0684000551700592,
      "1040": -1.0754450559616089,
      "1041": -0.4547187387943268,
      "1042": 4.373208999633789,
      "1043": 1.7592085599899292,
      "1044": 1.5863653421401978,
      "1045": -2.4063680171966553,
      "1046": 0.5355936884880066,
      "1047": 1.988389015197754,
      "1048": -3.0328030586242676,
      "1049": 0.07919557392597198,
      "1050": 0.19583816826343536,
      "1051": -1.9604203701019287,
      "1052": 1.781854510307312,
      "1053": -1.9392426013946533,
      "1054": 2.149409532546997,
      "1055": 1.2555525302886963,
      "1056": -1.2783249616622925,
      "1057": -3.286654472351074,
      "1058": -1.897825002670288,
      "1059": -2.3473196029663086,
      "1060": -1.333703875541687,
      "1061": 0.560876190662384,
      "1062": -2.1457183361053467,
      "1063": 2.81547212600708,
      "1064": 2.0478737354278564,
      "1065": -0.7943312525749207,
      "1066": 1.7064229249954224,
      "1067": -3.4419705867767334,
      "1068": -2.7706823348999023,
      "1069": -3.8877406120300293,
      "1070": 1.10760498046875,
      "1071": 3.47213077545166,
      "1072": 9.707268714904785,
      "1073": -3.032183885574341,
      "1074": 1.434538722038269,
      "1075": -3.621914863586426,
      "1076": 2.4554991722106934,
      "1077": 0.158951073884964,
      "1078": -0.9776427745819092,
      "1079": -4.695559024810791,
      "1080": -4.292972087860107,
      "1081": 4.349274158477783,
      "1082": 2.933662176132202,
      "1083": -4.26600456237793,
      "1084": -3.659363031387329,
      "1085": 4.5490593910217285,
      "1086": 0.16038987040519714,
      "1087": -0.5403662323951721,
      "1088": -0.6295086741447449,
      "1089": 2.767157793045044,
      "1090": -2.027834415435791,
      "1091": -1.7021468877792358,
      "1092": -2.172585964202881,
      "1093": 0.49450773000717163,
      "1094": -2.960951328277588,
      "1095": -3.380368232727051,
      "1096": 3.789457082748413,
      "1097": -2.3056585788726807,
      "1098": -6.276016712188721,
      "1099": 3.373594284057617,
      "1100": -4.020209312438965,
      "1101": 5.403670310974121,
      "1102": 0.9100382328033447,
      "1103": -1.9537004232406616,
      "1104": -3.5411148071289062,
      "1105": -0.250499427318573,
      "1106": -1.943743348121643,
      "1107": 6.504819393157959,
      "1108": 3.691798210144043,
      "1109": -2.0336079597473145,
      "1110": 5.985569000244141,
      "1111": -4.788708686828613,
      "1112": 1.757442593574524,
      "1113": -0.819489598274231,
      "1114": -2.0778908729553223,
      "1115": -2.4928712844848633,
      "1116": -5.727847576141357,
      "1117": 1.784205436706543,
      "1118": -0.3468139171600342,
      "1119": 2.3130290508270264,
      "1120": -1.6139177083969116,
      "1121": 0.9735336303710938,
      "1122": -6.61981201171875,
      "1123": -1.948332667350769,
      "1124": 0.845971941947937,
      "1125": -1.980717658996582,
      "1126": 4.102462291717529,
      "1127": 0.12150760740041733,
      "1128": 2.284672498703003,
      "1129": -1.4655702114105225,
      "1130": -7.015706539154053,
      "1131": -2.4020707607269287,
      "1132": 3.2117536067962646,
      "1133": 2.811781644821167,
      "1134": 4.11892032623291,
      "1135": -3.171196222305298,
      "1136": 2.967634439468384,
      "1137": 2.2443037033081055,
      "1138": 1.7952953577041626,
      "1139": -7.787907600402832,
      "1140": -0.5628811717033386,
      "1141": -4.179487228393555,
      "1142": 0.4365012049674988,
      "1143": 7.067718982696533,
      "1144": 2.963757038116455,
      "1145": 3.1848716735839844,
      "1146": -0.836970865726471,
      "1147": -4.168914794921875,
      "1148": -4.294533729553223,
      "1149": 1.2222142219543457,
      "1150": 3.1743268966674805,
      "1151": 1.590964436531067,
      "1152": 6.906403541564941,
      "1153": -3.9650747776031494,
      "1154": 6.110657691955566,
      "1155": -2.378873348236084,
      "1156": 10.490005493164062,
      "1157": 2.829359292984009,
      "1158": -3.0256452560424805,
      "1159": -0.6679696440696716,
      "1160": 6.051126480102539,
      "1161": 4.815302848815918,
      "1162": 1.386081576347351,
      "1163": 4.10634183883667,
      "1164": -4.607600688934326,
      "1165": -9.617849349975586,
      "1166": -1.8746343851089478,
      "1167": 1.6643686294555664,
      "1168": 6.566024303436279,
      "1169": -5.533175945281982,
      "1170": -4.200882911682129,
      "1171": 7.193429470062256,
      "1172": 0.018829626962542534,
      "1173": -6.861649990081787,
      "1174": 9.51189136505127,
      "1175": -7.481508731842041,
      "1176": 8.551858901977539,
      "1177": 4.217202186584473,
      "1178": 15.545549392700195,
      "1179": 13.524713516235352,
      "1180": 2.5614988803863525,
      "1181": 0.13877007365226746,
      "1182": 3.238424301147461,
      "1183": 3.039243698120117,
      "1184": -3.5650546550750732,
      "1185": 8.75767707824707,
      "1186": -6.9236602783203125,
      "1187": -7.016412258148193,
      "1188": -4.4783034324646,
      "1189": -13.782703399658203,
      "1190": 8.464401245117188,
      "1191": -5.262496471405029,
      "1192": 2.12205171585083,
      "1193": 12.111557006835938,
      "1194": 2.706415891647339,
      "1195": -1.3401886224746704,
      "1196": -6.148335933685303,
      "1197": 6.930986404418945,
      "1198": -0.6022696495056152,
      "1199": -0.6973105072975159,
      "1200": 3.969858407974243,
      "1201": 0.35098832845687866,
      "1202": -0.98357754945755,
      "1203": 5.1782636642456055,
      "1204": 1.2206189632415771,
      "1205": -5.008577346801758,
      "1206": -3.036149740219116,
      "1207": -1.1865299940109253,
      "1208": 1.7859915494918823,
      "1209": 0.9699574708938599,
      "1210": -4.95858097076416,
      "1211": -0.9660418629646301,
      "1212": 0.0486200749874115,
      "1213": 4.356280326843262,
      "1214": -3.8426132202148438,
      "1215": 0.9523165225982666,
      "1216": -5.702683925628662,
      "1217": -1.7306253910064697,
      "1218": -2.906149387359619,
      "1219": -2.2869350910186768,
      "1220": 1.2665132284164429,
      "1221": 3.0642051696777344,
      "1222": 0.8481829762458801,
      "1223": 0.3834048807621002,
      "1224": 4.084524154663086,
      "1225": 2.463006019592285,
      "1226": 0.3926661014556885,
      "1227": -3.655284881591797,
      "1228": 1.7618012428283691,
      "1229": 2.6771512031555176,
      "1230": -1.448912501335144,
      "1231": 1.7570457458496094,
      "1232": 2.615326404571533,
      "1233": -5.328423976898193,
      "1234": 4.428314685821533,
      "1235": 1.208062767982483,
      "1236": -0.10466301441192627,
      "1237": 3.3165652751922607,
      "1238": -2.2897651195526123,
      "1239": -0.3082980513572693,
      "1240": 5.328588008880615,
      "1241": 2.279212474822998,
      "1242": -4.160595893859863,
      "1243": 0.8251648545265198,
      "1244": -1.6770354509353638,
      "1245": -0.8243749737739563,
      "1246": 1.4103773832321167,
      "1247": -0.4238729476928711,
      "1248": 6.215304374694824,
      "1249": 5.925515651702881,
      "1250": -1.8296074867248535,
      "1251": 0.04546036198735237,
      "1252": 4.237021446228027,
      "1253": -3.4441936016082764,
      "1254": -0.09908755868673325,
      "1255": -1.8424967527389526,
      "1256": 2.418166160583496,
      "1257": -0.7290326356887817,
      "1258": -0.023920617997646332,
      "1259": 1.554961919784546,
      "1260": -0.03339867666363716,
      "1261": 2.784931182861328,
      "1262": 1.545479655265808,
      "1263": -0.8256737589836121,
      "1264": 0.8544005155563354,
      "1265": -0.7573306560516357,
      "1266": 1.4265056848526,
      "1267": 1.0314655303955078,
      "1268": 0.08543697744607925,
      "1269": -2.8707242012023926,
      "1270": 0.1125086098909378,
      "1271": -1.0085240602493286,
      "1272": 1.2368566989898682,
      "1273": 0.9793716073036194,
      "1274": 0.03620803356170654,
      "1275": 1.6801248788833618,
      "1276": -3.198671579360962,
      "1277": 1.8293077945709229,
      "1278": 0.8343393206596375,
      "1279": -1.3012055158615112,
      "1280": -1.091617226600647,
      "1281": 0.21678337454795837,
      "1282": -1.5141710042953491,
      "1283": -4.6742424964904785,
      "1284": -4.670680046081543,
      "1285": 1.4430240392684937,
      "1286": -0.4152992367744446,
      "1287": -0.9293038845062256,
      "1288": -0.7512205839157104,
      "1289": 0.49156609177589417,
      "1290": 0.38382506370544434,
      "1291": 0.6515153050422668,
      "1292": -0.3848866820335388,
      "1293": 0.6488001346588135,
      "1294": 0.6201680898666382,
      "1295": 1.110965371131897,
      "1296": -0.8180882334709167,
      "1297": -2.559520721435547,
      "1298": -0.13746491074562073,
      "1299": -0.45898568630218506,
      "1300": -3.728903293609619,
      "1301": 3.4620893001556396,
      "1302": 3.795663356781006,
      "1303": 0.6515046954154968,
      "1304": -1.1273812055587769,
      "1305": -3.187164306640625,
      "1306": -1.1407482624053955,
      "1307": 1.078816533088684,
      "1308": 2.546205759048462,
      "1309": 2.4941813945770264,
      "1310": -0.044584404677152634,
      "1311": -0.6964565515518188,
      "1312": 0.3244733214378357,
      "1313": -1.4723339080810547,
      "1314": -2.861036539077759,
      "1315": 0.8379049301147461,
      "1316": -0.8685911297798157,
      "1317": 0.25216811895370483,
      "1318": 1.2046929597854614,
      "1319": -1.754942774772644,
      "1320": -1.490381121635437,
      "1321": 0.2584128975868225,
      "1322": 2.4022815227508545,
      "1323": 0.31083378195762634,
      "1324": -1.0228228569030762,
      "1325": 0.2835802435874939,
      "1326": 0.8427643775939941,
      "1327": 0.08965900540351868,
      "1328": -3.1018691062927246,
      "1329": 1.681838870048523,
      "1330": 6.754821300506592,
      "1331": 0.014752186834812164,
      "1332": -2.8661324977874756,
      "1333": -3.0376124382019043,
      "1334": 3.4006714820861816,
      "1335": 1.2610329389572144,
      "1336": -2.560544729232788,
      "1337": 0.5645827651023865,
      "1338": -2.3522932529449463,
      "1339": -0.43076416850090027,
      "1340": -2.2836735248565674,
      "1341": -3.350520372390747,
      "1342": -4.244390964508057,
      "1343": 0.1387440711259842,
      "1344": -2.0269339084625244,
      "1345": -3.1662652492523193,
      "1346": -0.4273007810115814,
      "1347": 1.8463456630706787,
      "1348": -1.2547444105148315,
      "1349": 0.421061635017395,
      "1350": -1.0322729349136353,
      "1351": -2.5288383960723877,
      "1352": 3.319619655609131,
      "1353": -4.89814567565918,
      "1354": 3.7031655311584473,
      "1355": -1.0624092817306519,
      "1356": 2.4756641387939453,
      "1357": -2.3920633792877197,
      "1358": -4.497488975524902,
      "1359": -2.1918745040893555,
      "1360": -0.8503981232643127,
      "1361": 0.09380961209535599,
      "1362": -1.091718316078186,
      "1363": -0.9638500809669495,
      "1364": 2.5572938919067383,
      "1365": -1.3163131475448608,
      "1366": 4.913961887359619,
      "1367": -2.1773624420166016,
      "1368": -2.1423683166503906,
      "1369": -4.695065975189209,
      "1370": -4.740475177764893,
      "1371": 3.7781314849853516,
      "1372": -2.081477642059326,
      "1373": 1.7911804914474487,
      "1374": 3.8277525901794434,
      "1375": 3.024383068084717,
      "1376": -2.625699758529663,
      "1377": 1.1867461204528809,
      "1378": 0.8428503274917603,
      "1379": -2.766334295272827,
      "1380": 1.129993200302124,
      "1381": 0.339141845703125,
      "1382": -0.18450292944908142,
      "1383": 0.3966018557548523,
      "1384": 1.1910237073898315,
      "1385": -0.4196590483188629,
      "1386": -2.752312421798706,
      "1387": 0.17805340886116028,
      "1388": 2.5117526054382324,
      "1389": -2.3558387756347656,
      "1390": 1.3478305339813232,
      "1391": -1.1974576711654663,
      "1392": 0.7447717785835266,
      "1393": -0.13168656826019287,
      "1394": 5.738278865814209,
      "1395": 0.6096237897872925,
      "1396": -1.458160638809204,
      "1397": -3.578356981277466,
      "1398": -2.0128531455993652,
      "1399": 2.5154433250427246,
      "1400": 0.07328228652477264,
      "1401": 0.5778264999389648,
      "1402": -3.0532262325286865,
      "1403": 1.0947518348693848,
      "1404": 3.447796583175659,
      "1405": 3.340571880340576,
      "1406": 0.18685464560985565,
      "1407": 1.433850884437561,
      "1408": -1.5418362617492676,
      "1409": 0.09636005759239197,
      "1410": -0.889191746711731,
      "1411": 3.217539072036743,
      "1412": 1.2593706846237183,
      "1413": -3.5581552982330322,
      "1414": -2.4938979148864746,
      "1415": 0.9853821992874146,
      "1416": -0.3281121850013733,
      "1417": -1.3202804327011108,
      "1418": 1.0532832145690918,
      "1419": -1.4322046041488647,
      "1420": 0.7988268136978149,
      "1421": -1.436257004737854,
      "1422": -1.23466157913208,
      "1423": -2.506722927093506,
      "1424": -0.6246160268783569,
      "1425": 1.4672476053237915,
      "1426": 3.42258358001709,
      "1427": 0.5455510020256042,
      "1428": -1.5424870252609253,
      "1429": 0.6536262035369873,
      "1430": 0.8829283714294434,
      "1431": 0.12042197585105896,
      "1432": -1.7601792812347412,
      "1433": -0.46452581882476807,
      "1434": -3.1849637031555176,
      "1435": 0.7578079700469971,
      "1436": -0.6408640146255493,
      "1437": 0.3472830653190613,
      "1438": -2.1329150199890137,
      "1439": -0.147599458694458,
      "1440": 4.658063888549805,
      "1441": -1.2874630689620972,
      "1442": 1.1124403476715088,
      "1443": 1.4961600303649902,
      "1444": 0.3668459951877594,
      "1445": -3.1270689964294434,
      "1446": 0.23378634452819824,
      "1447": 2.095991373062134,
      "1448": 0.9341119527816772,
      "1449": 0.10258841514587402,
      "1450": -3.1658198833465576,
      "1451": -2.827531576156616,
      "1452": -1.7786980867385864,
      "1453": 3.447594404220581,
      "1454": 3.3612496852874756,
      "1455": -2.4860355854034424,
      "1456": -1.6634787321090698,
      "1457": -1.82380211353302,
      "1458": 3.5424678325653076,
      "1459": 2.316964626312256,
      "1460": -2.4430038928985596,
      "1461": 2.549697160720825,
      "1462": 3.352572202682495,
      "1463": 0.21891389787197113,
      "1464": -0.6633708477020264,
      "1465": -1.1268491744995117,
      "1466": 0.15288648009300232,
      "1467": 0.8779537677764893,
      "1468": 1.315096378326416,
      "1469": 2.363595485687256,
      "1470": 1.1882781982421875,
      "1471": -4.181568145751953,
      "1472": 0.08689513802528381,
      "1473": 0.5324755907058716,
      "1474": 4.965651512145996,
      "1475": -4.6635050773620605,
      "1476": 0.7612568736076355,
      "1477": -0.40859782695770264,
      "1478": 2.809473991394043,
      "1479": -0.9461859464645386,
      "1480": 0.6336289048194885,
      "1481": 3.52638578414917,
      "1482": -3.194260358810425,
      "1483": 1.9853123426437378,
      "1484": 5.1829915046691895,
      "1485": -3.4132771492004395,
      "1486": -5.4888014793396,
      "1487": 1.2880245447158813,
      "1488": 0.8271836042404175,
      "1489": 4.118896484375,
      "1490": -4.336528301239014,
      "1491": -1.6636812686920166,
      "1492": 2.6292724609375,
      "1493": -3.592789888381958,
      "1494": -2.0712320804595947,
      "1495": -1.004045844078064,
      "1496": -0.6111623644828796,
      "1497": -6.983067035675049,
      "1498": -0.2834544777870178,
      "1499": 6.077847003936768,
      "1500": -0.1955719143152237,
      "1501": -2.676218271255493,
      "1502": 3.171316385269165,
      "1503": 0.5770798921585083,
      "1504": 2.2759153842926025,
      "1505": -0.20326340198516846,
      "1506": -2.0470612049102783,
      "1507": 1.3505395650863647,
      "1508": 1.7499867677688599,
      "1509": 3.4626729488372803,
      "1510": 2.8677639961242676,
      "1511": 2.9350223541259766,
      "1512": -6.900264263153076,
      "1513": -4.690662384033203,
      "1514": 0.9511464834213257,
      "1515": -5.03743314743042,
      "1516": 6.521716117858887,
      "1517": 4.413934230804443,
      "1518": -5.578610897064209,
      "1519": -1.620025396347046,
      "1520": 2.999361276626587,
      "1521": 7.161166191101074,
      "1522": 9.184988021850586,
      "1523": -5.375245094299316,
      "1524": -1.6057616472244263,
      "1525": 7.183102130889893,
      "1526": -13.816515922546387,
      "1527": 3.2931036949157715,
      "1528": -7.934449195861816,
      "1529": 6.945319652557373,
      "1530": 3.5022175312042236,
      "1531": 6.651528835296631,
      "1532": 4.861326694488525,
      "1533": 9.244279861450195,
      "1534": -0.19366881251335144,
      "1535": -0.5435336232185364,
      "1536": -7.7584733963012695,
      "1537": 3.750417947769165,
      "1538": -1.3723835945129395,
      "1539": 8.09858226776123,
      "1540": 0.7735099196434021,
      "1541": 3.9561209678649902,
      "1542": -2.1242663860321045,
      "1543": -0.5570759773254395,
      "1544": 13.328554153442383,
      "1545": -0.12624329328536987,
      "1546": 12.129474639892578,
      "1547": -6.2422566413879395,
      "1548": -1.8446375131607056,
      "1549": -10.567056655883789,
      "1550": 10.284253120422363,
      "1551": -8.074710845947266,
      "1552": -0.5545921325683594,
      "1553": -2.1354806423187256,
      "1554": -1.0966119766235352,
      "1555": 1.57155442237854,
      "1556": -0.49171140789985657,
      "1557": -6.004021644592285,
      "1558": 1.6535125970840454,
      "1559": -0.025780193507671356,
      "1560": 2.2588999271392822,
      "1561": 1.968955636024475,
      "1562": 2.3880977630615234,
      "1563": 0.5069392919540405,
      "1564": -5.558866500854492,
      "1565": 15.438679695129395,
      "1566": -3.5296387672424316,
      "1567": 1.439663290977478,
      "1568": 1.2111022472381592,
      "1569": -5.912290096282959,
      "1570": 2.2462069988250732,
      "1571": 5.158818244934082,
      "1572": -0.8551012277603149,
      "1573": 2.8894922733306885,
      "1574": 3.407468795776367,
      "1575": 4.210596084594727,
      "1576": -2.962855577468872,
      "1577": 0.06541024893522263,
      "1578": -3.2399468421936035,
      "1579": -1.9837591648101807,
      "1580": -0.3370526134967804,
      "1581": 5.027050971984863,
      "1582": -0.1288442462682724,
      "1583": 2.370072364807129,
      "1584": -2.21476149559021,
      "1585": 0.7263016700744629,
      "1586": 0.9429441690444946,
      "1587": 1.6095398664474487,
      "1588": 0.04852963984012604,
      "1589": -4.85038948059082,
      "1590": -2.1863439083099365,
      "1591": -3.2206244468688965,
      "1592": -4.927570819854736,
      "1593": 1.1981748342514038,
      "1594": -1.0209680795669556,
      "1595": 0.9058618545532227,
      "1596": 5.434787273406982,
      "1597": 2.6231181621551514,
      "1598": 0.4747960865497589,
      "1599": 0.7624032497406006,
      "1600": -5.921099662780762,
      "1601": 3.7782177925109863,
      "1602": 5.7344560623168945,
      "1603": 1.2274417877197266,
      "1604": -2.590592622756958,
      "1605": 0.38869938254356384,
      "1606": -3.280980110168457,
      "1607": -1.898821473121643,
      "1608": -3.8168821334838867,
      "1609": 4.233546257019043,
      "1610": -6.013660430908203,
      "1611": -1.2838554382324219,
      "1612": -0.5491570830345154,
      "1613": -2.4906728267669678,
      "1614": -5.722471714019775,
      "1615": 0.3640612065792084,
      "1616": 4.038232326507568,
      "1617": 0.6748388409614563,
      "1618": 0.5662848353385925,
      "1619": -1.4921488761901855,
      "1620": 1.4646497964859009,
      "1621": -3.951533794403076,
      "1622": 3.635205030441284,
      "1623": 4.205004692077637,
      "1624": 4.339104652404785,
      "1625": -0.41539955139160156,
      "1626": -2.5815515518188477,
      "1627": 4.557990074157715,
      "1628": 1.2237117290496826,
      "1629": 1.9056495428085327,
      "1630": 1.7740752696990967,
      "1631": 2.056964635848999,
      "1632": -3.1004931926727295,
      "1633": -5.419257164001465,
      "1634": 3.284031391143799,
      "1635": -0.681771457195282,
      "1636": -4.141686916351318,
      "1637": -3.856822967529297,
      "1638": 7.001213073730469,
      "1639": 5.110879421234131,
      "1640": -3.742449998855591,
      "1641": 3.255728244781494,
      "1642": -6.283559322357178,
      "1643": 0.15408171713352203,
      "1644": -2.675220251083374,
      "1645": -0.1860344409942627,
      "1646": -6.562760353088379,
      "1647": -5.715974807739258,
      "1648": 5.119744777679443,
      "1649": 3.6241378784179688,
      "1650": -1.607728123664856,
      "1651": -4.241879940032959,
      "1652": 3.5137369632720947,
      "1653": 1.2908852100372314,
      "1654": 0.6772571802139282,
      "1655": 2.1398062705993652,
      "1656": -1.7315125465393066,
      "1657": -2.0013628005981445,
      "1658": -3.4252922534942627,
      "1659": -2.708717107772827,
      "1660": -0.39315471053123474,
      "1661": -2.0374441146850586,
      "1662": 0.8548721075057983,
      "1663": -2.1085426807403564,
      "1664": -0.5073773264884949,
      "1665": -5.318880081176758,
      "1666": 2.857381820678711,
      "1667": -1.890201210975647,
      "1668": 6.393889904022217,
      "1669": 0.3651805520057678,
      "1670": -6.311111927032471,
      "1671": -4.0555949211120605,
      "1672": -4.814034938812256,
      "1673": -2.436755895614624,
      "1674": 4.014339447021484,
      "1675": 0.5835657715797424,
      "1676": 0.6415584087371826,
      "1677": 0.2850457429885864,
      "1678": 0.5059286952018738,
      "1679": -4.2870774269104,
      "1680": 1.519683837890625,
      "1681": -1.7342866659164429,
      "1682": 6.027004241943359,
      "1683": 2.117300033569336,
      "1684": 4.341562747955322,
      "1685": -2.239128828048706,
      "1686": 2.450423002243042,
      "1687": -1.8900493383407593,
      "1688": -0.9651198387145996,
      "1689": 0.8165457844734192,
      "1690": 6.7985968589782715,
      "1691": -6.118643283843994,
      "1692": -8.979863166809082,
      "1693": 2.628121852874756,
      "1694": 3.1538898944854736,
      "1695": 2.076772451400757,
      "1696": -1.3566830158233643,
      "1697": 4.585809707641602,
      "1698": -5.965318202972412,
      "1699": 2.503087043762207,
      "1700": 0.2356652170419693,
      "1701": 6.172323703765869,
      "1702": -1.3268738985061646,
      "1703": 3.0913076400756836,
      "1704": 3.7500851154327393,
      "1705": 2.9311132431030273,
      "1706": -3.096452236175537,
      "1707": -0.014496139250695705,
      "1708": 3.0989651679992676,
      "1709": -5.857015132904053,
      "1710": 2.0701141357421875,
      "1711": 3.2594635486602783,
      "1712": 12.568703651428223,
      "1713": -0.1249513253569603,
      "1714": -7.4496355056762695,
      "1715": -5.12994909286499,
      "1716": -2.291433572769165,
      "1717": 9.764671325683594,
      "1718": -0.8693084716796875,
      "1719": 0.7222055196762085,
      "1720": -7.248805999755859,
      "1721": 4.747496128082275,
      "1722": 0.14738892018795013,
      "1723": 3.2434988021850586,
      "1724": 5.628159046173096,
      "1725": 2.4406535625457764,
      "1726": -4.616278171539307,
      "1727": 2.798353433609009,
      "1728": 8.734867095947266,
      "1729": 4.367279529571533,
      "1730": 8.9369478225708,
      "1731": -2.654219150543213,
      "1732": -2.5675909519195557,
      "1733": 3.4628567695617676,
      "1734": -3.1292309761047363,
      "1735": 3.735377550125122,
      "1736": -5.9792327880859375,
      "1737": -0.6301167607307434,
      "1738": 6.436967372894287,
      "1739": 0.0759391114115715,
      "1740": -7.536877632141113,
      "1741": 6.727636337280273,
      "1742": 0.05757319554686546,
      "1743": 5.013153553009033,
      "1744": 2.0043697357177734,
      "1745": 1.7599087953567505,
      "1746": 5.474302768707275,
      "1747": 6.650528907775879,
      "1748": 3.8819727897644043,
      "1749": 3.514159917831421,
      "1750": -0.6948281526565552,
      "1751": -1.5390340089797974,
      "1752": 1.2190040349960327,
      "1753": 1.7790662050247192,
      "1754": -1.4897375106811523,
      "1755": 0.5477950572967529,
      "1756": -5.325016975402832,
      "1757": 5.588726997375488,
      "1758": -6.029590129852295,
      "1759": -6.418357849121094,
      "1760": 14.018607139587402,
      "1761": 7.116878986358643,
      "1762": -2.8696954250335693,
      "1763": -6.020951747894287,
      "1764": -16.118131637573242,
      "1765": -2.397373914718628,
      "1766": 8.666293144226074,
      "1767": 6.70930814743042,
      "1768": -1.1820144653320312,
      "1769": 2.2372169494628906,
      "1770": -21.88066864013672,
      "1771": -13.168688774108887,
      "1772": 6.047097206115723,
      "1773": 7.698889255523682,
      "1774": 5.5602850914001465,
      "1775": -21.654369354248047,
      "1776": -1.047757863998413,
      "1777": 17.880878448486328,
      "1778": -6.69957160949707,
      "1779": 25.731868743896484,
      "1780": -3.9661879539489746,
      "1781": 14.257211685180664,
      "1782": 12.485260963439941,
      "1783": 23.092487335205078,
      "1784": 11.903731346130371,
      "1785": 3.054574489593506,
      "1786": -0.2861197590827942,
      "1787": 1.758118748664856,
      "1788": -7.57141637802124,
      "1789": 8.788094520568848,
      "1790": -6.679047584533691,
      "1791": 8.861854553222656,
      "1792": -7.0766496658325195,
      "1793": 8.67695140838623,
      "1794": 5.906792163848877,
      "1795": -8.761914253234863,
      "1796": 12.248589515686035,
      "1797": -7.555936336517334,
      "1798": 8.012136459350586,
      "1799": 3.6750946044921875,
      "1800": -1.2226911783218384,
      "1801": -9.000615119934082,
      "1802": 18.01129722595215,
      "1803": 0.9663240909576416,
      "1804": -3.310649871826172,
      "1805": 8.247770309448242,
      "1806": 5.231224536895752,
      "1807": -11.863347053527832,
      "1808": 5.4295244216918945,
      "1809": 0.7850434184074402,
      "1810": -4.073493957519531,
      "1811": 7.561550140380859,
      "1812": -9.043472290039062,
      "1813": -0.45061057806015015,
      "1814": -4.271609306335449,
      "1815": -13.237702369689941,
      "1816": -19.860809326171875,
      "1817": 14.723102569580078,
      "1818": 2.973344087600708,
      "1819": -4.355967998504639,
      "1820": 3.7186927795410156,
      "1821": -6.172874927520752,
      "1822": 7.325283050537109,
      "1823": -7.054623126983643,
      "1824": 6.761520862579346,
      "1825": 0.3993825316429138,
      "1826": 12.855767250061035,
      "1827": 6.131207466125488,
      "1828": 9.0263032913208,
      "1829": -2.3320138454437256,
      "1830": -6.134244441986084,
      "1831": -4.993269443511963,
      "1832": 10.298807144165039,
      "1833": 3.350018262863159,
      "1834": -6.33483362197876,
      "1835": 2.0816383361816406,
      "1836": -4.9924397468566895,
      "1837": -2.999220371246338,
      "1838": -2.0973567962646484,
      "1839": -5.416350841522217,
      "1840": 0.4807107150554657,
      "1841": 3.7749183177948,
      "1842": -2.6059141159057617,
      "1843": -8.978250503540039,
      "1844": 0.12970484793186188,
      "1845": 6.221329689025879,
      "1846": 2.518928050994873,
      "1847": 0.3867596387863159,
      "1848": 6.8510518074035645,
      "1849": -8.520981788635254,
      "1850": 6.4962239265441895,
      "1851": -1.5649341344833374,
      "1852": 6.2547383308410645,
      "1853": -4.968803405761719,
      "1854": -3.980971336364746,
      "1855": -2.0103163719177246,
      "1856": -2.8469955921173096,
      "1857": 6.214121341705322,
      "1858": 0.851301372051239,
      "1859": 0.15248948335647583,
      "1860": -0.7115581035614014,
      "1861": -0.19534769654273987,
      "1862": 8.068778038024902,
      "1863": -3.1409926414489746,
      "1864": -2.8868043422698975,
      "1865": 6.360246658325195,
      "1866": 10.559623718261719,
      "1867": -1.266201376914978,
      "1868": -0.32514676451683044,
      "1869": -5.788863182067871,
      "1870": -1.2674378156661987,
      "1871": -0.1343742460012436,
      "1872": -3.397611379623413,
      "1873": -0.917385458946228,
      "1874": -1.870776891708374,
      "1875": -1.7652392387390137,
      "1876": 6.172356128692627,
      "1877": 0.9769583940505981,
      "1878": -8.163859367370605,
      "1879": 0.5519301891326904,
      "1880": -5.989694118499756,
      "1881": 7.439639091491699,
      "1882": 11.322002410888672,
      "1883": -1.492398977279663,
      "1884": 1.2856117486953735,
      "1885": 6.539889335632324,
      "1886": -11.412325859069824,
      "1887": 2.340015172958374,
      "1888": 4.80884313583374,
      "1889": 6.051642417907715,
      "1890": 1.171669840812683,
      "1891": 11.89512825012207,
      "1892": -14.605337142944336,
      "1893": -1.1821062564849854,
      "1894": 13.306279182434082,
      "1895": 6.255356311798096,
      "1896": 10.081724166870117,
      "1897": -6.928750038146973,
      "1898": -5.377310752868652,
      "1899": 10.077184677124023,
      "1900": -4.455468654632568,
      "1901": -2.5181567668914795,
      "1902": -25.82776641845703,
      "1903": 0.09681455790996552,
      "1904": -1.959734320640564,
      "1905": -4.111837387084961,
      "1906": 13.274374008178711,
      "1907": 15.495828628540039,
      "1908": -3.491727828979492,
      "1909": 16.278085708618164,
      "1910": -20.240812301635742,
      "1911": -1.0385416746139526,
      "1912": -22.031137466430664,
      "1913": -11.687862396240234,
      "1914": 20.836374282836914,
      "1915": 10.838970184326172,
      "1916": 1.1132574081420898,
      "1917": -10.829408645629883,
      "1918": 9.402230262756348,
      "1919": -10.934141159057617,
      "1920": -14.974451065063477,
      "1921": 9.657296180725098,
      "1922": 10.984956741333008,
      "1923": -1.8936152458190918,
      "1924": -4.769951820373535,
      "1925": 11.768527030944824,
      "1926": -4.1303839683532715,
      "1927": -3.491323471069336,
      "1928": 0.7870747447013855,
      "1929": -1.1431282758712769,
      "1930": 3.202678680419922,
      "1931": -27.26302719116211,
      "1932": 0.7815592288970947,
      "1933": 25.85207748413086,
      "1934": 0.3711850941181183,
      "1935": -23.991504669189453,
      "1936": -1.8607641458511353,
      "1937": -0.22087626159191132,
      "1938": -9.926433563232422,
      "1939": 29.926864624023438,
      "1940": -0.3303680717945099,
      "1941": 18.189006805419922,
      "1942": 22.630470275878906,
      "1943": 2.0553460121154785,
      "1944": -9.717620849609375,
      "1945": 21.081615447998047,
      "1946": -10.678336143493652,
      "1947": -10.32464599609375,
      "1948": -18.298572540283203,
      "1949": -0.9519100189208984,
      "1950": -3.135545492172241,
      "1951": 9.037074089050293,
      "1952": -1.783797264099121,
      "1953": 7.229828357696533,
      "1954": -6.684648513793945,
      "1955": 12.230145454406738,
      "1956": 3.97772479057312,
      "1957": -2.08616042137146,
      "1958": -19.128873825073242,
      "1959": 11.757477760314941,
      "1960": 0.8364824056625366,
      "1961": 2.7604002952575684,
      "1962": -0.5282996892929077,
      "1963": -5.037078857421875,
      "1964": 10.184389114379883,
      "1965": -12.334966659545898,
      "1966": 2.5332753658294678,
      "1967": -11.495019912719727,
      "1968": -3.9872260093688965,
      "1969": 10.692492485046387,
      "1970": 4.878108978271484,
      "1971": 5.184226989746094,
      "1972": 0.44772636890411377,
      "1973": 1.0040351152420044,
      "1974": 3.56650447845459,
      "1975": 13.217750549316406,
      "1976": 1.2255475521087646,
      "1977": 4.509891510009766,
      "1978": -8.486088752746582,
      "1979": 17.088632583618164,
      "1980": -0.07139293104410172,
      "1981": 0.6963369846343994,
      "1982": 7.319069862365723,
      "1983": -1.5362862348556519,
      "1984": -6.92533016204834,
      "1985": 9.79245662689209,
      "1986": 13.359539031982422,
      "1987": 4.974774360656738,
      "1988": -15.721572875976562,
      "1989": 0.7118123769760132,
      "1990": 1.7447242736816406,
      "1991": -7.955158710479736,
      "1992": -16.343881607055664,
      "1993": -4.548002243041992,
      "1994": -2.4040300846099854,
      "1995": 5.344546318054199,
      "1996": 6.368675708770752,
      "1997": 15.756790161132812,
      "1998": 9.493024826049805,
      "1999": -5.397316932678223,
      "2000": -6.2716240882873535,
      "2001": 15.286595344543457,
      "2002": -2.0278334617614746,
      "2003": -7.370459079742432,
      "2004": 4.331496715545654,
      "2005": 9.872926712036133,
      "2006": 7.469363212585449,
      "2007": -4.928411960601807,
      "2008": -5.641194820404053,
      "2009": 0.5595800280570984,
      "2010": 2.704360008239746,
      "2011": -5.399967193603516,
      "2012": 14.358209609985352,
      "2013": -4.493046283721924,
      "2014": -8.076350212097168,
      "2015": -15.345355987548828,
      "2016": 18.820199966430664,
      "2017": 3.390683650970459,
      "2018": 0.2623685598373413,
      "2019": -7.060580730438232,
      "2020": 12.825996398925781,
      "2021": -4.710341930389404,
      "2022": 23.985118865966797,
      "2023": -5.634437561035156,
      "2024": -15.081343650817871,
      "2025": 20.29733657836914,
      "2026": 4.079201698303223,
      "2027": 1.6312730312347412,
      "2028": -2.5565104484558105,
      "2029": -8.307537078857422,
      "2030": -21.618392944335938,
      "2031": -11.258195877075195,
      "2032": 19.937559127807617,
      "2033": 23.735374450683594,
      "2034": 8.162894248962402,
      "2035": -10.209854125976562,
      "2036": -2.5042595863342285,
      "2037": 13.519991874694824,
      "2038": 5.341300010681152,
      "2039": 5.6195478439331055,
      "2040": 19.631454467773438,
      "2041": -8.235006332397461,
      "2042": 1.1856305599212646,
      "2043": 11.435744285583496,
      "2044": 0.09692328423261642,
      "2045": 18.479248046875,
      "2046": -19.967021942138672,
      "2047": -5.5290374755859375,
      "2048": 5.726263999938965,
      "2049": 13.51970100402832,
      "2050": 11.791595458984375,
      "2051": 9.837289810180664,
      "2052": -11.890104293823242,
      "2053": -4.504207611083984,
      "2054": 25.831085205078125,
      "2055": -15.39622974395752,
      "2056": 7.6438517570495605,
      "2057": -7.949918270111084,
      "2058": -6.851362705230713,
      "2059": 21.825286865234375,
      "2060": 8.287430763244629,
      "2061": -6.077802658081055,
      "2062": 26.650880813598633,
      "2063": 3.593768835067749,
      "2064": 4.707843780517578,
      "2065": 16.717914581298828,
      "2066": -9.807539939880371,
      "2067": 37.051422119140625,
      "2068": 4.372272491455078,
      "2069": 15.689552307128906,
      "2070": -0.21218644082546234,
      "2071": -5.699080944061279,
      "2072": 0.20978015661239624,
      "2073": -12.148492813110352,
      "2074": 0.748397171497345,
      "2075": -3.230884552001953,
      "2076": 16.459043502807617,
      "2077": -8.726747512817383,
      "2078": -8.705989837646484,
      "2079": 0.8892930746078491,
      "2080": -15.856435775756836,
      "2081": -0.7031938433647156,
      "2082": -10.697596549987793,
      "2083": 16.198999404907227,
      "2084": 13.142589569091797,
      "2085": -6.411962985992432,
      "2086": 3.6987602710723877,
      "2087": 4.4043965339660645,
      "2088": 11.0557861328125,
      "2089": -2.69157338142395,
      "2090": -12.431639671325684,
      "2091": 17.0838623046875,
      "2092": 20.6679630279541,
      "2093": -14.862584114074707,
      "2094": 11.198856353759766,
      "2095": -12.070083618164062,
      "2096": 19.598684310913086,
      "2097": -1.1075478792190552,
      "2098": 6.668232440948486,
      "2099": 13.278742790222168,
      "2100": 20.490901947021484,
      "2101": -22.948959350585938,
      "2102": 1.054516077041626,
      "2103": -4.319229602813721,
      "2104": 18.116607666015625,
      "2105": -8.680437088012695,
      "2106": 0.0583854541182518,
      "2107": -6.325689792633057,
      "2108": -0.4234001636505127,
      "2109": -22.140750885009766,
      "2110": 13.136545181274414,
      "2111": 7.878840446472168,
      "2112": 8.823857307434082,
      "2113": 7.980066299438477,
      "2114": -5.239498615264893,
      "2115": -8.830673217773438,
      "2116": -18.30045509338379,
      "2117": 13.546977996826172,
      "2118": -10.897276878356934,
      "2119": 10.493819236755371,
      "2120": -13.513388633728027,
      "2121": -10.283719062805176,
      "2122": 19.85651397705078,
      "2123": -2.5648317337036133,
      "2124": -10.521142959594727,
      "2125": -27.493921279907227,
      "2126": -1.6618138551712036,
      "2127": 0.6994722485542297,
      "2128": 30.227859497070312,
      "2129": 10.34036636352539,
      "2130": 24.377971649169922,
      "2131": 4.592735290527344,
      "2132": -5.629210472106934,
      "2133": -6.5981903076171875,
      "2134": 6.382610321044922,
      "2135": -10.329044342041016,
      "2136": -21.463834762573242,
      "2137": 4.4166340827941895,
      "2138": 2.7734577655792236,
      "2139": 2.4180824756622314,
      "2140": 9.622997283935547,
      "2141": 14.934645652770996,
      "2142": 1.4516299962997437,
      "2143": 19.340354919433594,
      "2144": -4.602624416351318,
      "2145": 7.690986633300781,
      "2146": -14.02933406829834,
      "2147": -5.541821002960205,
      "2148": 3.371753692626953,
      "2149": 0.0029905089177191257,
      "2150": -2.354154348373413,
      "2151": 4.927860260009766,
      "2152": 1.1687721014022827,
      "2153": 7.284394264221191,
      "2154": -5.57767915725708,
      "2155": -22.298768997192383,
      "2156": 0.910527765750885,
      "2157": -14.201290130615234,
      "2158": 12.866602897644043,
      "2159": 16.298995971679688,
      "2160": -19.888498306274414,
      "2161": -0.5766911506652832,
      "2162": 17.854263305664062,
      "2163": -0.6158567667007446,
      "2164": 14.30893611907959,
      "2165": -14.916784286499023,
      "2166": 7.397494792938232,
      "2167": -20.333843231201172,
      "2168": -9.661273002624512,
      "2169": -16.528989791870117,
      "2170": 17.088075637817383,
      "2171": -15.452234268188477,
      "2172": 10.139184951782227,
      "2173": -4.097188472747803,
      "2174": -19.665515899658203,
      "2175": -11.127970695495605,
      "2176": -14.1111421585083,
      "2177": -8.127771377563477,
      "2178": -3.87443470954895,
      "2179": 16.921236038208008,
      "2180": -7.964803695678711,
      "2181": -1.753606915473938,
      "2182": -13.959598541259766,
      "2183": -2.597402572631836,
      "2184": 2.130540370941162,
      "2185": -6.442485809326172,
      "2186": -3.9469826221466064,
      "2187": 15.676371574401855,
      "2188": 6.139097213745117,
      "2189": 6.81976318359375,
      "2190": 12.586101531982422,
      "2191": 1.2200913429260254,
      "2192": -4.408735752105713,
      "2193": 7.090160369873047,
      "2194": 5.971715450286865,
      "2195": -9.55599308013916,
      "2196": -8.885616302490234,
      "2197": -3.59566593170166,
      "2198": -1.6107168197631836,
      "2199": -4.264045238494873,
      "2200": -2.7704689502716064,
      "2201": -0.22009174525737762,
      "2202": 0.7282270193099976,
      "2203": -4.61353874206543,
      "2204": 0.11427415907382965,
      "2205": -12.451102256774902,
      "2206": -6.5580949783325195,
      "2207": -2.508815050125122,
      "2208": 3.4631073474884033,
      "2209": -11.866931915283203,
      "2210": 3.1012914180755615,
      "2211": -14.972804069519043,
      "2212": 1.5072091817855835,
      "2213": 3.0901072025299072,
      "2214": -3.3459043502807617,
      "2215": -6.2091965675354,
      "2216": -0.23642927408218384,
      "2217": 7.438819408416748,
      "2218": -4.347583770751953,
      "2219": 3.0931813716888428,
      "2220": 2.9038021564483643,
      "2221": 9.90475845336914,
      "2222": -11.923377990722656,
      "2223": -8.768269538879395,
      "2224": 7.480855464935303,
      "2225": 12.46767520904541,
      "2226": -0.12321814894676208,
      "2227": 2.563492774963379,
      "2228": 18.076187133789062,
      "2229": 4.955687522888184,
      "2230": 10.464235305786133,
      "2231": -9.177943229675293,
      "2232": -0.6316425204277039,
      "2233": 0.09469721466302872,
      "2234": 2.3455729484558105,
      "2235": 3.3701868057250977,
      "2236": 8.887950897216797,
      "2237": 0.4657864272594452,
      "2238": 5.6844162940979,
      "2239": -2.2949681282043457,
      "2240": 2.5265676975250244,
      "2241": -1.6335536241531372,
      "2242": 3.2944865226745605,
      "2243": -3.292994499206543,
      "2244": 12.75605297088623,
      "2245": 3.6497232913970947,
      "2246": 9.026394844055176,
      "2247": -11.173320770263672,
      "2248": -1.4734511375427246,
      "2249": -10.573488235473633,
      "2250": 2.706212282180786,
      "2251": 4.009945392608643,
      "2252": -4.007365703582764,
      "2253": 1.7239468097686768,
      "2254": -1.3809455633163452,
      "2255": 9.584696769714355,
      "2256": -14.678096771240234,
      "2257": -3.0356574058532715,
      "2258": 11.44699764251709,
      "2259": 6.667098522186279,
      "2260": -1.029493808746338,
      "2261": -10.358938217163086,
      "2262": 4.70947790145874,
      "2263": 13.332711219787598,
      "2264": -11.926030158996582,
      "2265": 12.6756591796875,
      "2266": -0.21023426949977875,
      "2267": 10.146859169006348,
      "2268": -20.30739974975586,
      "2269": 8.197968482971191,
      "2270": -0.3878752291202545,
      "2271": -7.794280529022217,
      "2272": 2.7834019660949707,
      "2273": 20.385868072509766,
      "2274": -6.911422252655029,
      "2275": -5.694262504577637,
      "2276": 0.7053399085998535,
      "2277": 15.758002281188965,
      "2278": 3.1073038578033447,
      "2279": -21.275129318237305,
      "2280": 4.705068588256836,
      "2281": 7.778046607971191,
      "2282": 14.727002143859863,
      "2283": 4.996987342834473,
      "2284": -20.06160545349121,
      "2285": 7.954041481018066,
      "2286": 0.743579089641571,
      "2287": 14.56185531616211,
      "2288": -17.97161102294922,
      "2289": -0.12666834890842438,
      "2290": -6.805978298187256,
      "2291": -16.828022003173828,
      "2292": -13.339852333068848,
      "2293": 12.825953483581543,
      "2294": 6.61284875869751,
      "2295": -14.442567825317383,
      "2296": -19.99996566772461,
      "2297": -3.4284141063690186,
      "2298": 0.8706948161125183,
      "2299": 4.890796184539795,
      "2300": -0.43338680267333984,
      "2301": 2.0951828956604004,
      "2302": -0.5200448632240295,
      "2303": 13.256521224975586,
      "2304": 9.325175285339355,
      "2305": -10.291006088256836,
      "2306": -0.7122136354446411,
      "2307": 10.418999671936035,
      "2308": -7.1052069664001465,
      "2309": 0.3057991862297058,
      "2310": -15.74660873413086,
      "2311": 1.4837926626205444,
      "2312": -1.3355493545532227,
      "2313": -9.777996063232422,
      "2314": -30.456771850585938,
      "2315": -6.042372226715088,
      "2316": -10.335001945495605,
      "2317": -0.8837276697158813,
      "2318": 25.808860778808594,
      "2319": 3.149484395980835,
      "2320": 5.2478766441345215,
      "2321": 10.457119941711426,
      "2322": -0.5698495507240295,
      "2323": 1.459968090057373,
      "2324": -6.991330623626709,
      "2325": 6.315985202789307,
      "2326": -5.269975662231445,
      "2327": -14.744916915893555,
      "2328": -13.766087532043457,
      "2329": 17.75746726989746,
      "2330": 12.531026840209961,
      "2331": -5.752920150756836,
      "2332": -0.24382668733596802,
      "2333": -1.8099229335784912,
      "2334": -10.966015815734863,
      "2335": 2.269061326980591,
      "2336": -2.144227981567383,
      "2337": -2.239103317260742,
      "2338": -3.114778518676758,
      "2339": 24.820640563964844,
      "2340": 7.723840713500977,
      "2341": -17.053720474243164,
      "2342": -15.401208877563477,
      "2343": -20.835920333862305,
      "2344": 11.376410484313965,
      "2345": -5.053379058837891,
      "2346": -4.4063005447387695,
      "2347": -4.019035339355469,
      "2348": -1.2640467882156372,
      "2349": -7.833557605743408,
      "2350": 7.8460869789123535,
      "2351": 5.6295952796936035,
      "2352": 13.47951889038086,
      "2353": -9.532496452331543,
      "2354": 4.850340843200684,
      "2355": 14.079095840454102,
      "2356": 2.7965335845947266,
      "2357": -2.9173951148986816,
      "2358": -22.242401123046875,
      "2359": -3.62229323387146,
      "2360": -13.584877014160156,
      "2361": 0.4164336621761322,
      "2362": 14.627833366394043,
      "2363": -10.291439056396484,
      "2364": 10.575212478637695,
      "2365": -24.084041595458984,
      "2366": 6.659246444702148,
      "2367": -1.162298560142517,
      "2368": -1.9349634647369385,
      "2369": -9.359338760375977,
      "2370": 10.110109329223633,
      "2371": 5.182363986968994,
      "2372": -9.275925636291504,
      "2373": -8.890775680541992,
      "2374": 0.9467648267745972,
      "2375": -0.9697676301002502,
      "2376": 2.159705877304077,
      "2377": -6.5903825759887695,
      "2378": -8.388840675354004,
      "2379": -5.638643741607666,
      "2380": 11.428027153015137,
      "2381": 9.658468246459961,
      "2382": -1.4163322448730469,
      "2383": 3.5181922912597656,
      "2384": 1.5706628561019897,
      "2385": 11.42348575592041,
      "2386": 1.0529742240905762,
      "2387": -10.888655662536621,
      "2388": 0.4621303677558899,
      "2389": 6.205718040466309,
      "2390": -10.854507446289062,
      "2391": -1.0017470121383667,
      "2392": 19.061973571777344,
      "2393": 8.20099925994873,
      "2394": -9.086355209350586,
      "2395": 7.104488372802734,
      "2396": 14.45536994934082,
      "2397": 15.409173965454102,
      "2398": -12.234702110290527,
      "2399": 7.130037307739258,
      "2400": 3.909554958343506,
      "2401": -19.72991943359375,
      "2402": 12.184021949768066,
      "2403": 9.521547317504883,
      "2404": 5.45662784576416,
      "2405": -16.7791805267334,
      "2406": -8.173556327819824,
      "2407": 9.700624465942383,
      "2408": 4.440508842468262,
      "2409": 17.695693969726562,
      "2410": 6.698270320892334,
      "2411": -14.405911445617676,
      "2412": 6.156881809234619,
      "2413": 15.26657485961914,
      "2414": -15.453836441040039,
      "2415": -6.342831134796143,
      "2416": 9.825345039367676,
      "2417": 1.473415732383728,
      "2418": -26.44333267211914,
      "2419": -1.5481131076812744,
      "2420": 4.929686069488525,
      "2421": -6.3471856117248535,
      "2422": -1.633915662765503,
      "2423": 9.151241302490234,
      "2424": -1.3299636840820312,
      "2425": -24.68082046508789,
      "2426": 3.0927653312683105,
      "2427": -7.9375152587890625,
      "2428": 2.202503204345703,
      "2429": 8.289166450500488,
      "2430": 17.154531478881836,
      "2431": -3.0675809383392334,
      "2432": -0.5560652017593384,
      "2433": 14.380996704101562,
      "2434": 2.0666582584381104,
      "2435": 8.880844116210938,
      "2436": -18.18014144897461,
      "2437": -3.69338321685791,
      "2438": 8.224150657653809,
      "2439": 4.404464244842529,
      "2440": -3.223836898803711,
      "2441": 2.585554361343384,
      "2442": -17.684494018554688,
      "2443": -1.329380750656128,
      "2444": -7.988655090332031,
      "2445": -4.924981594085693,
      "2446": -13.057324409484863,
      "2447": 8.734587669372559,
      "2448": 9.776541709899902,
      "2449": -2.2370240688323975,
      "2450": 11.28715705871582,
      "2451": 4.168758392333984,
      "2452": 2.078558921813965,
      "2453": -16.68572425842285,
      "2454": 6.8712158203125,
      "2455": -0.6174560785293579,
      "2456": -7.779150485992432,
      "2457": 2.383549451828003,
      "2458": 20.418174743652344,
      "2459": -1.1598107814788818,
      "2460": 6.890868663787842,
      "2461": 10.972890853881836,
      "2462": 8.197778701782227,
      "2463": 3.7511491775512695,
      "2464": -8.68701457977295,
      "2465": -2.381192922592163,
      "2466": 9.28574275970459,
      "2467": -15.835023880004883,
      "2468": -4.905299663543701,
      "2469": -2.330747127532959,
      "2470": 3.644763469696045,
      "2471": 18.49406623840332,
      "2472": -7.20881462097168,
      "2473": 6.34474515914917,
      "2474": 4.819057464599609,
      "2475": 6.287109375,
      "2476": 1.1927523612976074,
      "2477": 14.82569694519043,
      "2478": -1.587144374847412,
      "2479": 6.048532009124756,
      "2480": -18.269134521484375,
      "2481": -2.7027077674865723,
      "2482": 1.5205132961273193,
      "2483": -16.26873207092285,
      "2484": -12.336194038391113,
      "2485": -2.981005907058716,
      "2486": 5.708864212036133,
      "2487": 2.163300037384033,
      "2488": -12.907873153686523,
      "2489": -14.578588485717773,
      "2490": 5.527869701385498,
      "2491": -5.077553749084473,
      "2492": 5.84614372253418,
      "2493": 2.5560996532440186,
      "2494": -4.475362777709961,
      "2495": -1.050279974937439,
      "2496": 7.8283185958862305,
      "2497": -16.45924186706543,
      "2498": 0.01960044912993908,
      "2499": 5.573672771453857,
      "2500": 0.8609529137611389,
      "2501": -8.756803512573242,
      "2502": -5.178989887237549,
      "2503": -4.554985523223877,
      "2504": 1.0474772453308105,
      "2505": -2.2197773456573486,
      "2506": 4.778326988220215,
      "2507": -8.388879776000977,
      "2508": 9.067153930664062,
      "2509": 0.1319321095943451,
      "2510": -10.672231674194336,
      "2511": -7.059545516967773,
      "2512": -0.7470089197158813,
      "2513": -0.7635273337364197,
      "2514": 6.433420658111572,
      "2515": 23.210247039794922,
      "2516": -26.284391403198242,
      "2517": -10.523200988769531,
      "2518": 6.343442440032959,
      "2519": -2.5523548126220703,
      "2520": 2.488921642303467,
      "2521": -3.453573703765869,
      "2522": 3.106198787689209,
      "2523": -1.0971319675445557,
      "2524": -2.27860951423645,
      "2525": -2.261284351348877,
      "2526": 3.3891985416412354,
      "2527": -3.4404609203338623,
      "2528": 9.459625244140625,
      "2529": 9.73303508758545,
      "2530": -4.460536003112793,
      "2531": -6.658384799957275,
      "2532": -7.817660808563232,
      "2533": 4.458070755004883,
      "2534": -2.389200448989868,
      "2535": 1.2869360446929932,
      "2536": -0.4883895814418793,
      "2537": -1.4245260953903198,
      "2538": 3.439387321472168,
      "2539": 8.682772636413574,
      "2540": -4.208452224731445,
      "2541": 0.8404303789138794,
      "2542": -4.493257999420166,
      "2543": 6.131527900695801,
      "2544": 8.40427017211914,
      "2545": 7.090639114379883,
      "2546": 1.407145380973816,
      "2547": -7.405648231506348,
      "2548": -2.1545679569244385,
      "2549": -2.1148195266723633,
      "2550": -8.125412940979004,
      "2551": -0.18425993621349335,
      "2552": 6.549556732177734,
      "2553": 2.545321464538574,
      "2554": 3.2802629470825195,
      "2555": -0.5865150094032288,
      "2556": -1.7029260396957397,
      "2557": -2.5062460899353027,
      "2558": 2.8985352516174316,
      "2559": 1.2157615423202515,
      "2560": 1.6480270624160767,
      "2561": -6.859184741973877,
      "2562": 1.957121729850769,
      "2563": 6.8838372230529785,
      "2564": -0.37587770819664,
      "2565": -0.934025764465332,
      "2566": 0.7240837812423706,
      "2567": -0.5157508254051208,
      "2568": -6.859524250030518,
      "2569": 0.05639505386352539,
      "2570": 0.5163597464561462,
      "2571": 4.670053958892822,
      "2572": -6.801220417022705,
      "2573": 6.990267753601074,
      "2574": 5.332527160644531,
      "2575": 2.8872008323669434,
      "2576": -3.082843065261841,
      "2577": -1.2188444137573242,
      "2578": 0.42323580384254456,
      "2579": 0.4641254246234894,
      "2580": 10.28471851348877,
      "2581": 5.24274206161499,
      "2582": 2.116823434829712,
      "2583": 0.5102881193161011,
      "2584": -2.5731992721557617,
      "2585": 6.106062412261963,
      "2586": -5.955984115600586,
      "2587": -5.613152027130127,
      "2588": -9.358339309692383,
      "2589": 2.7786529064178467,
      "2590": -10.76551342010498,
      "2591": 5.4249114990234375,
      "2592": -4.143314838409424,
      "2593": -3.6094613075256348,
      "2594": 2.832493305206299,
      "2595": -0.9743478298187256,
      "2596": -6.3497419357299805,
      "2597": 4.922943592071533,
      "2598": 7.785731315612793,
      "2599": 5.115811347961426,
      "2600": 0.43254026770591736,
      "2601": 5.741330623626709,
      "2602": -0.01601669006049633,
      "2603": 2.492469072341919,
      "2604": 0.3816361129283905,
      "2605": 9.20853042602539,
      "2606": 2.7524666786193848,
      "2607": 5.596656799316406,
      "2608": -11.430719375610352,
      "2609": 13.245038986206055,
      "2610": -6.324100017547607,
      "2611": 5.980675220489502,
      "2612": -10.426995277404785,
      "2613": 10.350109100341797,
      "2614": -5.7873640060424805,
      "2615": -3.3874542713165283,
      "2616": 0.04013613238930702,
      "2617": -5.4159321784973145,
      "2618": -6.153213024139404,
      "2619": 8.457635879516602,
      "2620": 16.00337028503418,
      "2621": -10.91486930847168,
      "2622": -3.32906174659729,
      "2623": 7.810056686401367,
      "2624": -5.302109241485596,
      "2625": 4.478739261627197,
      "2626": -17.474090576171875,
      "2627": -4.141043186187744,
      "2628": 19.268600463867188,
      "2629": 7.2820725440979,
      "2630": 7.26999568939209,
      "2631": 10.381732940673828,
      "2632": -0.5729759335517883,
      "2633": -6.097168922424316,
      "2634": -7.051009654998779,
      "2635": 4.2374749183654785,
      "2636": -3.87872052192688,
      "2637": 4.404277801513672,
      "2638": -10.880008697509766,
      "2639": 7.224863052368164,
      "2640": 5.098944664001465,
      "2641": -9.985064506530762,
      "2642": 5.238165855407715,
      "2643": -3.522636651992798,
      "2644": -4.516585826873779,
      "2645": -15.722959518432617,
      "2646": 8.38784122467041,
      "2647": 1.6261008977890015,
      "2648": 12.392129898071289,
      "2649": -1.359925389289856,
      "2650": 10.623239517211914,
      "2651": -3.21771240234375,
      "2652": 0.2814390957355499,
      "2653": 2.2651922702789307,
      "2654": -11.102280616760254,
      "2655": -1.0141382217407227,
      "2656": 7.1866631507873535,
      "2657": 3.0811150074005127,
      "2658": -4.772892475128174,
      "2659": -5.005456447601318,
      "2660": -4.230441093444824,
      "2661": -4.768689155578613,
      "2662": -1.248188853263855,
      "2663": -8.887496948242188,
      "2664": 3.038398265838623,
      "2665": -8.389752388000488,
      "2666": -6.823220252990723,
      "2667": 1.481306791305542,
      "2668": 1.118696689605713,
      "2669": -4.678756237030029,
      "2670": -7.2231669425964355,
      "2671": -5.030191421508789,
      "2672": 10.874520301818848,
      "2673": 6.265961170196533,
      "2674": 1.6681970357894897,
      "2675": 7.5288310050964355,
      "2676": -1.1255807876586914,
      "2677": -6.278818130493164,
      "2678": 9.505294799804688,
      "2679": -6.271960735321045,
      "2680": 4.2524542808532715,
      "2681": 1.9434888362884521,
      "2682": -5.893255710601807,
      "2683": 1.0700052976608276,
      "2684": -6.103974342346191,
      "2685": -2.858145236968994,
      "2686": 2.4688661098480225,
      "2687": 8.472095489501953,
      "2688": -2.420145034790039,
      "2689": 1.6200588941574097,
      "2690": 9.036444664001465,
      "2691": 0.32401081919670105,
      "2692": -1.504425048828125,
      "2693": -3.9894633293151855,
      "2694": -3.397101402282715,
      "2695": 1.7607015371322632,
      "2696": 5.04988431930542,
      "2697": 9.050858497619629,
      "2698": -0.431292325258255,
      "2699": -4.881021499633789,
      "2700": 0.7747647166252136,
      "2701": -4.336686611175537,
      "2702": 5.393520355224609,
      "2703": 0.800084114074707,
      "2704": -4.809096336364746,
      "2705": 3.3977108001708984,
      "2706": 2.080052137374878,
      "2707": 1.3241543769836426,
      "2708": -10.861588478088379,
      "2709": 1.3245192766189575,
      "2710": -1.3247497081756592,
      "2711": -11.085107803344727,
      "2712": 16.016735076904297,
      "2713": -4.096424102783203,
      "2714": 5.078084468841553,
      "2715": -0.7499204277992249,
      "2716": 11.121710777282715,
      "2717": -13.361993789672852,
      "2718": 2.4309139251708984,
      "2719": 13.138833999633789,
      "2720": 12.021772384643555,
      "2721": -0.49002349376678467,
      "2722": -5.463064670562744,
      "2723": 7.495733737945557,
      "2724": -6.350971698760986,
      "2725": 12.337610244750977,
      "2726": 0.21456152200698853,
      "2727": -2.087067127227783,
      "2728": -7.395149230957031,
      "2729": -9.491316795349121,
      "2730": -7.481715202331543,
      "2731": 2.970472574234009,
      "2732": 6.470161437988281,
      "2733": 0.4851935803890228,
      "2734": -7.8586506843566895,
      "2735": 5.908057689666748,
      "2736": 5.723428249359131,
      "2737": 8.207866668701172,
      "2738": 6.068756103515625,
      "2739": 2.222855806350708,
      "2740": -2.4633028507232666,
      "2741": -4.042025566101074,
      "2742": -14.5291109085083,
      "2743": -5.742885112762451,
      "2744": 4.111494064331055,
      "2745": 1.889068841934204,
      "2746": 5.379441738128662,
