{
  "type": "LSTM",
  "options": {
    "inputSize": 49,
    "inputRange": 49,
    "hiddenLayers": [
      20,
      20
    ],
    "outputSize": 49,
    "decayRate": 0.999,
    "smoothEps": 1e-8,
    "regc": 0.000001,
    "clipval": 5,
    "maxPredictionLength": 100,
    "dataFormatter": {
      "values": [
        "to pauit ot okm k,y wkla, l lasl sal rdflas fldl .sgls.f glsdf gl.",
        "1",
        "ggggggggggggggggggggggggggggggsmkl",
        ":hguyhpe",
        ":jhpy",
        ":hpyter",
        "awak;e kist jas a sdgkolp akl gogamikgjj mnchair she hchnane adedit twel",
        "keyboadf is in wrong plerson",
        "i ee DtISsue'sStrOKe For rseAR hpurpoeS",
        "welp i hurdd y ouy reasrc h purps o",
        "RTFDawegpjk",
        ":gahcike",
        ":gachikek",
        ":gacheki",
        ":@gahce",
        "each reporting each other not responding",
        "0",
        "I just want steam to close",
        "what the fuck is happening",
        "I think task manager just started not responding",
        "have you tried deleting system32",
        "i woke up at 5:45am to my leg cramping ",
        "notepad chan saved me again",
        "she just said she is going to get some",
        "my mother keeps forgetting to buy me new batteries",
        "the current stroke values in the code are pretty low",
        "Thats probably what happens if you survive a head crab attack",
        "Looks like something out of half life",
        ":gahickekpau",
        "thn i canmakeit autod etectand ogtsrokes"
      ],
      "indexTable": {
        "0": 39,
        "1": 19,
        "2": 42,
        "3": 41,
        "4": 44,
        "5": 43,
        "t": 0,
        "o": 1,
        " ": 2,
        "p": 3,
        "a": 4,
        "u": 5,
        "i": 6,
        "k": 7,
        "m": 8,
        ",": 9,
        "y": 10,
        "w": 11,
        "l": 12,
        "s": 13,
        "r": 14,
        "d": 15,
        "f": 16,
        ".": 17,
        "g": 18,
        ":": 20,
        "h": 21,
        "e": 22,
        "j": 23,
        ";": 24,
        "n": 25,
        "c": 26,
        "b": 27,
        "D": 28,
        "I": 29,
        "S": 30,
        "'": 31,
        "O": 32,
        "K": 33,
        "F": 34,
        "A": 35,
        "R": 36,
        "T": 37,
        "@": 38,
        "v": 40,
        "L": 45,
        "stop-input": 46,
        "start-output": 47,
        "unrecognized": 48
      },
      "characterTable": {
        "0": "t",
        "1": "o",
        "2": " ",
        "3": "p",
        "4": "a",
        "5": "u",
        "6": "i",
        "7": "k",
        "8": "m",
        "9": ",",
        "10": "y",
        "11": "w",
        "12": "l",
        "13": "s",
        "14": "r",
        "15": "d",
        "16": "f",
        "17": ".",
        "18": "g",
        "19": "1",
        "20": ":",
        "21": "h",
        "22": "e",
        "23": "j",
        "24": ";",
        "25": "n",
        "26": "c",
        "27": "b",
        "28": "D",
        "29": "I",
        "30": "S",
        "31": "'",
        "32": "O",
        "33": "K",
        "34": "F",
        "35": "A",
        "36": "R",
        "37": "T",
        "38": "@",
        "39": "0",
        "40": "v",
        "41": "3",
        "42": "2",
        "43": "5",
        "44": "4",
        "45": "L",
        "46": null,
        "47": null,
        "48": null
      },
      "characters": [
        "t",
        "o",
        " ",
        "p",
        "a",
        "u",
        "i",
        "k",
        "m",
        ",",
        "y",
        "w",
        "l",
        "s",
        "r",
        "d",
        "f",
        ".",
        "g",
        "1",
        ":",
        "h",
        "e",
        "j",
        ";",
        "n",
        "c",
        "b",
        "D",
        "I",
        "S",
        "'",
        "O",
        "K",
        "F",
        "A",
        "R",
        "T",
        "@",
        "0",
        "v",
        "3",
        "2",
        "5",
        "4",
        "L",
        "stop-input",
        "start-output",
        "unrecognized"
      ],
      "specialIndexes": [
        46,
        47,
        48
      ]
    }
  },
  "input": {
    "rows": 50,
    "columns": 49,
    "weights": {
      "0": -0.6444330215454102,
      "1": 1.6987957954406738,
      "2": 0.26116037368774414,
      "3": 2.1943440437316895,
      "4": -1.8890798091888428,
      "5": -1.3069915771484375,
      "6": 0.37950488924980164,
      "7": -0.16928353905677795,
      "8": -0.7799274921417236,
      "9": -0.37509551644325256,
      "10": -0.3391631245613098,
      "11": -0.03213085979223251,
      "12": -2.599637508392334,
      "13": 0.6313364505767822,
      "14": 1.084359884262085,
      "15": -0.07662075012922287,
      "16": 1.1891382932662964,
      "17": 0.4658336937427521,
      "18": 1.286974549293518,
      "19": -2.366424560546875,
      "20": 0.531078040599823,
      "21": -1.2609237432479858,
      "22": -2.2352640628814697,
      "23": 1.0094937086105347,
      "24": 3.1465392112731934,
      "25": -0.6085304617881775,
      "26": -0.28770357370376587,
      "27": -0.5867303609848022,
      "28": -0.8863453269004822,
      "29": -3.072152614593506,
      "30": 0.41841813921928406,
      "31": 1.2671012878417969,
      "32": 1.0095773935317993,
      "33": 0.9230783581733704,
      "34": -0.8288360238075256,
      "35": -1.198197841644287,
      "36": -0.572242021560669,
      "37": -0.08707486838102341,
      "38": -2.0748987197875977,
      "39": 0.19457603991031647,
      "40": 2.178474187850952,
      "41": 0.23209242522716522,
      "42": 1.5595632791519165,
      "43": 1.3387538194656372,
      "44": -0.05065112188458443,
      "45": 0.8861314058303833,
      "46": 3.1646151542663574,
      "47": 0.512631893157959,
      "48": 2.0230791568756104,
      "49": 1.374243140220642,
      "50": 1.276700496673584,
      "51": 1.4284390211105347,
      "52": -2.989069700241089,
      "53": -0.6285353302955627,
      "54": -1.2284784317016602,
      "55": 2.893969774246216,
      "56": 1.3883516788482666,
      "57": 0.4040297567844391,
      "58": -0.3570561408996582,
      "59": 1.812153935432434,
      "60": -1.810433030128479,
      "61": 2.2469482421875,
      "62": 2.0833752155303955,
      "63": 2.019289255142212,
      "64": 3.230102300643921,
      "65": -3.263169050216675,
      "66": -3.0135087966918945,
      "67": -0.40704190731048584,
      "68": -3.3712339401245117,
      "69": 0.30215349793434143,
      "70": -0.8283610939979553,
      "71": -2.434258222579956,
      "72": 0.6412779092788696,
      "73": -1.3331925868988037,
      "74": 1.4457731246948242,
      "75": 4.096701145172119,
      "76": -2.853245258331299,
      "77": 6.350061416625977,
      "78": 5.948061466217041,
      "79": 0.8633548617362976,
      "80": -0.27632954716682434,
      "81": -4.177658557891846,
      "82": -0.9118825793266296,
      "83": 5.155306816101074,
      "84": 0.40719401836395264,
      "85": 0.5569568276405334,
      "86": -1.9870944023132324,
      "87": 6.394532680511475,
      "88": 1.8759896755218506,
      "89": -2.7223379611968994,
      "90": 2.2982685565948486,
      "91": -2.1865761280059814,
      "92": -4.502691745758057,
      "93": 1.052189826965332,
      "94": -1.529929757118225,
      "95": -1.6122056245803833,
      "96": -0.48470255732536316,
      "97": -3.07124924659729,
      "98": 0.6818852424621582,
      "99": -1.7740877866744995,
      "100": -1.5700228214263916,
      "101": -0.6593990921974182,
      "102": -3.6753599643707275,
      "103": -1.0407078266143799,
      "104": 1.1567673683166504,
      "105": -0.9146738648414612,
      "106": 1.3372553586959839,
      "107": 0.16561944782733917,
      "108": 2.5450279712677,
      "109": -2.6845357418060303,
      "110": 2.148419141769409,
      "111": 1.1645355224609375,
      "112": 2.7453718185424805,
      "113": 3.3036367893218994,
      "114": -4.252692222595215,
      "115": -2.0009541511535645,
      "116": 0.5607081651687622,
      "117": -0.10601119697093964,
      "118": 3.1479501724243164,
      "119": -2.676968574523926,
      "120": -3.391960859298706,
      "121": 1.5146640539169312,
      "122": -3.311803102493286,
      "123": -0.02948138862848282,
      "124": 3.541628360748291,
      "125": -0.05673028528690338,
      "126": 0.628195583820343,
      "127": 3.496192216873169,
      "128": 2.261658191680908,
      "129": 4.354762554168701,
      "130": -4.110563278198242,
      "131": -0.33802932500839233,
      "132": 1.6646137237548828,
      "133": 0.23399652540683746,
      "134": -2.385563611984253,
      "135": -1.9299986362457275,
      "136": 6.943594455718994,
      "137": 2.58160138130188,
      "138": -3.2926037311553955,
      "139": 4.113246440887451,
      "140": -2.753286838531494,
      "141": -3.575396776199341,
      "142": 5.461075782775879,
      "143": -1.4609884023666382,
      "144": -0.9956234097480774,
      "145": 1.0818977355957031,
      "146": -0.9979550838470459,
      "147": -0.6279709935188293,
      "148": -1.6560503244400024,
      "149": 0.6868312954902649,
      "150": -0.8019373416900635,
      "151": 0.7670124173164368,
      "152": -0.9312706589698792,
      "153": 2.3667662143707275,
      "154": -0.9575552344322205,
      "155": -2.81107234954834,
      "156": -0.7831515669822693,
      "157": 3.296478033065796,
      "158": 0.002179670613259077,
      "159": 0.6544344425201416,
      "160": 1.346186876296997,
      "161": -2.9493300914764404,
      "162": -6.133671283721924,
      "163": -0.5909844636917114,
      "164": -0.8261355757713318,
      "165": 2.6514155864715576,
      "166": -0.8426935076713562,
      "167": -1.4918862581253052,
      "168": -2.489358901977539,
      "169": 0.0674515813589096,
      "170": -0.15100078284740448,
      "171": 0.04559355974197388,
      "172": -0.9507308006286621,
      "173": 1.2341521978378296,
      "174": -2.89078950881958,
      "175": 2.554448366165161,
      "176": 1.4715090990066528,
      "177": -0.7814274430274963,
      "178": -3.9208858013153076,
      "179": 0.6792808771133423,
      "180": -2.0809905529022217,
      "181": 1.3058310747146606,
      "182": -0.24651795625686646,
      "183": 2.978104591369629,
      "184": -0.2931181490421295,
      "185": 1.5647149085998535,
      "186": 1.1625597476959229,
      "187": -0.9444620013237,
      "188": 0.689561665058136,
      "189": 0.32923707365989685,
      "190": -1.9057466983795166,
      "191": 1.0067999362945557,
      "192": 1.1542550325393677,
      "193": -0.5696808099746704,
      "194": -3.1663198471069336,
      "195": -0.9851994514465332,
      "196": 0.05151207372546196,
      "197": 2.862138509750366,
      "198": -1.7950053215026855,
      "199": -0.43548399209976196,
      "200": 0.12925375998020172,
      "201": 0.3557753562927246,
      "202": -1.5175137519836426,
      "203": 0.8680839538574219,
      "204": 0.5045166611671448,
      "205": 0.8242104649543762,
      "206": -0.41480374336242676,
      "207": -0.3913167417049408,
      "208": -0.11596553027629852,
      "209": 1.9950618743896484,
      "210": 0.265136182308197,
      "211": 0.7790323495864868,
      "212": -0.2336467057466507,
      "213": 0.6390599012374878,
      "214": -1.0403445959091187,
      "215": 0.766964852809906,
      "216": -0.11151301860809326,
      "217": 0.38443276286125183,
      "218": 0.5583122968673706,
      "219": -0.6634928584098816,
      "220": -0.3171690106391907,
      "221": 1.4980000257492065,
      "222": -0.00405682111158967,
      "223": -0.36520150303840637,
      "224": -1.5762512683868408,
      "225": 0.9568384885787964,
      "226": 0.043431490659713745,
      "227": 1.2933402061462402,
      "228": 0.3606835901737213,
      "229": 0.850366473197937,
      "230": -2.0809857845306396,
      "231": -0.4820624887943268,
      "232": 0.21830400824546814,
      "233": -2.126331329345703,
      "234": 1.5231345891952515,
      "235": -0.01312835980206728,
      "236": 0.8345027565956116,
      "237": -0.32258573174476624,
      "238": -0.7927838563919067,
      "239": 0.5844681262969971,
      "240": -0.3211306035518646,
      "241": -0.8670578598976135,
      "242": 0.18187659978866577,
      "243": 0.9261272549629211,
      "244": 0.12380870431661606,
      "245": 0.3261968195438385,
      "246": 1.1714545488357544,
      "247": 0.8029303550720215,
      "248": 2.8123819828033447,
      "249": 0.07815571874380112,
      "250": -0.10519867390394211,
      "251": -3.5302131175994873,
      "252": -1.3092570304870605,
      "253": -0.6587247848510742,
      "254": -1.01906156539917,
      "255": -2.033324718475342,
      "256": 0.031152505427598953,
      "257": -1.4047691822052002,
      "258": -0.17174944281578064,
      "259": 0.08705027401447296,
      "260": 0.20729964971542358,
      "261": 2.701789140701294,
      "262": 1.3474382162094116,
      "263": 0.3923695683479309,
      "264": -0.37065279483795166,
      "265": -0.14594168961048126,
      "266": -0.26368802785873413,
      "267": -2.1497671604156494,
      "268": 0.504212498664856,
      "269": 3.006338357925415,
      "270": 0.20027323067188263,
      "271": -0.807108461856842,
      "272": -0.3223034143447876,
      "273": -1.0978490114212036,
      "274": -2.8236875534057617,
      "275": 0.31259864568710327,
      "276": -0.8949584364891052,
      "277": 1.7280924320220947,
      "278": -0.11897769570350647,
      "279": -0.8153719902038574,
      "280": -0.2854672074317932,
      "281": 0.3615477681159973,
      "282": -0.5593258142471313,
      "283": -2.5456066131591797,
      "284": 0.10532337427139282,
      "285": 0.6574842929840088,
      "286": -0.7860150337219238,
      "287": 2.8955774307250977,
      "288": 4.3144001960754395,
      "289": -0.6065758466720581,
      "290": 0.21099258959293365,
      "291": 3.6832385063171387,
      "292": 1.6117802858352661,
      "293": 1.7367730140686035,
      "294": 1.3757696151733398,
      "295": 1.6743061542510986,
      "296": -5.462902069091797,
      "297": -1.6702531576156616,
      "298": 2.1999335289001465,
      "299": -4.327060222625732,
      "300": -4.542897701263428,
      "301": 0.6064691543579102,
      "302": 2.084444999694824,
      "303": 2.042174816131592,
      "304": 3.5120272636413574,
      "305": -2.7780392169952393,
      "306": 0.16131968796253204,
      "307": -0.573014497756958,
      "308": -2.1635847091674805,
      "309": 2.7440571784973145,
      "310": 3.5487735271453857,
      "311": 5.176834583282471,
      "312": 0.5298420190811157,
      "313": 5.874914646148682,
      "314": -0.956779420375824,
      "315": 0.4195816218852997,
      "316": -0.2581603527069092,
      "317": -7.574451923370361,
      "318": -3.067213773727417,
      "319": 0.16296036541461945,
      "320": 0.7340772151947021,
      "321": 1.0100151300430298,
      "322": -7.773048400878906,
      "323": -1.1659276485443115,
      "324": -1.7223362922668457,
      "325": 2.890698194503784,
      "326": -2.4811835289001465,
      "327": 3.1015865802764893,
      "328": -9.481966972351074,
      "329": 4.196481704711914,
      "330": 1.765720248222351,
      "331": -0.9669711589813232,
      "332": -4.017643928527832,
      "333": -1.5457056760787964,
      "334": 5.6586198806762695,
      "335": -1.331924319267273,
      "336": -3.084275484085083,
      "337": 3.7274696826934814,
      "338": 0.6372029781341553,
      "339": -0.02130301669239998,
      "340": 3.5801842212677,
      "341": 2.658567190170288,
      "342": 0.4420984089374542,
      "343": 2.774405002593994,
      "344": 2.609867572784424,
      "345": -0.20886170864105225,
      "346": -0.9236535429954529,
      "347": 3.677502393722534,
      "348": 3.4324610233306885,
      "349": -0.5513821244239807,
      "350": -0.17675425112247467,
      "351": 1.8136279582977295,
      "352": 3.5162956714630127,
      "353": 1.3178750276565552,
      "354": -2.306328058242798,
      "355": -1.9259388446807861,
      "356": 1.6574536561965942,
      "357": -1.3375036716461182,
      "358": -0.5259397029876709,
      "359": -1.6525501012802124,
      "360": 1.1353607177734375,
      "361": -2.603203535079956,
      "362": 1.305536150932312,
      "363": -4.177810192108154,
      "364": 2.4894638061523438,
      "365": -1.4385879039764404,
      "366": 0.9500815272331238,
      "367": 0.03675221651792526,
      "368": 3.018970489501953,
      "369": -2.32877516746521,
      "370": 0.38313794136047363,
      "371": -0.04483561962842941,
      "372": 1.362794280052185,
      "373": -0.6586523056030273,
      "374": 2.8795082569122314,
      "375": 0.20921580493450165,
      "376": -0.24350544810295105,
      "377": -0.14066724479198456,
      "378": -1.6255584955215454,
      "379": 1.2762598991394043,
      "380": 1.2475850582122803,
      "381": -1.4526824951171875,
      "382": 0.5078507661819458,
      "383": 0.468210369348526,
      "384": 0.2573342025279999,
      "385": -0.8835612535476685,
      "386": -0.7288681864738464,
      "387": -0.9857056140899658,
      "388": -0.398201048374176,
      "389": -3.8849003314971924,
      "390": -1.4031957387924194,
      "391": -0.44601765275001526,
      "392": 0.40082186460494995,
      "393": 1.7801849842071533,
      "394": 3.5395591259002686,
      "395": 0.7913535237312317,
      "396": -2.7320480346679688,
      "397": 3.056901216506958,
      "398": -0.8027502298355103,
      "399": -4.501698970794678,
      "400": 0.048881568014621735,
      "401": -2.179435968399048,
      "402": -2.429663896560669,
      "403": -0.05024750903248787,
      "404": -1.0531201362609863,
      "405": 1.4311021566390991,
      "406": 2.2176432609558105,
      "407": -0.10010701417922974,
      "408": 2.2905521392822266,
      "409": 1.9555810689926147,
      "410": 3.293956995010376,
      "411": 1.5013244152069092,
      "412": -0.4229770004749298,
      "413": -2.707686185836792,
      "414": -3.0316381454467773,
      "415": -0.8517662286758423,
      "416": 2.921633720397949,
      "417": -0.15758852660655975,
      "418": -1.2793385982513428,
      "419": -5.7031025886535645,
      "420": -0.5631807446479797,
      "421": -3.423693895339966,
      "422": -0.8773990869522095,
      "423": -0.38915273547172546,
      "424": 2.7696139812469482,
      "425": -1.8517565727233887,
      "426": -0.9374259114265442,
      "427": -1.953096866607666,
      "428": -2.5738000869750977,
      "429": -3.2506895065307617,
      "430": -1.6711210012435913,
      "431": 1.9463467597961426,
      "432": -2.5781824588775635,
      "433": -0.8484209775924683,
      "434": 0.7804545164108276,
      "435": 0.7282788753509521,
      "436": 0.10768814384937286,
      "437": -1.2054469585418701,
      "438": 1.7092130184173584,
      "439": 1.0446959733963013,
      "440": 2.550257444381714,
      "441": -2.876129150390625,
      "442": -1.8193020820617676,
      "443": 2.4454026222229004,
      "444": -0.16637828946113586,
      "445": 0.31425729393959045,
      "446": -3.32401704788208,
      "447": 0.23618462681770325,
      "448": -1.3249448537826538,
      "449": -1.1834052801132202,
      "450": 0.04314360022544861,
      "451": 1.5776488780975342,
      "452": 1.9451091289520264,
      "453": 1.1084949970245361,
      "454": 3.1211249828338623,
      "455": 0.7477253079414368,
      "456": 1.8637073040008545,
      "457": -0.32140645384788513,
      "458": -2.697324514389038,
      "459": 3.9221324920654297,
      "460": -1.049696445465088,
      "461": 0.11935734748840332,
      "462": -4.563446044921875,
      "463": 0.4243358075618744,
      "464": -0.9150545597076416,
      "465": -0.31311118602752686,
      "466": -1.9601415395736694,
      "467": 1.5009788274765015,
      "468": -4.762136936187744,
      "469": 2.881471872329712,
      "470": 1.9654407501220703,
      "471": -0.9407475590705872,
      "472": 0.12134705483913422,
      "473": -3.01269268989563,
      "474": -3.538942813873291,
      "475": 4.260763645172119,
      "476": -4.224401473999023,
      "477": -0.02018818072974682,
      "478": -1.9741144180297852,
      "479": -0.44625401496887207,
      "480": 3.063246488571167,
      "481": -0.7368830442428589,
      "482": 0.9922455549240112,
      "483": -0.2946106195449829,
      "484": 0.13000290095806122,
      "485": -1.8005608320236206,
      "486": 1.501468300819397,
      "487": 0.3985098600387573,
      "488": 1.7867720127105713,
      "489": -4.0454583168029785,
      "490": -4.656961441040039,
      "491": 4.005551815032959,
      "492": 11.1425199508667,
      "493": -1.524603247642517,
      "494": -3.501434326171875,
      "495": 5.461637020111084,
      "496": 4.73595666885376,
      "497": -9.787704467773438,
      "498": 4.586340427398682,
      "499": 0.1208103746175766,
      "500": -2.484926223754883,
      "501": -2.239352226257324,
      "502": 1.5408148765563965,
      "503": 10.539127349853516,
      "504": 5.6121087074279785,
      "505": 4.13417911529541,
      "506": -8.492871284484863,
      "507": -2.8688862323760986,
      "508": -2.369323492050171,
      "509": 4.318504333496094,
      "510": 6.745497703552246,
      "511": 11.075349807739258,
      "512": -0.49511250853538513,
      "513": 4.0858635902404785,
      "514": -3.6903531551361084,
      "515": -4.094485759735107,
      "516": 9.428014755249023,
      "517": -4.767900466918945,
      "518": 5.085562229156494,
      "519": 4.15162467956543,
      "520": 0.9861921072006226,
      "521": -1.675832748413086,
      "522": -1.8566560745239258,
      "523": -4.93172550201416,
      "524": 3.288419008255005,
      "525": -2.064934730529785,
      "526": -7.0175347328186035,
      "527": -9.725444793701172,
      "528": 13.379484176635742,
      "529": 9.212148666381836,
      "530": -4.416306018829346,
      "531": 1.9885966777801514,
      "532": -5.48297119140625,
      "533": -6.877597332000732,
      "534": 9.77064037322998,
      "535": 4.256750583648682,
      "536": -9.024394989013672,
      "537": -2.3327903747558594,
      "538": -2.9763247966766357,
      "539": 1.2059714794158936,
      "540": -0.8554094433784485,
      "541": -1.326539397239685,
      "542": 4.321208953857422,
      "543": -0.38092026114463806,
      "544": 0.021677076816558838,
      "545": 0.8551254272460938,
      "546": 1.985765814781189,
      "547": -1.2724212408065796,
      "548": -1.215094804763794,
      "549": 1.142419457435608,
      "550": -4.537069320678711,
      "551": -4.022815227508545,
      "552": 3.8147425651550293,
      "553": 0.34420740604400635,
      "554": -1.843465805053711,
      "555": -2.7066972255706787,
      "556": 3.981402635574341,
      "557": -1.6246776580810547,
      "558": -0.33731046319007874,
      "559": -4.310502052307129,
      "560": 2.658778190612793,
      "561": -4.70619010925293,
      "562": -3.5954301357269287,
      "563": -0.7548222541809082,
      "564": 0.03175082057714462,
      "565": 1.9519703388214111,
      "566": -0.1165357306599617,
      "567": 1.107890248298645,
      "568": -5.297672271728516,
      "569": 3.3430063724517822,
      "570": 1.2674331665039062,
      "571": 2.379035472869873,
      "572": -0.40540021657943726,
      "573": -3.5062365531921387,
      "574": 5.777205467224121,
      "575": -1.713476300239563,
      "576": 0.7882453203201294,
      "577": 3.3314731121063232,
      "578": 0.42980828881263733,
      "579": 3.7319419384002686,
      "580": 0.3215749263763428,
      "581": 6.896596431732178,
      "582": 4.464404582977295,
      "583": 2.9421722888946533,
      "584": -1.4963440895080566,
      "585": -1.0963319540023804,
      "586": -0.87872314453125,
      "587": 2.2684106826782227,
      "588": -5.902297496795654,
      "589": -2.194148540496826,
      "590": 3.6879994869232178,
      "591": -1.758655071258545,
      "592": 0.5935681462287903,
      "593": -0.7669683694839478,
      "594": 0.7474544048309326,
      "595": -0.8510662317276001,
      "596": -0.9224123358726501,
      "597": -1.6873555183410645,
      "598": 1.3362172842025757,
      "599": 3.8168680667877197,
      "600": -1.2565691471099854,
      "601": 0.13115961849689484,
      "602": -2.6787209510803223,
      "603": -3.8614461421966553,
      "604": 1.5726052522659302,
      "605": -0.5115597248077393,
      "606": 1.4338828325271606,
      "607": 3.145411968231201,
      "608": -1.4862172603607178,
      "609": -0.34567686915397644,
      "610": 2.7936182022094727,
      "611": -1.0705608129501343,
      "612": -1.4192789793014526,
      "613": -3.634326457977295,
      "614": 1.606500267982483,
      "615": -0.19201922416687012,
      "616": 1.3847213983535767,
      "617": 0.4524540901184082,
      "618": -2.8454768657684326,
      "619": -5.46788215637207,
      "620": 2.189326286315918,
      "621": -1.9441839456558228,
      "622": 1.2557945251464844,
      "623": -1.4515259265899658,
      "624": 1.7567769289016724,
      "625": 0.3466394543647766,
      "626": -0.4034653306007385,
      "627": -0.05285866931080818,
      "628": -1.9039288759231567,
      "629": -0.29677706956863403,
      "630": -1.1261991262435913,
      "631": -1.487899661064148,
      "632": -3.3099241256713867,
      "633": -1.0857347249984741,
      "634": -4.926126480102539,
      "635": -0.9437739849090576,
      "636": 0.0537138469517231,
      "637": 4.050727844238281,
      "638": 2.047135829925537,
      "639": -2.4264919757843018,
      "640": -0.13250307738780975,
      "641": -2.8869848251342773,
      "642": 0.11598314344882965,
      "643": -1.537297248840332,
      "644": -1.4436187744140625,
      "645": -0.8967100977897644,
      "646": 0.7648547291755676,
      "647": -1.7564353942871094,
      "648": 0.4999980330467224,
      "649": 1.7512983083724976,
      "650": -1.2088024616241455,
      "651": 2.0175704956054688,
      "652": 2.167140245437622,
      "653": 3.299997091293335,
      "654": -2.535600423812866,
      "655": -2.756378412246704,
      "656": -2.9930403232574463,
      "657": 1.3644001483917236,
      "658": 3.614035129547119,
      "659": 0.9658204317092896,
      "660": 0.3828848600387573,
      "661": 1.0154056549072266,
      "662": 4.618772029876709,
      "663": -0.48735082149505615,
      "664": 3.188690662384033,
      "665": -4.669356822967529,
      "666": 0.7857140302658081,
      "667": 0.1857188194990158,
      "668": 1.8353908061981201,
      "669": -0.49399885535240173,
      "670": 0.20537985861301422,
      "671": -1.7683024406433105,
      "672": -1.9552679061889648,
      "673": 0.2551769018173218,
      "674": -1.5989246368408203,
      "675": 0.03963925689458847,
      "676": -0.9647570252418518,
      "677": -0.2670110762119293,
      "678": 1.5718514919281006,
      "679": -0.8728650808334351,
      "680": -0.9928388595581055,
      "681": 0.639624297618866,
      "682": -2.297569751739502,
      "683": 2.5483992099761963,
      "684": 2.2730460166931152,
      "685": -1.25494384765625,
      "686": 0.997122049331665,
      "687": 0.2669388949871063,
      "688": -1.1614853143692017,
      "689": 0.6221209168434143,
      "690": 0.3424067199230194,
      "691": 0.22324806451797485,
      "692": -0.5617054104804993,
      "693": 0.8813546895980835,
      "694": 2.2234880924224854,
      "695": 0.7611897587776184,
      "696": 0.5429319143295288,
      "697": -1.8558063507080078,
      "698": -2.8295226097106934,
      "699": -1.032567024230957,
      "700": -0.4348127841949463,
      "701": 0.7805885672569275,
      "702": 1.8998985290527344,
      "703": 3.1337735652923584,
      "704": -1.060788869857788,
      "705": 1.7899640798568726,
      "706": 0.006457736250013113,
      "707": 1.4899466037750244,
      "708": -1.7690823078155518,
      "709": -1.7542415857315063,
      "710": 0.10578382015228271,
      "711": 1.0231165885925293,
      "712": -0.6688494086265564,
      "713": 2.2945847511291504,
      "714": -2.379443883895874,
      "715": -1.0691415071487427,
      "716": 1.0229947566986084,
      "717": 0.5641835331916809,
      "718": 0.6163071393966675,
      "719": 1.5596842765808105,
      "720": -2.8360726833343506,
      "721": 0.7569307088851929,
      "722": 0.15772296488285065,
      "723": 0.22117388248443604,
      "724": -1.5721571445465088,
      "725": -0.746664822101593,
      "726": -0.5443965792655945,
      "727": 0.7269384860992432,
      "728": 0.13853216171264648,
      "729": 1.6435343027114868,
      "730": -0.34955403208732605,
      "731": -1.8248482942581177,
      "732": 0.5551149845123291,
      "733": 0.44121232628822327,
      "734": -0.2880520820617676,
      "735": 1.506995439529419,
      "736": 4.693641185760498,
      "737": -0.745297372341156,
      "738": -1.646216869354248,
      "739": -3.7583062648773193,
      "740": 0.3826863169670105,
      "741": 2.7061593532562256,
      "742": 6.363250255584717,
      "743": 1.7367929220199585,
      "744": 0.09848964214324951,
      "745": -2.109281063079834,
      "746": 1.1657352447509766,
      "747": 2.240649938583374,
      "748": 2.364715337753296,
      "749": 1.1629890203475952,
      "750": -3.317077159881592,
      "751": 2.3341965675354004,
      "752": -0.6947429180145264,
      "753": 3.256277322769165,
      "754": -3.08084774017334,
      "755": -0.7301754951477051,
      "756": -2.668022871017456,
      "757": 2.4821696281433105,
      "758": -1.7502676248550415,
      "759": -1.9109368324279785,
      "760": 1.2884917259216309,
      "761": -0.14015179872512817,
      "762": -2.701000690460205,
      "763": -0.3783503770828247,
      "764": 0.5809107422828674,
      "765": 4.507222652435303,
      "766": -2.220703125,
      "767": -1.376059889793396,
      "768": 2.7642734050750732,
      "769": -0.004626261070370674,
      "770": 3.6629810333251953,
      "771": 0.44264715909957886,
      "772": -3.351621627807617,
      "773": 0.15772069990634918,
      "774": 0.3397996425628662,
      "775": -3.0599162578582764,
      "776": 0.21194256842136383,
      "777": -0.2243843823671341,
      "778": -0.5121090412139893,
      "779": -1.5762548446655273,
      "780": -1.3425055742263794,
      "781": 0.44425421953201294,
      "782": 0.2473103106021881,
      "783": -1.6554501056671143,
      "784": 2.261491298675537,
      "785": -3.458189010620117,
      "786": -1.614902377128601,
      "787": -0.8407827615737915,
      "788": -0.2837793529033661,
      "789": -0.060594648122787476,
      "790": -2.406381130218506,
      "791": -0.692309558391571,
      "792": 0.43203920125961304,
      "793": 0.8973536491394043,
      "794": 1.305007815361023,
      "795": -3.271075487136841,
      "796": -1.2753448486328125,
      "797": -3.0647411346435547,
      "798": 1.530929684638977,
      "799": 0.63667893409729,
      "800": -2.544752836227417,
      "801": -1.1642708778381348,
      "802": -2.908810615539551,
      "803": 3.1803340911865234,
      "804": -3.498469114303589,
      "805": 2.467465877532959,
      "806": -3.1295008659362793,
      "807": -2.6860110759735107,
      "808": 0.6308792233467102,
      "809": 1.1702443361282349,
      "810": -0.3930913805961609,
      "811": 3.5642688274383545,
      "812": -0.11060459166765213,
      "813": -1.6260104179382324,
      "814": -0.2976561486721039,
      "815": 1.1586557626724243,
      "816": -0.5688337683677673,
      "817": -0.1527778059244156,
      "818": 0.7007483839988708,
      "819": 2.602984666824341,
      "820": -2.235568046569824,
      "821": 0.3961532711982727,
      "822": 3.1991117000579834,
      "823": 1.7155914306640625,
      "824": -0.45715293288230896,
      "825": 1.1907342672348022,
      "826": 0.578743040561676,
      "827": 1.7426068782806396,
      "828": 3.358011484146118,
      "829": -5.839083671569824,
      "830": 0.05134163424372673,
      "831": 1.3752994537353516,
      "832": -1.2435518503189087,
      "833": -1.5146080255508423,
      "834": 0.6809817552566528,
      "835": 0.43225356936454773,
      "836": -1.0716445446014404,
      "837": -3.4611353874206543,
      "838": 1.1231023073196411,
      "839": -1.6581546068191528,
      "840": 0.6357718706130981,
      "841": 5.683742523193359,
      "842": 5.77137565612793,
      "843": 3.2905988693237305,
      "844": -0.5584462285041809,
      "845": 0.17026548087596893,
      "846": 4.527102947235107,
      "847": 5.369377136230469,
      "848": -2.486246347427368,
      "849": -4.2503581047058105,
      "850": 1.2433969974517822,
      "851": -2.5780062675476074,
      "852": 1.8769382238388062,
      "853": -1.8703348636627197,
      "854": 4.6955742835998535,
      "855": -2.1162538528442383,
      "856": -4.663763999938965,
      "857": 3.4585702419281006,
      "858": -0.5670580267906189,
      "859": -1.0119268894195557,
      "860": 0.9986401796340942,
      "861": -0.7035219073295593,
      "862": -2.2058143615722656,
      "863": 1.8517870903015137,
      "864": 1.4425878524780273,
      "865": -1.0135209560394287,
      "866": -0.3905359208583832,
      "867": -0.7735090851783752,
      "868": 0.14664942026138306,
      "869": -4.122849464416504,
      "870": -5.342979431152344,
      "871": 4.419127464294434,
      "872": 3.560861349105835,
      "873": 4.321048736572266,
      "874": 5.178794860839844,
      "875": 0.7274088859558105,
      "876": 0.1497345268726349,
      "877": 6.68228816986084,
      "878": -1.474536657333374,
      "879": -1.8286105394363403,
      "880": 4.650853633880615,
      "881": 1.6772757768630981,
      "882": -5.914701461791992,
      "883": -4.435049533843994,
      "884": 9.727222442626953,
      "885": -0.9941363334655762,
      "886": 1.3706456422805786,
      "887": -1.531387448310852,
      "888": -6.918705463409424,
      "889": -1.3700544834136963,
      "890": -5.0488715171813965,
      "891": -5.394012451171875,
      "892": -5.478682518005371,
      "893": 12.359772682189941,
      "894": 1.9949989318847656,
      "895": -8.50102424621582,
      "896": -3.435767650604248,
      "897": -10.183494567871094,
      "898": -12.679850578308105,
      "899": -9.512188911437988,
      "900": 0.22855083644390106,
      "901": 13.658226013183594,
      "902": -0.9220651984214783,
      "903": 2.1557862758636475,
      "904": 10.837278366088867,
      "905": -0.13017572462558746,
      "906": -6.580420017242432,
      "907": -4.234841346740723,
      "908": -2.805201530456543,
      "909": 3.2399678230285645,
      "910": 8.960245132446289,
      "911": -4.374873638153076,
      "912": -12.315946578979492,
      "913": -9.000113487243652,
      "914": 2.578519344329834,
      "915": -5.43328857421875,
      "916": 11.11699390411377,
      "917": -2.038858652114868,
      "918": 5.335481643676758,
      "919": -1.8068416118621826,
      "920": 10.172266960144043,
      "921": -4.935277462005615,
      "922": -1.0273427963256836,
      "923": -8.97402572631836,
      "924": 3.58847975730896,
      "925": -6.798637390136719,
      "926": -7.916369438171387,
      "927": -2.1316041946411133,
      "928": -17.418867111206055,
      "929": -2.9043779373168945,
      "930": -9.351744651794434,
      "931": -0.6889925599098206,
      "932": 1.8239964246749878,
      "933": 0.588969886302948,
      "934": 1.0858638286590576,
      "935": -1.1319117546081543,
      "936": 0.2948201596736908,
      "937": -0.3855564594268799,
      "938": -1.5735572576522827,
      "939": 0.16649754345417023,
      "940": -0.3046097457408905,
      "941": -2.700540065765381,
      "942": 0.8908495903015137,
      "943": 0.21010088920593262,
      "944": 2.100666046142578,
      "945": 0.7451749444007874,
      "946": -0.3478776216506958,
      "947": 1.6251991987228394,
      "948": 2.121279239654541,
      "949": 1.8156663179397583,
      "950": -1.8798307180404663,
      "951": -1.3271138668060303,
      "952": -3.81060791015625,
      "953": -0.8136582970619202,
      "954": -0.7843033671379089,
      "955": 3.3754682540893555,
      "956": 0.033147405833005905,
      "957": -1.1533238887786865,
      "958": -3.297802448272705,
      "959": -0.40194839239120483,
      "960": -3.064668893814087,
      "961": 0.14914292097091675,
      "962": 0.3002004325389862,
      "963": 2.058933734893799,
      "964": -0.7293573617935181,
      "965": -0.31794291734695435,
      "966": -0.6797427535057068,
      "967": -0.6593606472015381,
      "968": -1.04659903049469,
      "969": -1.7029536962509155,
      "970": 0.5657927989959717,
      "971": 2.002495765686035,
      "972": -1.6273705959320068,
      "973": 3.3419439792633057,
      "974": 2.8730335235595703,
      "975": -1.0807830095291138,
      "976": 0.19938668608665466,
      "977": 2.0580151081085205,
      "978": -0.06563136726617813,
      "979": 1.7012947797775269,
      "980": -0.47420385479927063,
      "981": -0.6593301892280579,
      "982": 1.571873426437378,
      "983": 0.08596739172935486,
      "984": 1.4616812467575073,
      "985": -0.3030205965042114,
      "986": 2.6982874870300293,
      "987": -1.8519892692565918,
      "988": -1.6604262590408325,
      "989": -1.6033439636230469,
      "990": -0.6870243549346924,
      "991": 1.2367477416992188,
      "992": 0.0678342878818512,
      "993": -0.8156656622886658,
      "994": -1.4161263704299927,
      "995": -2.601639747619629,
      "996": -0.15361270308494568,
      "997": 0.5260510444641113,
      "998": -0.18219409883022308,
      "999": 1.7704522609710693,
      "1000": -0.40919163823127747,
      "1001": 0.3703334629535675,
      "1002": 1.4325366020202637,
      "1003": 0.9592893123626709,
      "1004": 0.6257386803627014,
      "1005": -0.8048705458641052,
      "1006": 1.4614852666854858,
      "1007": 1.6896029710769653,
      "1008": 0.8732805252075195,
      "1009": 0.2700279951095581,
      "1010": -0.6920216083526611,
      "1011": -0.7211986780166626,
      "1012": 0.8439051508903503,
      "1013": -1.048066258430481,
      "1014": 0.10179901123046875,
      "1015": 3.205798387527466,
      "1016": 0.9670509696006775,
      "1017": 1.4292887449264526,
      "1018": -0.48349693417549133,
      "1019": -0.24148285388946533,
      "1020": -0.13108046352863312,
      "1021": 0.3558395504951477,
      "1022": -0.9107246994972229,
      "1023": 0.2516273856163025,
      "1024": -0.40372970700263977,
      "1025": -1.384637713432312,
      "1026": -1.5170615911483765,
      "1027": -0.5430150032043457,
      "1028": 0.13276603817939758,
      "1029": -1.8059171438217163,
      "1030": -0.5825055837631226,
      "1031": 0.8565173149108887,
      "1032": 3.0173702239990234,
      "1033": -3.3891258239746094,
      "1034": -2.622392416000366,
      "1035": -2.9451897144317627,
      "1036": 0.4070949852466583,
      "1037": 2.553748369216919,
      "1038": 1.7979472875595093,
      "1039": -3.7152352333068848,
      "1040": 0.04612157121300697,
      "1041": -3.2996418476104736,
      "1042": 1.3478385210037231,
      "1043": -0.6015632748603821,
      "1044": -1.864870309829712,
      "1045": -3.4242587089538574,
      "1046": 6.955209732055664,
      "1047": -2.7585439682006836,
      "1048": 0.9161994457244873,
      "1049": -0.5921885371208191,
      "1050": -1.3660041093826294,
      "1051": -1.1490223407745361,
      "1052": -5.153082370758057,
      "1053": 0.2664402425289154,
      "1054": -4.537007808685303,
      "1055": 1.6092262268066406,
      "1056": -1.1982306241989136,
      "1057": 0.17132216691970825,
      "1058": -3.6907308101654053,
      "1059": 0.6216022372245789,
      "1060": 0.6436365246772766,
      "1061": 4.560232162475586,
      "1062": 1.4693584442138672,
      "1063": -1.0676196813583374,
      "1064": 4.8046770095825195,
      "1065": -2.471235752105713,
      "1066": -0.9351418018341064,
      "1067": -0.8566824197769165,
      "1068": 4.587603569030762,
      "1069": 8.2242431640625,
      "1070": 1.8237342834472656,
      "1071": 2.314466953277588,
      "1072": 2.3139808177948,
      "1073": 1.745581865310669,
      "1074": 0.38424140214920044,
      "1075": -0.6750867962837219,
      "1076": 5.227802753448486,
      "1077": 1.9657083749771118,
      "1078": 0.16236373782157898,
      "1079": 3.3333544731140137,
      "1080": 0.889604389667511,
      "1081": 0.9216800332069397,
      "1082": -0.6973153352737427,
      "1083": 1.1293108463287354,
      "1084": -0.09392747282981873,
      "1085": 1.2719957828521729,
      "1086": -1.8741756677627563,
      "1087": -0.7268058061599731,
      "1088": -3.449424982070923,
      "1089": 1.6174958944320679,
      "1090": -0.6230033040046692,
      "1091": -1.4220874309539795,
      "1092": -0.34422600269317627,
      "1093": -1.2014286518096924,
      "1094": 0.704616367816925,
      "1095": -1.038590431213379,
      "1096": -2.0352771282196045,
      "1097": -3.4581658840179443,
      "1098": 1.1764239072799683,
      "1099": -0.17239327728748322,
      "1100": -1.0407805442810059,
      "1101": 2.115396738052368,
      "1102": 2.3554086685180664,
      "1103": 1.1472878456115723,
      "1104": -3.5416676998138428,
      "1105": 1.7076478004455566,
      "1106": -0.8443830609321594,
      "1107": -2.11588454246521,
      "1108": 0.5502443313598633,
      "1109": -0.05936543270945549,
      "1110": 1.5759108066558838,
      "1111": 1.0149562358856201,
      "1112": -0.018754390999674797,
      "1113": -1.3896838426589966,
      "1114": 0.22847720980644226,
      "1115": -0.7267096042633057,
      "1116": -0.05918525531888008,
      "1117": -1.3683515787124634,
      "1118": 0.13090276718139648,
      "1119": -0.46164628863334656,
      "1120": 1.2886316776275635,
      "1121": 0.10746139287948608,
      "1122": -0.6405463218688965,
      "1123": -1.8852778673171997,
      "1124": 3.9536170959472656,
      "1125": -0.45690733194351196,
      "1126": 1.258793830871582,
      "1127": 0.7129014730453491,
      "1128": -2.8271236419677734,
      "1129": -1.328179955482483,
      "1130": -0.09748164564371109,
      "1131": -0.010040546767413616,
      "1132": 1.3189709186553955,
      "1133": -0.9758771657943726,
      "1134": 0.33821922540664673,
      "1135": 2.2787630558013916,
      "1136": 2.7577953338623047,
      "1137": 0.7152640223503113,
      "1138": -2.185194730758667,
      "1139": -0.9840407967567444,
      "1140": -0.5163776874542236,
      "1141": 2.0189385414123535,
      "1142": -1.936699628829956,
      "1143": -0.6466231942176819,
      "1144": -0.24111199378967285,
      "1145": 0.2839949429035187,
      "1146": -1.168299674987793,
      "1147": -0.2233024388551712,
      "1148": -0.37546366453170776,
      "1149": -1.6691972017288208,
      "1150": -2.5576539039611816,
      "1151": 0.09329132735729218,
      "1152": 1.7304151058197021,
      "1153": -1.3937565088272095,
      "1154": 0.49984660744667053,
      "1155": -0.12053196877241135,
      "1156": -1.0291602611541748,
      "1157": 0.8895121812820435,
      "1158": 0.9884576797485352,
      "1159": -0.22769981622695923,
      "1160": -0.7061574459075928,
      "1161": -0.3232884705066681,
      "1162": 0.6923938989639282,
      "1163": -1.92219877243042,
      "1164": -0.45907580852508545,
      "1165": -0.10718760639429092,
      "1166": 0.5471035838127136,
      "1167": -0.8138052821159363,
      "1168": 2.7098374366760254,
      "1169": 1.1777195930480957,
      "1170": 1.0881695747375488,
      "1171": 1.5738310813903809,
      "1172": 0.6504291892051697,
      "1173": 0.8229612708091736,
      "1174": 0.7603796124458313,
      "1175": -0.24554522335529327,
      "1176": -0.9099881649017334,
      "1177": -2.6406211853027344,
      "1178": -1.1178765296936035,
      "1179": -1.0542378425598145,
      "1180": 6.128754615783691,
      "1181": -1.6374651193618774,
      "1182": 0.5566759705543518,
      "1183": 2.346992254257202,
      "1184": -5.33113956451416,
      "1185": 0.9862629175186157,
      "1186": -1.7173274755477905,
      "1187": 2.507054328918457,
      "1188": 2.0319554805755615,
      "1189": 0.32939472794532776,
      "1190": -4.878618240356445,
      "1191": -0.017292454838752747,
      "1192": 1.4873850345611572,
      "1193": -0.08777874708175659,
      "1194": -0.2530263364315033,
      "1195": 0.9335076808929443,
      "1196": -4.513278484344482,
      "1197": -1.4022541046142578,
      "1198": 3.747234582901001,
      "1199": -0.5614311695098877,
      "1200": 3.408763885498047,
      "1201": -2.8711814880371094,
      "1202": -3.1957781314849854,
      "1203": -1.37005615234375,
      "1204": -2.7695047855377197,
      "1205": -1.6119805574417114,
      "1206": 0.09999794512987137,
      "1207": -1.6183722019195557,
      "1208": 2.2251150608062744,
      "1209": 1.7164068222045898,
      "1210": 0.5973024368286133,
      "1211": -1.6170952320098877,
      "1212": 3.987969160079956,
      "1213": 2.466116428375244,
      "1214": -4.604674816131592,
      "1215": -4.386938571929932,
      "1216": 1.2410935163497925,
      "1217": -7.164819240570068,
      "1218": -0.36737680435180664,
      "1219": 1.110784888267517,
      "1220": -6.081038475036621,
      "1221": -1.4009549617767334,
      "1222": -0.3658007085323334,
      "1223": -2.8997251987457275,
      "1224": 2.353199005126953,
      "1225": -2.849926710128784,
      "1226": 1.4233663082122803,
      "1227": 1.0496453046798706,
      "1228": -4.822511196136475,
      "1229": -3.2259199619293213,
      "1230": -3.0878188610076904,
      "1231": 4.455758094787598,
      "1232": -1.083552360534668,
      "1233": 4.843978404998779,
      "1234": 6.260183811187744,
      "1235": 3.280062675476074,
      "1236": 5.67475700378418,
      "1237": 3.3215842247009277,
      "1238": -1.1429232358932495,
      "1239": 3.2102272510528564,
      "1240": 2.7327847480773926,
      "1241": -0.06890857964754105,
      "1242": 1.658481478691101,
      "1243": -3.3664472103118896,
      "1244": 4.662895202636719,
      "1245": 4.754543304443359,
      "1246": 2.5618247985839844,
      "1247": 5.58660888671875,
      "1248": -0.5610972046852112,
      "1249": -4.6692214012146,
      "1250": -6.742519378662109,
      "1251": 4.026858806610107,
      "1252": -1.1329418420791626,
      "1253": -0.024250533431768417,
      "1254": 4.895299434661865,
      "1255": -4.969804286956787,
      "1256": 6.38587760925293,
      "1257": -4.234344005584717,
      "1258": -1.427456259727478,
      "1259": 0.05451196804642677,
      "1260": 0.4569765627384186,
      "1261": -2.3710010051727295,
      "1262": -4.287015438079834,
      "1263": 10.818618774414062,
      "1264": 3.2652781009674072,
      "1265": 0.5920515060424805,
      "1266": 2.992021083831787,
      "1267": -9.298800468444824,
      "1268": -5.757840156555176,
      "1269": -2.313495635986328,
      "1270": 6.291386604309082,
      "1271": -3.5171546936035156,
      "1272": 0.0794321596622467,
      "1273": -1.6589797735214233,
      "1274": -1.3742245435714722,
      "1275": -3.731252431869507,
      "1276": 1.2570842504501343,
      "1277": -2.1164207458496094,
      "1278": 1.1582378149032593,
      "1279": -2.6495916843414307,
      "1280": 1.9736450910568237,
      "1281": -2.3226776123046875,
      "1282": 0.5998653173446655,
      "1283": -0.28955960273742676,
      "1284": 6.024471282958984,
      "1285": 0.9271652102470398,
      "1286": 1.6138947010040283,
      "1287": -0.5405724048614502,
      "1288": -0.7925875186920166,
      "1289": 1.8934352397918701,
      "1290": 0.8663747906684875,
      "1291": -1.471431851387024,
      "1292": 2.3691565990448,
      "1293": 2.045551300048828,
      "1294": 0.36478352546691895,
      "1295": -1.6526437997817993,
      "1296": 0.47054439783096313,
      "1297": -2.21980619430542,
      "1298": -1.8920596837997437,
      "1299": -0.8719871640205383,
      "1300": 4.286514759063721,
      "1301": -1.8943334817886353,
      "1302": 4.351219654083252,
      "1303": 2.6551589965820312,
      "1304": -3.6491260528564453,
      "1305": -0.517973005771637,
      "1306": -5.0929412841796875,
      "1307": -3.014043092727661,
      "1308": 3.702674388885498,
      "1309": -0.13017573952674866,
      "1310": 0.6033868193626404,
      "1311": 1.4552932977676392,
      "1312": 0.890132486820221,
      "1313": 0.031020190566778183,
      "1314": -0.6502082943916321,
      "1315": -1.9388638734817505,
      "1316": -2.6936469078063965,
      "1317": -2.037768602371216,
      "1318": 0.8172208070755005,
      "1319": 0.6997373104095459,
      "1320": -3.337618112564087,
      "1321": -2.364985466003418,
      "1322": -3.704026937484741,
      "1323": 2.035857915878296,
      "1324": 0.05084235966205597,
      "1325": -2.179701089859009,
      "1326": 1.3398241996765137,
      "1327": -0.06401384621858597,
      "1328": 2.2489986419677734,
      "1329": -2.107423782348633,
      "1330": 0.9342800974845886,
      "1331": 1.8224916458129883,
      "1332": 1.9969587326049805,
      "1333": -3.9573593139648438,
      "1334": -2.2517223358154297,
      "1335": -2.274507522583008,
      "1336": 1.4179394245147705,
      "1337": 1.309522032737732,
      "1338": 0.49689075350761414,
      "1339": -0.25071823596954346,
      "1340": 2.2375636100769043,
      "1341": -2.5455944538116455,
      "1342": 0.4166100025177002,
      "1343": -0.08819939941167831,
      "1344": 1.3749476671218872,
      "1345": -1.4050045013427734,
      "1346": -1.9654983282089233,
      "1347": 1.0992413759231567,
      "1348": 1.599029779434204,
      "1349": -2.9524271488189697,
      "1350": 0.8821214437484741,
      "1351": -2.0525059700012207,
      "1352": -0.6989035606384277,
      "1353": 1.8236970901489258,
      "1354": 2.7658169269561768,
      "1355": 0.4370805025100708,
      "1356": 1.532620906829834,
      "1357": -1.6900181770324707,
      "1358": 2.80253005027771,
      "1359": 0.2554000914096832,
      "1360": 1.69769287109375,
      "1361": -1.3322038650512695,
      "1362": -0.27492523193359375,
      "1363": 2.976219654083252,
      "1364": -0.9120011329650879,
      "1365": -0.0716051310300827,
      "1366": 2.1538288593292236,
      "1367": 0.0734865590929985,
      "1368": -1.4080899953842163,
      "1369": 0.5140100121498108,
      "1370": 1.208158254623413,
      "1371": 1.2020342350006104,
      "1372": 3.284975290298462,
      "1373": 4.6421217918396,
      "1374": -2.7885308265686035,
      "1375": 4.239229202270508,
      "1376": -1.2578997611999512,
      "1377": 0.9441307187080383,
      "1378": -2.1080117225646973,
      "1379": 4.266928672790527,
      "1380": 2.3451268672943115,
      "1381": 3.1400139331817627,
      "1382": -1.8718215227127075,
      "1383": 1.4504292011260986,
      "1384": 3.8454182147979736,
      "1385": 2.4929728507995605,
      "1386": 1.2202383279800415,
      "1387": 0.45339083671569824,
      "1388": -3.7829654216766357,
      "1389": 4.534477710723877,
      "1390": -2.416980266571045,
      "1391": -2.6024038791656494,
      "1392": -6.819241523742676,
      "1393": 1.3012936115264893,
      "1394": 2.433511734008789,
      "1395": -0.9371753334999084,
      "1396": 1.595786213874817,
      "1397": 3.3758885860443115,
      "1398": 1.5355091094970703,
      "1399": -2.3687493801116943,
      "1400": -2.695061206817627,
      "1401": -3.5308754444122314,
      "1402": 4.1337738037109375,
      "1403": 3.7862634658813477,
      "1404": 4.225235462188721,
      "1405": 4.790721416473389,
      "1406": -5.621805191040039,
      "1407": 0.5844006538391113,
      "1408": -2.2553346157073975,
      "1409": -2.2893760204315186,
      "1410": 3.787306070327759,
      "1411": 2.053549289703369,
      "1412": 4.2679314613342285,
      "1413": 1.3494802713394165,
      "1414": 4.297991752624512,
      "1415": 2.4274721145629883,
      "1416": 1.3835352659225464,
      "1417": 4.215120315551758,
      "1418": 1.9578930139541626,
      "1419": 1.0690377950668335,
      "1420": 4.806763172149658,
      "1421": -3.322072744369507,
      "1422": 3.1583964824676514,
      "1423": 10.23030948638916,
      "1424": -1.790535569190979,
      "1425": -4.760979175567627,
      "1426": -0.3089730441570282,
      "1427": 2.1977109909057617,
      "1428": -9.911739349365234,
      "1429": 0.06719270348548889,
      "1430": -0.018499620258808136,
      "1431": 4.862880229949951,
      "1432": -4.145089626312256,
      "1433": -1.6644071340560913,
      "1434": 4.283889293670654,
      "1435": 5.595098972320557,
      "1436": 4.885402202606201,
      "1437": 3.8057260513305664,
      "1438": 3.647836923599243,
      "1439": 2.2042665481567383,
      "1440": 3.9114739894866943,
      "1441": 2.3291916847229004,
      "1442": -2.924696207046509,
      "1443": -9.079270362854004,
      "1444": 1.0873347520828247,
      "1445": -1.6559996604919434,
      "1446": -5.736464023590088,
      "1447": 3.4292502403259277,
      "1448": -6.39031982421875,
      "1449": 7.191922664642334,
      "1450": -1.514399528503418,
      "1451": -4.098840713500977,
      "1452": -2.3368520736694336,
      "1453": -2.124161720275879,
      "1454": -4.984257698059082,
      "1455": 5.7776594161987305,
      "1456": -8.223733901977539,
      "1457": -2.193574905395508,
      "1458": -5.543503761291504,
      "1459": -3.8097951412200928,
      "1460": 5.275442123413086,
      "1461": -7.396063327789307,
      "1462": -0.03414537012577057,
      "1463": -1.1522831916809082,
      "1464": 0.09571745246648788,
      "1465": -1.4930957555770874,
      "1466": 2.9784092903137207,
      "1467": -2.3615829944610596,
      "1468": 2.5012290477752686,
      "1469": -1.8726024627685547,
      "1470": -4.946600914001465,
      "1471": -0.8205817937850952,
      "1472": 1.1911468505859375,
      "1473": -7.009348392486572,
      "1474": -0.28405678272247314,
      "1475": -2.6873667240142822,
      "1476": -0.6705789566040039,
      "1477": -0.05556512996554375,
      "1478": -2.620925188064575,
      "1479": -1.5649549961090088,
      "1480": -0.6135379076004028,
      "1481": 10.123952865600586,
      "1482": 3.353754758834839,
      "1483": -1.8330906629562378,
      "1484": -1.3737107515335083,
      "1485": -3.566993236541748,
      "1486": -0.241050124168396,
      "1487": -2.957423686981201,
      "1488": 1.7938190698623657,
      "1489": 2.450481414794922,
      "1490": 2.9490151405334473,
      "1491": -1.789279818534851,
      "1492": 13.146004676818848,
      "1493": -0.873075544834137,
      "1494": -0.25384521484375,
      "1495": -5.596366882324219,
      "1496": 3.6960601806640625,
      "1497": -3.5107762813568115,
      "1498": 2.357274055480957,
      "1499": 4.280087471008301,
      "1500": -4.473928451538086,
      "1501": 0.3561253845691681,
      "1502": -1.7242742776870728,
      "1503": -3.5997886657714844,
      "1504": 7.039351940155029,
      "1505": -3.187345266342163,
      "1506": 0.44092512130737305,
      "1507": -0.6220393776893616,
      "1508": 1.980789303779602,
      "1509": -0.8273522853851318,
      "1510": 5.142989635467529,
      "1511": -1.1671196222305298,
      "1512": -8.706123352050781,
      "1513": 0.2219913750886917,
      "1514": -0.6183658838272095,
      "1515": 2.551710844039917,
      "1516": -0.1680004745721817,
      "1517": 0.4119810163974762,
      "1518": -0.9104356169700623,
      "1519": -2.927764892578125,
      "1520": 1.0649974346160889,
      "1521": 2.443314552307129,
      "1522": 5.755774974822998,
      "1523": -12.017175674438477,
      "1524": 9.914175033569336,
      "1525": -10.135573387145996,
      "1526": 0.6109849810600281,
      "1527": 6.949655055999756,
      "1528": 7.497828483581543,
      "1529": -6.43902063369751,
      "1530": 4.167047500610352,
      "1531": 1.657004475593567,
      "1532": 10.035611152648926,
      "1533": 10.104372024536133,
      "1534": 5.084161758422852,
      "1535": -5.6221604347229,
      "1536": 4.936619281768799,
      "1537": -2.4065918922424316,
      "1538": -3.5578863620758057,
      "1539": -3.761439323425293,
      "1540": 3.4613311290740967,
      "1541": 2.7688076496124268,
      "1542": -20.01882553100586,
      "1543": 2.3487889766693115,
      "1544": -2.839991569519043,
      "1545": -4.436992168426514,
      "1546": -2.465996742248535,
      "1547": -4.389740467071533,
      "1548": -5.135528087615967,
      "1549": -2.3391339778900146,
      "1550": 2.860384464263916,
      "1551": 9.128358840942383,
      "1552": 1.7846308946609497,
      "1553": -3.57993221282959,
      "1554": 3.83304500579834,
      "1555": -14.857359886169434,
      "1556": -15.836529731750488,
      "1557": -1.2300490140914917,
      "1558": 2.440683603286743,
      "1559": 15.710929870605469,
      "1560": 2.856342315673828,
      "1561": 1.0943349599838257,
      "1562": -1.7782257795333862,
      "1563": 10.080415725708008,
      "1564": -4.013372898101807,
      "1565": 4.824650287628174,
      "1566": 16.258724212646484,
      "1567": 5.003625392913818,
      "1568": -5.040077209472656,
      "1569": -4.831572532653809,
      "1570": 3.40590763092041,
      "1571": -1.646049976348877,
      "1572": -0.22106948494911194,
      "1573": -5.335644245147705,
      "1574": -0.4414064884185791,
      "1575": -9.023575782775879,
      "1576": 6.3723368644714355,
      "1577": 3.4663116931915283,
      "1578": 7.759432315826416,
      "1579": 3.5322203636169434,
      "1580": 5.159246921539307,
      "1581": -0.5059869885444641,
      "1582": 4.196763038635254,
      "1583": 10.571907997131348,
      "1584": -0.7864418625831604,
      "1585": -1.8987795114517212,
      "1586": 1.8917498588562012,
      "1587": 4.978877544403076,
      "1588": 7.508800029754639,
      "1589": -1.1061352491378784,
      "1590": 8.438263893127441,
      "1591": -4.0984954833984375,
      "1592": -5.963841915130615,
      "1593": -5.232992172241211,
      "1594": 7.8821234703063965,
      "1595": -1.0494179725646973,
      "1596": 0.9121054410934448,
      "1597": 2.7243266105651855,
      "1598": -8.236159324645996,
      "1599": -0.7970190644264221,
      "1600": -5.98661470413208,
      "1601": -0.5171660780906677,
      "1602": 1.3151060342788696,
      "1603": 1.6778564453125,
      "1604": -0.6606053113937378,
      "1605": 1.945698618888855,
      "1606": 3.223275661468506,
      "1607": 2.5081543922424316,
      "1608": -5.256182670593262,
      "1609": 1.5675491094589233,
      "1610": -8.180593490600586,
      "1611": -6.728542804718018,
      "1612": 6.195974349975586,
      "1613": 4.354851722717285,
      "1614": -8.79753303527832,
      "1615": 3.713488817214966,
      "1616": -5.125048637390137,
      "1617": -4.471371173858643,
      "1618": 5.1736884117126465,
      "1619": 4.017159461975098,
      "1620": 15.494140625,
      "1621": -0.08292856812477112,
      "1622": 2.436534881591797,
      "1623": -1.3314012289047241,
      "1624": -4.9564666748046875,
      "1625": 0.12541893124580383,
      "1626": -2.5558903217315674,
      "1627": -9.710668563842773,
      "1628": 5.025326728820801,
      "1629": 5.676563739776611,
      "1630": 4.797548294067383,
      "1631": 1.2980083227157593,
      "1632": 8.281299591064453,
      "1633": -0.6772950291633606,
      "1634": 8.898690223693848,
      "1635": 12.363321304321289,
      "1636": -9.079256057739258,
      "1637": -0.6377199292182922,
      "1638": -9.04017448425293,
      "1639": 5.70534086227417,
      "1640": -7.536426544189453,
      "1641": 13.347299575805664,
      "1642": -3.3635432720184326,
      "1643": 1.4259437322616577,
      "1644": -7.445947647094727,
      "1645": -2.8767855167388916,
      "1646": -13.204751014709473,
      "1647": 6.62466287612915,
      "1648": -5.548061847686768,
      "1649": 17.754037857055664,
      "1650": -7.26535701751709,
      "1651": -9.118243217468262,
      "1652": 2.5502266883850098,
      "1653": -9.285369873046875,
      "1654": -3.030243158340454,
      "1655": -6.1915130615234375,
      "1656": 1.6522917747497559,
      "1657": 1.5578596591949463,
      "1658": 0.5224442481994629,
      "1659": 11.67717456817627,
      "1660": 9.62918472290039,
      "1661": 3.4402875900268555,
      "1662": 0.3101326823234558,
      "1663": 11.091322898864746,
      "1664": 5.209667682647705,
      "1665": 15.584158897399902,
      "1666": 3.213578939437866,
      "1667": 9.912019729614258,
      "1668": -3.584455966949463,
      "1669": 9.779980659484863,
      "1670": -8.099627494812012,
      "1671": -2.517819881439209,
      "1672": -1.506284475326538,
      "1673": 5.6862263679504395,
      "1674": -4.482090950012207,
      "1675": -5.717946529388428,
      "1676": -11.111495018005371,
      "1677": 4.268935680389404,
      "1678": -2.191497564315796,
      "1679": -9.046772003173828,
      "1680": 0.6797377467155457,
      "1681": -4.456723690032959,
      "1682": 9.3541841506958,
      "1683": -4.17411470413208,
      "1684": -4.615391254425049,
      "1685": -18.44944190979004,
      "1686": 6.571285247802734,
      "1687": -5.575577259063721,
      "1688": -3.3506217002868652,
      "1689": 4.207123756408691,
      "1690": 12.445855140686035,
      "1691": 6.128705024719238,
      "1692": -11.534835815429688,
      "1693": -2.313509702682495,
      "1694": -3.9557693004608154,
      "1695": -1.5910251140594482,
      "1696": -0.9865416884422302,
      "1697": -1.3702292442321777,
      "1698": 0.07041431218385696,
      "1699": 1.3749644756317139,
      "1700": 1.0962395668029785,
      "1701": -2.3112053871154785,
      "1702": 4.003111362457275,
      "1703": -1.9877095222473145,
      "1704": -9.859859466552734,
      "1705": -2.2948102951049805,
      "1706": 14.020604133605957,
      "1707": 6.202974796295166,
      "1708": -1.1342240571975708,
      "1709": -0.7145698070526123,
      "1710": -3.844057083129883,
      "1711": -4.558032035827637,
      "1712": 16.289310455322266,
      "1713": 5.634941101074219,
      "1714": 0.0016844813944771886,
      "1715": -1.2738014459609985,
      "1716": -4.704835891723633,
      "1717": -3.4177684783935547,
      "1718": -0.3801974654197693,
      "1719": 15.2372465133667,
      "1720": 10.00243854522705,
      "1721": 3.306321144104004,
      "1722": -0.05722065642476082,
      "1723": -0.06272976100444794,
      "1724": -3.5442147254943848,
      "1725": 5.607572555541992,
      "1726": -4.760624885559082,
      "1727": -1.918416976928711,
      "1728": -3.0885860919952393,
      "1729": -6.654385566711426,
      "1730": -2.50604510307312,
      "1731": 10.301257133483887,
      "1732": -3.163431406021118,
      "1733": 4.616816997528076,
      "1734": -0.6616474986076355,
      "1735": -4.157124042510986,
      "1736": -6.699543476104736,
      "1737": -7.152864933013916,
      "1738": 8.181206703186035,
      "1739": -1.1680052280426025,
      "1740": -0.9894837737083435,
      "1741": -6.087716579437256,
      "1742": 0.0369718037545681,
      "1743": 1.075729489326477,
      "1744": 4.192348957061768,
      "1745": 2.4570486545562744,
      "1746": -0.9569011330604553,
      "1747": -4.412281513214111,
      "1748": 1.772552251815796,
      "1749": 0.2211601436138153,
      "1750": -7.072630405426025,
      "1751": 1.3536874055862427,
      "1752": 10.060544967651367,
      "1753": -2.0571606159210205,
      "1754": -8.375556945800781,
      "1755": -7.9510931968688965,
      "1756": -6.0567169189453125,
      "1757": 3.8605284690856934,
      "1758": 0.4013665020465851,
      "1759": -10.82533073425293,
      "1760": 2.9602153301239014,
      "1761": -1.2670230865478516,
      "1762": -6.861238479614258,
      "1763": -2.1584014892578125,
      "1764": 6.196500778198242,
      "1765": 2.621100902557373,
      "1766": -6.995449066162109,
      "1767": 2.869730234146118,
      "1768": -1.5968949794769287,
      "1769": 1.470692753791809,
      "1770": -9.443753242492676,
      "1771": -8.333099365234375,
      "1772": 2.995623826980591,
      "1773": 9.834221839904785,
      "1774": 1.16237211227417,
      "1775": -11.114012718200684,
      "1776": -9.803667068481445,
      "1777": -0.7845125794410706,
      "1778": 5.191957950592041,
      "1779": 5.941908836364746,
      "1780": -0.4817831218242645,
      "1781": 1.117912769317627,
      "1782": 0.46861961483955383,
      "1783": -5.460054874420166,
      "1784": 4.972456932067871,
      "1785": 1.3810431957244873,
      "1786": -15.342315673828125,
      "1787": -3.719874382019043,
      "1788": -2.797441005706787,
      "1789": 6.44596529006958,
      "1790": 2.353360891342163,
      "1791": -1.2564524412155151,
      "1792": -4.1779608726501465,
      "1793": -3.883906602859497,
      "1794": 1.741868257522583,
      "1795": 12.359722137451172,
      "1796": -2.987346649169922,
      "1797": 1.9613828659057617,
      "1798": -3.64448881149292,
      "1799": 10.593636512756348,
      "1800": -3.7405385971069336,
      "1801": 1.6635777950286865,
      "1802": -1.2018932104110718,
      "1803": 3.3893043994903564,
      "1804": 8.147187232971191,
      "1805": 4.190868854522705,
      "1806": 3.139183521270752,
      "1807": 9.449843406677246,
      "1808": 4.148423671722412,
      "1809": 3.0647072792053223,
      "1810": 1.186633825302124,
      "1811": 7.2918806076049805,
      "1812": -1.9157617092132568,
      "1813": -8.9752197265625,
      "1814": 6.656595706939697,
      "1815": 4.093562602996826,
      "1816": -0.8914386630058289,
      "1817": -12.991747856140137,
      "1818": -3.3375258445739746,
      "1819": -3.8304390907287598,
      "1820": 2.234999656677246,
      "1821": 8.708398818969727,
      "1822": 4.315202236175537,
      "1823": 5.684253692626953,
      "1824": 2.228490114212036,
      "1825": 4.548803806304932,
      "1826": 10.434846878051758,
      "1827": 5.530808925628662,
      "1828": 10.115235328674316,
      "1829": 2.580995798110962,
      "1830": -2.2193984985351562,
      "1831": 8.824776649475098,
      "1832": 2.8623528480529785,
      "1833": 6.70521879196167,
      "1834": -7.318911552429199,
      "1835": 7.190082550048828,
      "1836": -5.620264530181885,
      "1837": 0.8409634232521057,
      "1838": -7.496600151062012,
      "1839": 10.175457954406738,
      "1840": -10.282319068908691,
      "1841": 0.14059971272945404,
      "1842": 2.0065841674804688,
      "1843": 0.21555249392986298,
      "1844": -2.9691524505615234,
      "1845": -6.304940223693848,
      "1846": 3.6444895267486572,
      "1847": 1.5183601379394531,
      "1848": 11.866994857788086,
      "1849": -0.42023876309394836,
      "1850": -15.833117485046387,
      "1851": 0.474721759557724,
      "1852": 5.498266220092773,
      "1853": 4.479560375213623,
      "1854": -2.016920804977417,
      "1855": -9.187872886657715,
      "1856": -8.739856719970703,
      "1857": 0.730124294757843,
      "1858": 6.625825881958008,
      "1859": -0.6293224096298218,
      "1860": 2.280787229537964,
      "1861": -4.969918727874756,
      "1862": -7.165400505065918,
      "1863": -3.5016896724700928,
      "1864": 6.533724308013916,
      "1865": -1.4498939514160156,
      "1866": -2.6248772144317627,
      "1867": 1.7592188119888306,
      "1868": -1.1793386936187744,
      "1869": -12.090089797973633,
      "1870": -1.8442713022232056,
      "1871": -4.012497901916504,
      "1872": 5.76560640335083,
      "1873": -0.9150659441947937,
      "1874": 4.360186576843262,
      "1875": 1.8952680826187134,
      "1876": 0.8225679397583008,
      "1877": 6.297687530517578,
      "1878": -3.383944511413574,
      "1879": 0.7499412894248962,
      "1880": 3.451810836791992,
      "1881": 11.536820411682129,
      "1882": 5.321217060089111,
      "1883": 0.22037893533706665,
      "1884": -1.2949180603027344,
      "1885": -2.86476469039917,
      "1886": -7.2302350997924805,
      "1887": -4.449118614196777,
      "1888": 5.604902267456055,
      "1889": 2.797764778137207,
      "1890": 0.5338424444198608,
      "1891": -1.5945993661880493,
      "1892": -2.736546754837036,
      "1893": -0.8843324184417725,
      "1894": -1.6982547044754028,
      "1895": -0.7865582704544067,
      "1896": -2.599698305130005,
      "1897": 3.558061122894287,
      "1898": -1.3443796634674072,
      "1899": -2.4452924728393555,
      "1900": -4.200075626373291,
      "1901": 1.0100513696670532,
      "1902": -6.026668548583984,
      "1903": -0.7896310091018677,
      "1904": 2.169722080230713,
      "1905": -1.7851171493530273,
      "1906": 5.015407085418701,
      "1907": 1.1163674592971802,
      "1908": -7.185348987579346,
      "1909": 1.6294194459915161,
      "1910": -0.038880906999111176,
      "1911": -5.17998743057251,
      "1912": 3.232966899871826,
      "1913": -0.8701244592666626,
      "1914": 16.026527404785156,
      "1915": -0.8141652941703796,
      "1916": 4.6113152503967285,
      "1917": -1.8844226598739624,
      "1918": 0.43606331944465637,
      "1919": -0.19421131908893585,
      "1920": 0.4717729389667511,
      "1921": -2.0117294788360596,
      "1922": -0.773945152759552,
      "1923": -16.314159393310547,
      "1924": 12.298208236694336,
      "1925": 1.156428575515747,
      "1926": -7.304221153259277,
      "1927": -1.9602386951446533,
      "1928": 12.5382661819458,
      "1929": 5.575765609741211,
      "1930": -6.005936145782471,
      "1931": -5.438253402709961,
      "1932": -5.860581874847412,
      "1933": -20.858736038208008,
      "1934": -6.629411220550537,
      "1935": -1.4480777978897095,
      "1936": -3.823035478591919,
      "1937": -2.349579334259033,
      "1938": -4.11902379989624,
      "1939": 1.1706112623214722,
      "1940": -13.470258712768555,
      "1941": -0.14212866127490997,
      "1942": 0.3481403589248657,
      "1943": 8.392333984375,
      "1944": -0.6532968282699585,
      "1945": -9.623482704162598,
      "1946": 7.389153957366943,
      "1947": -0.14081113040447235,
      "1948": 2.2619476318359375,
      "1949": -4.9503960609436035,
      "1950": 6.838628768920898,
      "1951": 8.326234817504883,
      "1952": 4.2913079261779785,
      "1953": 15.350356101989746,
      "1954": 14.619214057922363,
      "1955": -7.58509635925293,
      "1956": -2.032343864440918,
      "1957": 3.148944139480591,
      "1958": 7.229186534881592,
      "1959": 5.436380863189697,
      "1960": -3.6773135662078857,
      "1961": 0.018930602818727493,
      "1962": 2.8066487312316895,
      "1963": 1.634576439857483,
      "1964": -2.0475854873657227,
      "1965": -2.5541350841522217,
      "1966": 1.5805623531341553,
      "1967": -2.29978084564209,
      "1968": 2.2459402084350586,
      "1969": 0.25627321004867554,
      "1970": 0.7991658449172974,
      "1971": 6.1767425537109375,
      "1972": 1.3209593296051025,
      "1973": -3.2789814472198486,
      "1974": 0.9132090210914612,
      "1975": 1.3699629306793213,
      "1976": -0.15266825258731842,
      "1977": 1.991538166999817,
      "1978": 3.6317899227142334,
      "1979": 3.1765778064727783,
      "1980": 1.8653823137283325,
      "1981": -3.9811434745788574,
      "1982": 2.710524797439575,
      "1983": -1.0667743682861328,
      "1984": 2.3635902404785156,
      "1985": -2.9575116634368896,
      "1986": -0.03612692654132843,
      "1987": -2.9037606716156006,
      "1988": 2.318180561065674,
      "1989": -3.2928779125213623,
      "1990": -1.420440912246704,
      "1991": -1.0371925830841064,
      "1992": -1.2421436309814453,
      "1993": -1.880836844444275,
      "1994": 0.8212345838546753,
      "1995": -0.24881364405155182,
      "1996": -0.6238516569137573,
      "1997": -1.292716145515442,
      "1998": -1.5707557201385498,
      "1999": -0.04767448082566261,
      "2000": -0.2963171899318695,
      "2001": -0.9709157347679138,
      "2002": -1.7637261152267456,
      "2003": -1.5600335597991943,
      "2004": 1.0178464651107788,
      "2005": 0.5662941932678223,
      "2006": -3.1613268852233887,
      "2007": 0.76755690574646,
      "2008": 2.0348238945007324,
      "2009": 2.1111230850219727,
      "2010": 3.153424024581909,
      "2011": -0.48953673243522644,
      "2012": 0.5314725637435913,
      "2013": -1.2755693197250366,
      "2014": 2.7182419300079346,
      "2015": 0.30843615531921387,
      "2016": 1.9366114139556885,
      "2017": 1.2737836837768555,
      "2018": 1.3765428066253662,
      "2019": -1.7212302684783936,
      "2020": -0.9869796633720398,
      "2021": 0.5496497750282288,
      "2022": 2.008589744567871,
      "2023": 3.124336004257202,
      "2024": -4.1298699378967285,
      "2025": -2.3291213512420654,
      "2026": 2.000394821166992,
      "2027": -1.5484431982040405,
      "2028": -4.74859619140625,
      "2029": -3.3188140392303467,
      "2030": -0.9026564955711365,
      "2031": -1.4257739782333374,
      "2032": 0.4647699296474457,
      "2033": 2.184610605239868,
      "2034": 3.043212652206421,
      "2035": -2.484159231185913,
      "2036": 0.21995636820793152,
      "2037": -1.4027820825576782,
      "2038": -1.0208978652954102,
      "2039": 3.780410051345825,
      "2040": -0.017287446185946465,
      "2041": 3.3724122047424316,
      "2042": 0.9679461717605591,
      "2043": 0.1002754271030426,
      "2044": 1.343138575553894,
      "2045": -0.22828854620456696,
      "2046": -1.6335062980651855,
      "2047": 1.2770817279815674,
      "2048": 1.3267484903335571,
      "2049": 4.555916786193848,
      "2050": 0.11118856072425842,
      "2051": 3.6117522716522217,
      "2052": 1.7030324935913086,
      "2053": 2.1691930294036865,
      "2054": -1.5369811058044434,
      "2055": 1.5646655559539795,
      "2056": 0.28737956285476685,
      "2057": 1.8441821336746216,
      "2058": -4.909641742706299,
      "2059": -2.3973276615142822,
      "2060": 3.1880054473876953,
      "2061": -3.2886712551116943,
      "2062": -0.8641524314880371,
      "2063": -10.785565376281738,
      "2064": -7.544311046600342,
      "2065": -4.742756366729736,
      "2066": 3.076512575149536,
      "2067": 2.574497938156128,
      "2068": 7.324817657470703,
      "2069": 9.186939239501953,
      "2070": 3.687380790710449,
      "2071": -0.5327119827270508,
      "2072": 3.0261619091033936,
      "2073": 10.489324569702148,
      "2074": -2.2445218563079834,
      "2075": -3.7257497310638428,
      "2076": 5.927797794342041,
      "2077": 5.508765697479248,
      "2078": 2.318084955215454,
      "2079": -1.6006405353546143,
      "2080": 5.567713737487793,
      "2081": -6.280343532562256,
      "2082": -8.53747272491455,
      "2083": -7.2910308837890625,
      "2084": 1.027931809425354,
      "2085": -3.6039958000183105,
      "2086": 4.326962471008301,
      "2087": -0.851687490940094,
      "2088": -5.1207427978515625,
      "2089": -1.5649051666259766,
      "2090": -9.057058334350586,
      "2091": -3.1381258964538574,
      "2092": 4.186313629150391,
      "2093": -4.9730753898620605,
      "2094": -0.44639936089515686,
      "2095": -2.502150297164917,
      "2096": -0.47697028517723083,
      "2097": -2.4315025806427,
      "2098": -3.4476139545440674,
      "2099": 0.32188698649406433,
      "2100": -7.037621021270752,
      "2101": -9.921603202819824,
      "2102": -3.696120023727417,
      "2103": 8.13355541229248,
      "2104": -5.671597003936768,
      "2105": 1.9344820976257324,
      "2106": -2.4301528930664062,
      "2107": 1.9161235094070435,
      "2108": 0.9587265253067017,
      "2109": -3.816413402557373,
      "2110": 0.9293084144592285,
      "2111": -13.180929183959961,
      "2112": -4.149773120880127,
      "2113": -2.7448177337646484,
      "2114": 3.9415178298950195,
      "2115": 3.5004236698150635,
      "2116": 1.3418316841125488,
      "2117": -7.105612277984619,
      "2118": 2.7844433784484863,
      "2119": 4.510793685913086,
      "2120": 14.07419490814209,
      "2121": 10.256053924560547,
      "2122": -2.038499355316162,
      "2123": -6.171000003814697,
      "2124": -4.933667182922363,
      "2125": 1.3285952806472778,
      "2126": -5.382635593414307,
      "2127": 1.9368131160736084,
      "2128": -1.6102858781814575,
      "2129": 3.6465554237365723,
      "2130": -7.629542350769043,
      "2131": 1.9349929094314575,
      "2132": 2.429776906967163,
      "2133": 6.375760555267334,
      "2134": 1.1098886728286743,
      "2135": 4.659172058105469,
      "2136": 2.7877185344696045,
      "2137": -0.7428956627845764,
      "2138": -1.9668937921524048,
      "2139": -0.8836835622787476,
      "2140": 3.488250494003296,
      "2141": 3.965695858001709,
      "2142": 6.815086364746094,
      "2143": -8.964057922363281,
      "2144": -10.269694328308105,
      "2145": 2.9218673706054688,
      "2146": 11.996617317199707,
      "2147": 4.845223426818848,
      "2148": 8.840669631958008,
      "2149": -0.42050111293792725,
      "2150": -5.797316074371338,
      "2151": 8.647011756896973,
      "2152": -1.4089657068252563,
      "2153": 1.1121786832809448,
      "2154": 9.96945858001709,
      "2155": -7.046352863311768,
      "2156": 2.0423154830932617,
      "2157": 9.739004135131836,
      "2158": 1.9541337490081787,
      "2159": 4.972477436065674,
      "2160": 7.691859722137451,
      "2161": -14.785843849182129,
      "2162": 6.813790798187256,
      "2163": 2.863814353942871,
      "2164": -3.7574265003204346,
      "2165": -7.535078048706055,
      "2166": 2.0063843727111816,
      "2167": -0.1288076788187027,
      "2168": 6.005037307739258,
      "2169": -14.992193222045898,
      "2170": -5.807171821594238,
      "2171": 4.349219799041748,
      "2172": 12.602696418762207,
      "2173": 2.5738770961761475,
      "2174": 3.759024143218994,
      "2175": 4.881462097167969,
      "2176": 8.766839981079102,
      "2177": 7.983181476593018,
      "2178": 3.902768135070801,
      "2179": 5.438845157623291,
      "2180": -14.47890567779541,
      "2181": -3.4210150241851807,
      "2182": 4.371620178222656,
      "2183": 0.09563937038183212,
      "2184": -3.199525833129883,
      "2185": -0.5901548266410828,
      "2186": -6.233846664428711,
      "2187": -14.660383224487305,
      "2188": -0.7980034947395325,
      "2189": 2.5686838626861572,
      "2190": -10.757822036743164,
      "2191": -10.980758666992188,
      "2192": 11.800333976745605,
      "2193": -2.377354145050049,
      "2194": -4.007199764251709,
      "2195": -9.795132637023926,
      "2196": -4.399655342102051,
      "2197": -12.389517784118652,
      "2198": -6.537188529968262,
      "2199": -4.4821271896362305,
      "2200": -12.086477279663086,
      "2201": -4.2149434089660645,
      "2202": 1.7072199583053589,
      "2203": -11.049896240234375,
      "2204": -7.329593181610107,
      "2205": -9.723973274230957,
      "2206": 0.1948547512292862,
      "2207": 7.469827175140381,
      "2208": 4.073844909667969,
      "2209": 0.5040698051452637,
      "2210": -11.566658973693848,
      "2211": 16.205177307128906,
      "2212": 9.89841079711914,
      "2213": -2.5176548957824707,
      "2214": -2.794773578643799,
      "2215": 4.374479293823242,
      "2216": 1.4318000078201294,
      "2217": -2.926945924758911,
      "2218": -9.115883827209473,
      "2219": -9.114691734313965,
      "2220": 2.1045331954956055,
      "2221": 7.249476432800293,
      "2222": 3.9453377723693848,
      "2223": 4.855318069458008,
      "2224": 10.269028663635254,
      "2225": -1.8782455921173096,
      "2226": 0.47756659984588623,
      "2227": 7.07554292678833,
      "2228": 7.894654750823975,
      "2229": -4.2359395027160645,
      "2230": -10.603004455566406,
      "2231": 12.448098182678223,
      "2232": 1.4351726770401,
      "2233": 2.412328004837036,
      "2234": -3.4125328063964844,
      "2235": -0.2228684425354004,
      "2236": -3.253159999847412,
      "2237": -1.3024661540985107,
      "2238": 1.3044376373291016,
      "2239": 3.460658311843872,
      "2240": 4.048289775848389,
      "2241": 4.796910285949707,
      "2242": 9.559016227722168,
      "2243": -0.8085113763809204,
      "2244": -10.699130058288574,
      "2245": -11.120487213134766,
      "2246": -4.2926435470581055,
      "2247": -0.047132458537817,
      "2248": -6.879213333129883,
      "2249": -3.1041829586029053,
      "2250": -4.878253936767578,
      "2251": -7.746389865875244,
      "2252": -6.94313383102417,
      "2253": 1.7110480070114136,
      "2254": 7.532252788543701,
      "2255": 12.628546714782715,
      "2256": -9.79099178314209,
      "2257": 1.2843542098999023,
      "2258": -2.7352988719940186,
      "2259": 0.05897389352321625,
      "2260": -8.12934684753418,
      "2261": 4.3608012199401855,
      "2262": 12.91031265258789,
      "2263": 10.995996475219727,
      "2264": -5.186038017272949,
      "2265": -2.66408371925354,
      "2266": -4.049341201782227,
      "2267": 5.178319454193115,
      "2268": 6.905152797698975,
      "2269": 0.45821553468704224,
      "2270": -0.15559595823287964,
      "2271": 7.2714715003967285,
      "2272": -3.1547963619232178,
      "2273": -4.934854507446289,
      "2274": -7.343461513519287,
      "2275": 1.508099913597107,
      "2276": -2.197061061859131,
      "2277": -8.891112327575684,
      "2278": -3.538180112838745,
      "2279": 11.008156776428223,
      "2280": -2.8005387783050537,
      "2281": -6.699081897735596,
      "2282": -5.732455253601074,
      "2283": -4.229770660400391,
      "2284": 4.10184383392334,
      "2285": 7.0186662673950195,
      "2286": 5.158694267272949,
      "2287": 7.721479892730713,
      "2288": -10.838912963867188,
      "2289": 4.594658374786377,
      "2290": -8.051565170288086,
      "2291": -9.219473838806152,
      "2292": 2.2024989128112793,
      "2293": 3.8792688846588135,
      "2294": 10.539384841918945,
      "2295": 6.122994899749756,
      "2296": 4.685217380523682,
      "2297": 3.0718698501586914,
      "2298": 6.210658550262451,
      "2299": -6.8158955574035645,
      "2300": 1.1753162145614624,
      "2301": 2.0929102897644043,
      "2302": 3.574911594390869,
      "2303": 0.24567188322544098,
      "2304": 0.22596336901187897,
      "2305": -0.6456522345542908,
      "2306": -0.8908510208129883,
      "2307": 1.3783462047576904,
      "2308": 1.6683976650238037,
      "2309": -0.47209540009498596,
      "2310": 2.8995273113250732,
      "2311": -1.5747333765029907,
      "2312": -1.2340667247772217,
      "2313": -1.363371729850769,
      "2314": -0.05937772989273071,
      "2315": 1.2134251594543457,
      "2316": -0.8969738483428955,
      "2317": -0.4324008822441101,
      "2318": -1.74093759059906,
      "2319": -1.0154335498809814,
      "2320": 0.4019024074077606,
      "2321": -1.5499937534332275,
      "2322": -1.9358164072036743,
      "2323": -2.232948064804077,
      "2324": -0.13107827305793762,
      "2325": 1.6359727382659912,
      "2326": -1.1229281425476074,
      "2327": 0.8868987560272217,
      "2328": 0.018446365371346474,
      "2329": -2.325845718383789,
      "2330": 0.9500389099121094,
      "2331": -0.008827473036944866,
      "2332": 0.17833729088306427,
      "2333": 0.9726147055625916,
      "2334": -0.9283905029296875,
      "2335": 0.5900060534477234,
      "2336": -0.7898500561714172,
      "2337": -0.039763256907463074,
      "2338": 1.3084615468978882,
      "2339": -0.17139190435409546,
      "2340": 0.1961546391248703,
      "2341": -0.08764903247356415,
      "2342": -1.437595009803772,
      "2343": 0.30760785937309265,
      "2344": -1.3889352083206177,
      "2345": 0.3462727665901184,
      "2346": -0.6742335557937622,
      "2347": 0.42858466506004333,
      "2348": -1.7605905532836914,
      "2349": 1.5497068166732788,
      "2350": -1.35789954662323,
      "2351": 1.4550813436508179,
      "2352": 1.1974300146102905,
      "2353": 0.6583613753318787,
      "2354": -0.420056015253067,
      "2355": -0.6777907013893127,
      "2356": 0.3794058561325073,
      "2357": -1.0687917470932007,
      "2358": 0.2788306474685669,
      "2359": 0.6707406044006348,
      "2360": -0.9331387877464294,
      "2361": -1.3630377054214478,
      "2362": 0.577407956123352,
      "2363": 1.4103822708129883,
      "2364": 1.4634268283843994,
      "2365": -0.9486727714538574,
      "2366": 0.21252965927124023,
      "2367": 2.580348014831543,
      "2368": 1.4970412254333496,
      "2369": -1.2747681140899658,
      "2370": 1.6893489360809326,
      "2371": -0.7585797309875488,
      "2372": 1.1524871587753296,
      "2373": -1.1091232299804688,
      "2374": 1.0921218395233154,
      "2375": 0.4559941291809082,
      "2376": -2.2896199226379395,
      "2377": 1.2009131908416748,
      "2378": 1.4791494607925415,
      "2379": -0.2560878098011017,
      "2380": 1.2459709644317627,
      "2381": 2.606323480606079,
      "2382": -0.6386942267417908,
      "2383": 0.2683457136154175,
      "2384": -2.1599700450897217,
      "2385": 1.2332866191864014,
      "2386": 0.6512709259986877,
      "2387": 1.5629898309707642,
      "2388": 2.057237148284912,
      "2389": 2.636415958404541,
      "2390": -0.8952023983001709,
      "2391": -0.6890208721160889,
      "2392": -1.6484813690185547,
      "2393": -1.1349289417266846,
      "2394": -0.8557164669036865,
      "2395": -1.113777995109558,
      "2396": -1.1304820775985718,
      "2397": 0.7337433695793152,
      "2398": 0.46508529782295227,
      "2399": -0.7225115299224854,
      "2400": -2.4151923656463623,
      "2401": -0.04524915665388107,
      "2402": -0.07702092081308365,
      "2403": 0.02334359474480152,
      "2404": 0.01482811477035284,
      "2405": 0.044576626271009445,
      "2406": 0.036458518356084824,
      "2407": 0.02739286795258522,
      "2408": -0.052339427173137665,
      "2409": -0.0666603296995163,
      "2410": 0.005579444579780102,
      "2411": 0.05883984640240669,
      "2412": -0.0056005241349339485,
      "2413": -0.02871856652200222,
      "2414": 0.06070355698466301,
      "2415": 0.0048776185140013695,
      "2416": -0.0003777408564928919,
      "2417": -0.002967206761240959,
      "2418": -0.0023714362177997828,
      "2419": -0.028467770665884018,
      "2420": 0.05574492737650871,
      "2421": 0.0558520145714283,
      "2422": -0.04734956845641136,
      "2423": 0.024267585948109627,
      "2424": 0.03083846904337406,
      "2425": -0.03346959874033928,
      "2426": -0.03486001119017601,
      "2427": 0.06706513464450836,
      "2428": -0.013802002184092999,
      "2429": 0.018081575632095337,
      "2430": 0.01623624935746193,
      "2431": -0.00908587221056223,
      "2432": 0.005173658020794392,
      "2433": -0.06326604634523392,
      "2434": -0.06570380926132202,
      "2435": -0.017426470294594765,
      "2436": 0.07005839794874191,
      "2437": 0.05149064585566521,
      "2438": 0.038806647062301636,
      "2439": -0.004970118869096041,
      "2440": 0.012460123747587204,
      "2441": -0.006096071097999811,
      "2442": 0.06725934147834778,
      "2443": 0.018884701654314995,
      "2444": -0.0471511073410511,
      "2445": 0.01140117458999157,
      "2446": -0.018667802214622498,
      "2447": 0.02685762755572796,
      "2448": -0.05436662212014198,
      "2449": -0.021542122587561607
    }
  },
  "hiddenLayers": [
    {
      "inputMatrix": {
        "rows": 20,
        "columns": 49,
        "weights": {
          "0": -1.826908826828003,
          "1": -1.2136473655700684,
          "2": 0.8941388726234436,
          "3": -0.48500990867614746,
          "4": 0.4122202396392822,
          "5": -1.5697765350341797,
          "6": 1.2439004182815552,
          "7": -0.46589013934135437,
          "8": -0.5252017378807068,
          "9": -0.4748322069644928,
          "10": 0.7743068337440491,
          "11": 0.7329346537590027,
          "12": 1.394690990447998,
          "13": -0.9638475179672241,
          "14": -0.15155048668384552,
          "15": 2.1080586910247803,
          "16": 0.26494693756103516,
          "17": -1.6011571884155273,
          "18": 0.7184413075447083,
          "19": 1.2495120763778687,
          "20": 1.35244619846344,
          "21": -0.31782451272010803,
          "22": 0.9949499368667603,
          "23": 1.3021092414855957,
          "24": -0.40069130063056946,
          "25": -1.9003779888153076,
          "26": 1.3899539709091187,
          "27": -0.49471765756607056,
          "28": 0.6559798121452332,
          "29": -0.18217743933200836,
          "30": -1.3757857084274292,
          "31": -1.0135387182235718,
          "32": -0.6823679804801941,
          "33": -0.33266815543174744,
          "34": 1.1335699558258057,
          "35": 0.22106735408306122,
          "36": 0.5432705879211426,
          "37": 0.18785598874092102,
          "38": -0.14359302818775177,
          "39": -0.7626179456710815,
          "40": -0.7886286377906799,
          "41": -0.7239862680435181,
          "42": -1.4228767156600952,
          "43": -0.764121413230896,
          "44": -0.5103251338005066,
          "45": -0.35503479838371277,
          "46": -1.475778341293335,
          "47": -1.709296464920044,
          "48": -1.5686533451080322,
          "49": -1.208551287651062,
          "50": -2.287137985229492,
          "51": 0.7739408612251282,
          "52": -1.5115892887115479,
          "53": 1.4029297828674316,
          "54": -0.9129966497421265,
          "55": 1.2104824781417847,
          "56": 0.31061840057373047,
          "57": -1.3379143476486206,
          "58": -1.9567031860351562,
          "59": 0.07200919091701508,
          "60": 0.8057337403297424,
          "61": 1.524341344833374,
          "62": -1.7282732725143433,
          "63": -0.15937471389770508,
          "64": -0.38204801082611084,
          "65": 0.26296183466911316,
          "66": -1.1034523248672485,
          "67": 0.8409339785575867,
          "68": 0.7308976054191589,
          "69": 1.0295203924179077,
          "70": -0.5090345740318298,
          "71": 1.1881253719329834,
          "72": 0.3429572284221649,
          "73": -0.5039941668510437,
          "74": -1.8100818395614624,
          "75": 0.9825983047485352,
          "76": -0.03751872479915619,
          "77": 0.8977558016777039,
          "78": 0.8977653980255127,
          "79": 0.11516642570495605,
          "80": -0.3824077248573303,
          "81": -0.3537977337837219,
          "82": -1.1889872550964355,
          "83": 0.3323797583580017,
          "84": -1.181323766708374,
          "85": 0.4671339988708496,
          "86": 1.4914621114730835,
          "87": 0.2939598560333252,
          "88": -1.563773512840271,
          "89": -0.979459285736084,
          "90": -1.292606234550476,
          "91": -0.5087300539016724,
          "92": -1.1664541959762573,
          "93": 0.016090163961052895,
          "94": -0.36509594321250916,
          "95": -0.8496241569519043,
          "96": -2.2005395889282227,
          "97": 0.6904926896095276,
          "98": -0.6035265326499939,
          "99": -1.0414963960647583,
          "100": 1.4933491945266724,
          "101": 1.3061949014663696,
          "102": 0.494986355304718,
          "103": -0.24343398213386536,
          "104": 1.2691131830215454,
          "105": 0.641484797000885,
          "106": -1.4402352571487427,
          "107": -2.380704879760742,
          "108": -0.7400459051132202,
          "109": 0.7336949110031128,
          "110": -1.534450650215149,
          "111": -1.1190944910049438,
          "112": -2.3131144046783447,
          "113": -0.576967179775238,
          "114": 1.7251332998275757,
          "115": 1.9144985675811768,
          "116": 1.3193341493606567,
          "117": -1.5262486934661865,
          "118": 0.004344239830970764,
          "119": -1.4929174184799194,
          "120": -0.5946539640426636,
          "121": 0.6009953618049622,
          "122": 1.794291377067566,
          "123": 0.4434410333633423,
          "124": -0.18058720231056213,
          "125": -0.07956116646528244,
          "126": 0.15838474035263062,
          "127": -0.13546991348266602,
          "128": 1.459972858428955,
          "129": -2.4371390342712402,
          "130": 0.5898289680480957,
          "131": 1.0112483501434326,
          "132": -0.07991665601730347,
          "133": 1.2146384716033936,
          "134": 0.33516013622283936,
          "135": 1.6622074842453003,
          "136": -2.592404365539551,
          "137": -0.23143309354782104,
          "138": -0.7827425599098206,
          "139": 0.4426825940608978,
          "140": 0.7638589143753052,
          "141": 0.30016666650772095,
          "142": -1.1812076568603516,
          "143": -0.6332955956459045,
          "144": 0.8197742700576782,
          "145": -1.566872000694275,
          "146": 0.1672215312719345,
          "147": -0.9110901355743408,
          "148": -1.3592891693115234,
          "149": -0.09173465520143509,
          "150": 0.804771900177002,
          "151": -2.2936432361602783,
          "152": -0.31698551774024963,
          "153": 2.063297986984253,
          "154": 2.103663444519043,
          "155": -3.9062767028808594,
          "156": -1.8390717506408691,
          "157": -0.36812666058540344,
          "158": 3.369699478149414,
          "159": -0.8655686974525452,
          "160": -1.8576959371566772,
          "161": -0.1634168177843094,
          "162": -1.1517294645309448,
          "163": 2.611636161804199,
          "164": -0.606543779373169,
          "165": -0.3497566282749176,
          "166": -0.8045868277549744,
          "167": 1.1244168281555176,
          "168": -0.1554480493068695,
          "169": 1.2497869729995728,
          "170": 2.931715250015259,
          "171": 0.8415806889533997,
          "172": -0.10587336868047714,
          "173": -1.3159140348434448,
          "174": 0.9719367623329163,
          "175": -0.06621858477592468,
          "176": -1.0671374797821045,
          "177": -0.024019885808229446,
          "178": -0.8933356404304504,
          "179": -0.18660219013690948,
          "180": 0.30140992999076843,
          "181": 0.12085438519716263,
          "182": -1.9332656860351562,
          "183": 1.4212275743484497,
          "184": 1.4294637441635132,
          "185": -0.7813146710395813,
          "186": -1.1491481065750122,
          "187": 0.6641532182693481,
          "188": -0.3064202666282654,
          "189": -0.2334485501050949,
          "190": -1.4189268350601196,
          "191": -0.8549025058746338,
          "192": -1.1068521738052368,
          "193": 1.5257728099822998,
          "194": -2.2762906551361084,
          "195": 0.41255390644073486,
          "196": -0.39950311183929443,
          "197": -0.0035383994691073895,
          "198": -0.48090800642967224,
          "199": 0.701353907585144,
          "200": -0.2961246371269226,
          "201": -0.35273319482803345,
          "202": -0.4324876368045807,
          "203": 1.8920667171478271,
          "204": -3.3775014877319336,
          "205": -2.6242105960845947,
          "206": -0.5084490776062012,
          "207": 1.6551077365875244,
          "208": 1.289726972579956,
          "209": 0.23728320002555847,
          "210": -1.2198007106781006,
          "211": -0.4172862470149994,
          "212": 1.7004023790359497,
          "213": -0.6646344661712646,
          "214": -0.5908645391464233,
          "215": -0.6851772665977478,
          "216": 0.5369035005569458,
          "217": -0.3484419882297516,
          "218": 2.3690173625946045,
          "219": 2.1785354614257812,
          "220": -0.24680572748184204,
          "221": 0.6286161541938782,
          "222": 0.30935877561569214,
          "223": 0.2342715710401535,
          "224": -0.6526303291320801,
          "225": 0.5195007920265198,
          "226": 0.4003123342990875,
          "227": -0.8724657297134399,
          "228": -0.5001963376998901,
          "229": 0.09252136945724487,
          "230": 0.17760403454303741,
          "231": -1.0623213052749634,
          "232": 1.5625460147857666,
          "233": 0.2037670761346817,
          "234": 1.62859046459198,
          "235": -1.59266996383667,
          "236": -0.5711385011672974,
          "237": -0.5521111488342285,
          "238": 0.3122362494468689,
          "239": -1.4224281311035156,
          "240": -1.400586724281311,
          "241": -1.2665284872055054,
          "242": 0.010548902675509453,
          "243": -1.5720294713974,
          "244": -0.12866787612438202,
          "245": 0.41097578406333923,
          "246": 2.705395460128784,
          "247": -3.108985185623169,
          "248": 0.0030808262526988983,
          "249": 0.3210754096508026,
          "250": -0.41528207063674927,
          "251": 0.13013498485088348,
          "252": 2.640322685241699,
          "253": 0.8300560116767883,
          "254": 0.8371370434761047,
          "255": -0.3749040961265564,
          "256": 0.336015522480011,
          "257": -1.2843310832977295,
          "258": 0.20941554009914398,
          "259": 0.5822349190711975,
          "260": -0.6755371689796448,
          "261": -0.291096568107605,
          "262": 2.4579038619995117,
          "263": -0.8349716663360596,
          "264": -2.180100440979004,
          "265": -0.7325182557106018,
          "266": 1.73546302318573,
          "267": 0.7795568108558655,
          "268": -1.3134465217590332,
          "269": 0.4515772759914398,
          "270": 0.7232781648635864,
          "271": -1.5560901165008545,
          "272": 1.335810899734497,
          "273": -0.3393687307834625,
          "274": -0.8972912430763245,
          "275": 1.0637626647949219,
          "276": 0.2597786486148834,
          "277": 0.6326907873153687,
          "278": 1.9514775276184082,
          "279": -1.1835020780563354,
          "280": 0.8618268966674805,
          "281": -0.21085545420646667,
          "282": -0.30635973811149597,
          "283": -0.5575661659240723,
          "284": -0.5734091997146606,
          "285": 2.3021717071533203,
          "286": -0.6437801718711853,
          "287": 1.74566650390625,
          "288": 1.1172358989715576,
          "289": 0.1502389907836914,
          "290": 0.7645887732505798,
          "291": 0.6118696331977844,
          "292": -0.5321189761161804,
          "293": 1.8127954006195068,
          "294": -0.6891162395477295,
          "295": -2.1235554218292236,
          "296": 0.461303174495697,
          "297": -0.9270531535148621,
          "298": 0.5458806157112122,
          "299": -1.7992535829544067,
          "300": 0.9205257892608643,
          "301": 1.2504955530166626,
          "302": -1.2051780223846436,
          "303": -0.15531370043754578,
          "304": 1.9852138757705688,
          "305": 2.1854302883148193,
          "306": 0.399690717458725,
          "307": -1.421368956565857,
          "308": -0.8753958940505981,
          "309": -0.7243509292602539,
          "310": 0.6164039969444275,
          "311": -0.8252507448196411,
          "312": 0.1992381364107132,
          "313": -0.4864327609539032,
          "314": 0.3347880244255066,
          "315": -0.5592778921127319,
          "316": 0.7149505019187927,
          "317": -0.6323136687278748,
          "318": 1.0846149921417236,
          "319": -1.422384262084961,
          "320": -0.2231147289276123,
          "321": -0.6324325203895569,
          "322": 2.2519145011901855,
          "323": 0.8281604051589966,
          "324": -0.9292286038398743,
          "325": -0.6693393588066101,
          "326": -1.8907055854797363,
          "327": -1.4273914098739624,
          "328": 2.838690757751465,
          "329": 1.336461067199707,
          "330": 0.8542499542236328,
          "331": 2.072161912918091,
          "332": 0.8945999145507812,
          "333": -1.1939657926559448,
          "334": 0.8070389032363892,
          "335": -0.6899344325065613,
          "336": -1.5023729801177979,
          "337": -0.9926400184631348,
          "338": -0.14850853383541107,
          "339": 0.2745685279369354,
          "340": -0.8652138113975525,
          "341": -1.3064613342285156,
          "342": 0.10059788078069687,
          "343": 2.4850218296051025,
